{"learner":{"attributes":{"scikit_learn":"{\"_estimator_type\": \"classifier\"}"},"feature_names":[],"feature_types":[],"gradient_booster":{"model":{"gbtree_model_param":{"num_parallel_tree":"1","num_trees":"400"},"iteration_indptr":[0,4,8,12,16,20,24,28,32,36,40,44,48,52,56,60,64,68,72,76,80,84,88,92,96,100,104,108,112,116,120,124,128,132,136,140,144,148,152,156,160,164,168,172,176,180,184,188,192,196,200,204,208,212,216,220,224,228,232,236,240,244,248,252,256,260,264,268,272,276,280,284,288,292,296,300,304,308,312,316,320,324,328,332,336,340,344,348,352,356,360,364,368,372,376,380,384,388,392,396,400],"tree_info":[0,1,2,3,0,1,2,3,0,1,2,3,0,1,2,3,0,1,2,3,0,1,2,3,0,1,2,3,0,1,2,3,0,1,2,3,0,1,2,3,0,1,2,3,0,1,2,3,0,1,2,3,0,1,2,3,0,1,2,3,0,1,2,3,0,1,2,3,0,1,2,3,0,1,2,3,0,1,2,3,0,1,2,3,0,1,2,3,0,1,2,3,0,1,2,3,0,1,2,3,0,1,2,3,0,1,2,3,0,1,2,3,0,1,2,3,0,1,2,3,0,1,2,3,0,1,2,3,0,1,2,3,0,1,2,3,0,1,2,3,0,1,2,3,0,1,2,3,0,1,2,3,0,1,2,3,0,1,2,3,0,1,2,3,0,1,2,3,0,1,2,3,0,1,2,3,0,1,2,3,0,1,2,3,0,1,2,3,0,1,2,3,0,1,2,3,0,1,2,3,0,1,2,3,0,1,2,3,0,1,2,3,0,1,2,3,0,1,2,3,0,1,2,3,0,1,2,3,0,1,2,3,0,1,2,3,0,1,2,3,0,1,2,3,0,1,2,3,0,1,2,3,0,1,2,3,0,1,2,3,0,1,2,3,0,1,2,3,0,1,2,3,0,1,2,3,0,1,2,3,0,1,2,3,0,1,2,3,0,1,2,3,0,1,2,3,0,1,2,3,0,1,2,3,0,1,2,3,0,1,2,3,0,1,2,3,0,1,2,3,0,1,2,3,0,1,2,3,0,1,2,3,0,1,2,3,0,1,2,3,0,1,2,3,0,1,2,3,0,1,2,3,0,1,2,3,0,1,2,3,0,1,2,3,0,1,2,3,0,1,2,3,0,1,2,3,0,1,2,3,0,1,2,3,0,1,2,3,0,1,2,3,0,1,2,3,0,1,2,3],"trees":[{"base_weights":[8.317782E-2,-5.9301776E-1,1.7233509E0,-6.5662986E-1,1.9113055E-1,8.746455E-1,1.9349222E0,-6.614762E-1,2.739726E-2,-3.7227213E-1,7.180723E-1,3.752418E-1,1.5658073E0,1.9631227E0,1.2275862E0,-9.2307694E-2,-6.631049E-1,-4.347826E-1,7.096774E-1,-4.7172415E-1,8.3870965E-1,1.2E0,-1.2987013E-1,9.948365E-1,-4.121475E-1,1.7732283E0,2.5454545E-1,1.5695068E0,1.9885479E-1,3.5514018E-1,1.6649215E0,-5.454546E-2,6.2068963E-1,-6.651504E-2,-3.125E-1,-6.0000002E-2,4.0000003E-2,-2.5E-1,1.3684212E-1,3.6734694E-1,-5.952756E-1,1.5428571E-1,-5.7142857E-2,-1.4925373E-1,1.6237624E0,-3.8709676E-1,8.235294E-1,1.0714286E-1,1.5178082E0,-5.202864E-1,5.6E-1,1.2941177E0,1.9154334E0,-3.1325302E-1,1.5428571E-1,5.2307695E-1,1.7120823E0,-2.535211E-1,1.2727273E-1,1.7727273E0,2.6086956E-2,-0E0,1.0588236E-1,-5.3846158E-2,5E-2,-4.347826E-2,1.1764706E-2,-4.0000003E-2,1E-1,-6.5573774E-2,-3.7419356E-2,-4.6153847E-2,5.8823533E-2,6.382979E-2,-5.2631583E-2,8.461539E-2,1.8441558E-1,-4.9773756E-2,4.0000003E-2,-4.0000003E-2,1.1428572E-1,1.2112676E-1,-3.850932E-2,2.9787233E-2,1.6564417E-1,-5.8563538E-2,-9.230769E-3,1.0857143E-1,-4.347826E-2,1.8072289E-1,7.368421E-2,1.9310345E-1,5.8823533E-2,2.5E-2,-5.762712E-2,-4.6153847E-2,9.787234E-2,7.1428575E-2,1.8357772E-1,-5.531915E-2,2.5E-2,1.1764706E-2,1.8562876E-1],"categories":[],"categories_nodes":[],"categories_segments":[],"categories_sizes":[],"default_left":[0,0,0,0,0,0,0,0,0,0,0,0,0,0,0,0,0,0,0,0,0,0,0,0,0,0,0,0,0,0,0,0,0,0,0,0,0,0,0,0,0,0,0,0,0,0,0,0,0,0,0,0,0,0,0,0,0,0,0,0,0,0,0,0,0,0,0,0,0,0,0,0,0,0,0,0,0,0,0,0,0,0,0,0,0,0,0,0,0,0,0,0,0,0,0,0,0,0,0,0,0,0,0],"id":0,"left_children":[1,3,5,7,9,11,13,15,17,19,21,23,25,27,29,31,33,35,37,39,41,43,45,47,49,51,53,55,-1,57,59,-1,61,-1,63,-1,-1,65,-1,67,69,-1,71,73,75,77,79,81,83,85,87,89,91,93,-1,95,97,99,-1,101,-1,-1,-1,-1,-1,-1,-1,-1,-1,-1,-1,-1,-1,-1,-1,-1,-1,-1,-1,-1,-1,-1,-1,-1,-1,-1,-1,-1,-1,-1,-1,-1,-1,-1,-1,-1,-1,-1,-1,-1,-1,-1,-1],"loss_changes":[4.1611724E3,1.3264777E2,1.9497266E2,8.165161E0,5.9680504E1,7.5479004E1,1.5061279E1,2.2010498E0,6.0634403E0,1.2122953E1,4.255297E1,6.3466217E1,2.4605103E1,5.291748E0,1.3239952E1,2.9636846E0,1.5371094E0,1.826087E0,5.2415113E0,9.6136265E0,4.9769588E0,3.812165E1,9.760515E0,3.355271E1,6.3493004E0,2.929184E0,1.0541449E1,7.422104E0,0E0,7.7925973E0,3.15139E0,0E0,9.858011E-1,0E0,3.2067308E0,0E0,0E0,3.2289004E-1,0E0,6.3469386E0,8.156395E-1,0E0,1.4133161E0,5.3099566E0,7.0942383E0,2.8987303E0,3.7781515E0,1.568417E1,7.22287E0,1.4107637E0,3.7406206E0,4.7446785E0,8.831787E-2,1.6810802E0,0E0,4.0968904E0,4.69014E0,1.4774498E0,0E0,2.8241882E0,0E0,0E0,0E0,0E0,0E0,0E0,0E0,0E0,0E0,0E0,0E0,0E0,0E0,0E0,0E0,0E0,0E0,0E0,0E0,0E0,0E0,0E0,0E0,0E0,0E0,0E0,0E0,0E0,0E0,0E0,0E0,0E0,0E0,0E0,0E0,0E0,0E0,0E0,0E0,0E0,0E0,0E0,0E0],"parents":[2147483647,0,0,1,1,2,2,3,3,4,4,5,5,6,6,7,7,8,8,9,9,10,10,11,11,12,12,13,13,14,14,15,15,16,16,17,17,18,18,19,19,20,20,21,21,22,22,23,23,24,24,25,25,26,26,27,27,29,29,30,30,32,32,34,34,37,37,39,39,40,40,42,42,43,43,44,44,45,45,46,46,47,47,48,48,49,49,50,50,51,51,52,52,53,53,55,55,56,56,57,57,59,59],"right_children":[2,4,6,8,10,12,14,16,18,20,22,24,26,28,30,32,34,36,38,40,42,44,46,48,50,52,54,56,-1,58,60,-1,62,-1,64,-1,-1,66,-1,68,70,-1,72,74,76,78,80,82,84,86,88,90,92,94,-1,96,98,100,-1,102,-1,-1,-1,-1,-1,-1,-1,-1,-1,-1,-1,-1,-1,-1,-1,-1,-1,-1,-1,-1,-1,-1,-1,-1,-1,-1,-1,-1,-1,-1,-1,-1,-1,-1,-1,-1,-1,-1,-1,-1,-1,-1,-1],"split_conditions":[1.3875E2,4.95E-2,4.58E-2,3.848E1,1.0405E2,1.8183E2,5.703E1,1.285E1,1.2028E2,3.936E1,4.472E1,4.3E1,5.669E1,1.5481E2,1.6424E2,2.587E1,4.7E-2,5.004E1,3.06E-2,2.243E1,3.659E1,1.617E1,3.338E1,2.387E1,3.848E1,1.771E1,2.973E1,5.02E-2,1.9885479E-1,6.72E-2,7.258E1,-5.454546E-2,1.2028E2,-6.651504E-2,1.2818E2,-6.0000002E-2,4.0000003E-2,2.38E-2,1.3684212E-1,2.43E1,7.09E-2,1.5428571E-1,6.64E-2,2.71E1,5.61E-2,7.7E-2,1.1E2,2.71E1,1.4467E2,3.492E1,5.537E1,3.572E1,5.569E1,5.963E1,1.5428571E-1,1.975E1,1.373E1,5.51E-2,1.2727273E-1,1.202E1,2.6086956E-2,-0E0,1.0588236E-1,-5.3846158E-2,5E-2,-4.347826E-2,1.1764706E-2,-4.0000003E-2,1E-1,-6.5573774E-2,-3.7419356E-2,-4.6153847E-2,5.8823533E-2,6.382979E-2,-5.2631583E-2,8.461539E-2,1.8441558E-1,-4.9773756E-2,4.0000003E-2,-4.0000003E-2,1.1428572E-1,1.2112676E-1,-3.850932E-2,2.9787233E-2,1.6564417E-1,-5.8563538E-2,-9.230769E-3,1.0857143E-1,-4.347826E-2,1.8072289E-1,7.368421E-2,1.9310345E-1,5.8823533E-2,2.5E-2,-5.762712E-2,-4.6153847E-2,9.787234E-2,7.1428575E-2,1.8357772E-1,-5.531915E-2,2.5E-2,1.1764706E-2,1.8562876E-1],"split_indices":[0,1,1,2,0,0,3,3,0,2,3,3,3,0,0,2,1,2,1,3,3,2,2,2,2,2,2,1,0,1,3,0,0,0,0,0,0,1,0,2,1,0,1,3,1,1,0,3,0,2,3,3,3,3,0,2,2,1,0,2,0,0,0,0,0,0,0,0,0,0,0,0,0,0,0,0,0,0,0,0,0,0,0,0,0,0,0,0,0,0,0,0,0,0,0,0,0,0,0,0,0,0,0],"split_type":[0,0,0,0,0,0,0,0,0,0,0,0,0,0,0,0,0,0,0,0,0,0,0,0,0,0,0,0,0,0,0,0,0,0,0,0,0,0,0,0,0,0,0,0,0,0,0,0,0,0,0,0,0,0,0,0,0,0,0,0,0,0,0,0,0,0,0,0,0,0,0,0,0,0,0,0,0,0,0,0,0,0,0,0,0,0,0,0,0,0,0,0,0,0,0,0,0,0,0,0,0,0,0],"sum_hessian":[3.75E3,2.65575E3,1.09425E3,2.456625E3,1.99125E2,2.19375E2,8.74875E2,2.439375E3,1.725E1,9.6375E1,1.0275E2,1.2825E2,9.1125E1,8.39625E2,3.525E1,7.125E0,2.43225E3,1.05E1,6.75E0,8.9625E1,6.75E0,6.525E1,3.75E1,7.1625E1,5.6625E1,7.8375E1,1.275E1,5.475E1,7.84875E2,1.2375E1,2.2875E1,4.5E0,2.625E0,2.41725E3,1.5E1,9E0,1.5E0,3E0,3.75E0,1.125E1,7.8375E1,3.375E0,3.375E0,1.575E1,4.95E1,3E1,7.5E0,2.7E1,4.4625E1,5.1375E1,5.25E0,2.025E1,5.8125E1,9.375E0,3.375E0,7.125E0,4.7625E1,7.875E0,4.5E0,2.1E1,1.875E0,1.5E0,1.125E0,1.2E1,3E0,1.875E0,1.125E0,5.25E0,6E0,6E1,1.8375E1,2.25E0,1.125E0,4.875E0,1.0875E1,1.2E1,3.75E1,2.6625E1,3.375E0,1.5E0,6E0,7.875E0,1.9125E1,4.875E0,3.975E1,4.425E1,7.125E0,3.375E0,1.875E0,9.375E0,1.0875E1,5.7E1,1.125E0,3E0,6.375E0,2.25E0,4.875E0,6E0,4.1625E1,4.875E0,3E0,1.125E0,1.9875E1],"tree_param":{"num_deleted":"0","num_feature":"5","num_nodes":"103","size_leaf_vector":"1"}},{"base_weights":[-3.6550254E-1,-6.6417295E-1,9.343584E-2,-1.6949153E-1,-6.6548985E-1,1.2777635E0,-4.877926E-1,-5.6E-2,1.0588236E-1,-6.663716E-2,-3.2258064E-1,1.6731591E0,8.102109E-1,2.267148E-1,-6.3784444E-1,5.8823533E-2,-5.660377E-2,1.7605042E0,8.133971E-1,1.6215506E0,2.1544328E-1,-1.5859938E-1,1.1090047E0,-6.532915E-1,-1.1167513E-1,1.2727273E0,1.8967391E0,1.6521739E0,1.44E-1,1.747851E0,1.971831E-1,-2.0731707E-1,9.0274316E-1,4.6056783E-1,-4.531722E-1,1.6535434E0,2.7272728E-1,-4.8625794E-1,-6.65765E-2,5.882353E-1,-4.5255473E-1,1.6373937E-1,-1.8947368E-2,1.917127E-1,5E-2,1.7999999E-1,4.0000003E-2,1.03999995E-1,-4.0963855E-2,6.938776E-2,1.8947369E-1,-5.454546E-2,1.0857143E-1,9.8507464E-2,-5.0566036E-2,1.7974684E-1,3.10757E-2,1.4285715E-1,-2.918919E-2,-1.1976048E-3,-5.9244532E-2,1.7322175E-1,2.6086956E-2,1E-1,-3.0769233E-2,-2.198953E-2,-6.4827584E-2,9.4339624E-2,-4.347826E-2,5.8823533E-2,-5.6250002E-2],"categories":[],"categories_nodes":[],"categories_segments":[],"categories_sizes":[],"default_left":[0,0,0,0,0,0,0,0,0,0,0,0,0,0,0,0,0,0,0,0,0,0,0,0,0,0,0,0,0,0,0,0,0,0,0,0,0,0,0,0,0,0,0,0,0,0,0,0,0,0,0,0,0,0,0,0,0,0,0,0,0,0,0,0,0,0,0,0,0,0,0],"id":1,"left_children":[1,3,5,7,9,11,13,-1,-1,-1,15,17,19,21,23,-1,-1,25,27,29,31,33,35,37,39,41,43,45,47,49,51,53,55,57,59,61,63,65,-1,67,69,-1,-1,-1,-1,-1,-1,-1,-1,-1,-1,-1,-1,-1,-1,-1,-1,-1,-1,-1,-1,-1,-1,-1,-1,-1,-1,-1,-1,-1,-1],"loss_changes":[5.1421655E2,1.3675537E0,1.01914526E3,4.1304884E0,4.701538E-1,8.874457E1,1.0663406E2,0E0,0E0,0E0,2.051484E0,1.8327576E1,1.0834697E2,5.903126E1,6.6009827E0,0E0,0E0,1.3401611E1,1.4430614E1,1.6768158E1,3.8287247E1,2.2346283E1,2.3570602E1,1.3378296E0,6.1413693E0,2.96371E1,4.281128E0,1.408699E0,8.176964E0,1.219278E1,6.448436E0,2.966896E1,2.5990883E1,2.9279196E1,5.0776253E0,3.0268936E0,9.594405E0,2.4090176E0,0E0,3.4985285E0,2.2904952E0,0E0,0E0,0E0,0E0,0E0,0E0,0E0,0E0,0E0,0E0,0E0,0E0,0E0,0E0,0E0,0E0,0E0,0E0,0E0,0E0,0E0,0E0,0E0,0E0,0E0,0E0,0E0,0E0,0E0,0E0],"parents":[2147483647,0,0,1,1,2,2,3,3,4,4,5,5,6,6,10,10,11,11,12,12,13,13,14,14,17,17,18,18,19,19,20,20,21,21,22,22,23,23,24,24,25,25,26,26,27,27,28,28,29,29,30,30,31,31,32,32,33,33,34,34,35,35,36,36,37,37,39,39,40,40],"right_children":[2,4,6,8,10,12,14,-1,-1,-1,16,18,20,22,24,-1,-1,26,28,30,32,34,36,38,40,42,44,46,48,50,52,54,56,58,60,62,64,66,-1,68,70,-1,-1,-1,-1,-1,-1,-1,-1,-1,-1,-1,-1,-1,-1,-1,-1,-1,-1,-1,-1,-1,-1,-1,-1,-1,-1,-1,-1,-1,-1],"split_conditions":[1E1,2.39E1,1.5206E2,5.686E1,8.641E1,5.19E-2,4.58E-2,-5.6E-2,1.0588236E-1,-6.663716E-2,5.394E1,3.893E1,1.0751E2,4.839E1,5.897E1,5.8823533E-2,-5.660377E-2,2.956E1,1.2028E2,3.848E1,4.472E1,1.7295E2,1.8735E2,5.4E-2,1.7295E2,1.3875E2,7.557E1,5.004E1,3.65E-2,2.243E1,3.659E1,1.505E1,2.299E1,2.34E1,1.721E1,3.848E1,2.189E1,2.162E1,-6.65765E-2,6.56E-2,1.202E1,1.6373937E-1,-1.8947368E-2,1.917127E-1,5E-2,1.7999999E-1,4.0000003E-2,1.03999995E-1,-4.0963855E-2,6.938776E-2,1.8947369E-1,-5.454546E-2,1.0857143E-1,9.8507464E-2,-5.0566036E-2,1.7974684E-1,3.10757E-2,1.4285715E-1,-2.918919E-2,-1.1976048E-3,-5.9244532E-2,1.7322175E-1,2.6086956E-2,1E-1,-3.0769233E-2,-2.198953E-2,-6.4827584E-2,9.4339624E-2,-4.347826E-2,5.8823533E-2,-5.6250002E-2],"split_indices":[2,3,0,0,0,1,1,0,0,0,3,2,0,3,3,0,0,3,0,2,3,0,0,1,0,0,3,2,1,3,3,2,2,2,2,2,2,2,0,1,2,0,0,0,0,0,0,0,0,0,0,0,0,0,0,0,0,0,0,0,0,0,0,0,0,0,0,0,0,0,0],"split_type":[0,0,0,0,0,0,0,0,0,0,0,0,0,0,0,0,0,0,0,0,0,0,0,0,0,0,0,0,0,0,0,0,0,0,0,0,0,0,0,0,0,0,0,0,0,0,0,0,0,0,0,0,0,0,0,0,0,0,0,0,0,0,0,0,0,0,0,0,0,0,0],"sum_hessian":[3.75E3,2.271375E3,1.478625E3,6.375E0,2.265E3,4.86375E2,9.9225E2,5.25E0,1.125E0,2.25825E3,6.75E0,2.62125E2,2.2425E2,1.72125E2,8.20125E2,1.125E0,5.625E0,2.37E2,2.5125E1,9.4125E1,1.30125E2,1.20375E2,5.175E1,7.965E2,2.3625E1,5.4E1,1.83E2,1.05E1,1.4625E1,8.625E1,7.875E0,8.1E1,4.9125E1,3.8625E1,8.175E1,3.075E1,2.1E1,5.8125E1,7.38375E2,7.5E0,1.6125E1,4.3125E1,1.0875E1,1.8E2,3E0,9E0,1.5E0,5.25E0,9.375E0,1.125E1,7.5E1,4.5E0,3.375E0,1.575E1,6.525E1,1.875E1,3.0375E1,1.65E1,2.2125E1,1.9875E1,6.1875E1,2.8875E1,1.875E0,9E0,1.2E1,2.2875E1,3.525E1,5.625E0,1.875E0,1.125E0,1.5E1],"tree_param":{"num_deleted":"0","num_feature":"5","num_nodes":"71","size_leaf_vector":"1"}},{"base_weights":[3.0471873E-1,9.341548E-1,-6.62161E-1,1.6759455E0,-6.152658E-2,-6.641766E-2,-2.1538462E-1,8.422198E-1,1.8528179E0,-5.0739115E-1,7.441357E-1,4.6153846E-1,-5.531915E-2,1.758162E0,9.22473E-2,1.9640756E-1,1.5098222E0,-2.4390244E-1,-6.34262E-1,1.7831944E-1,1.462295E0,1.1764706E-2,5.8823533E-2,8.75E-1,1.8981613E0,-4.2086956E-1,7.4336284E-1,7.751724E-1,1.8761436E0,-5.862394E-1,3.781942E-1,-6.5203357E-1,-4.225352E-1,1.2418953E0,-1.8867925E-1,1.8306351E0,7.3882353E-1,6.451613E-3,1.4594595E-1,1.1764706E-2,1.9197707E-1,-5.2964427E-2,3.3766236E-2,1.509434E-1,6.451613E-3,-3.69338E-2,1.4977579E-1,1.4046513E-1,1.9472818E-1,-6.408706E-2,-3.8016528E-2,-2.6530612E-2,1.6059114E-1,-6.545218E-2,-2.5E-2,-5.8064517E-2,5.454546E-2,6.9603525E-2,1.8681319E-1,-4.704663E-2,1.1196172E-1,1.9726028E-1,1.4008811E-1,-5.235602E-3,1.338843E-1],"categories":[],"categories_nodes":[],"categories_segments":[],"categories_sizes":[],"default_left":[0,0,0,0,0,0,0,0,0,0,0,0,0,0,0,0,0,0,0,0,0,0,0,0,0,0,0,0,0,0,0,0,0,0,0,0,0,0,0,0,0,0,0,0,0,0,0,0,0,0,0,0,0,0,0,0,0,0,0,0,0,0,0,0,0],"id":2,"left_children":[1,3,5,7,9,-1,11,13,15,17,19,21,-1,23,25,-1,27,29,31,33,35,-1,-1,37,39,41,43,45,47,49,51,53,55,57,59,61,63,-1,-1,-1,-1,-1,-1,-1,-1,-1,-1,-1,-1,-1,-1,-1,-1,-1,-1,-1,-1,-1,-1,-1,-1,-1,-1,-1,-1],"loss_changes":[2.2834358E3,1.67845E3,1.1893921E0,1.9047363E2,3.4922144E2,0E0,2.113257E0,1.5766032E2,3.8E1,2.076352E1,1.4048741E2,7.2398186E-2,0E0,1.1120575E1,4.286864E1,0E0,7.046747E1,4.387988E1,1.3114166E0,7.6300064E1,3.9286224E1,0E0,0E0,7.4849625E0,3.1744995E0,6.1091824E0,2.928515E1,7.550065E1,3.2224731E0,1.2494698E0,5.839498E1,2.2375488E-1,5.7499485E0,1.583432E1,5.4259087E1,3.3606262E0,2.5289762E1,0E0,0E0,0E0,0E0,0E0,0E0,0E0,0E0,0E0,0E0,0E0,0E0,0E0,0E0,0E0,0E0,0E0,0E0,0E0,0E0,0E0,0E0,0E0,0E0,0E0,0E0,0E0,0E0],"parents":[2147483647,0,0,1,1,2,2,3,3,4,4,6,6,7,7,8,8,9,9,10,10,11,11,13,13,14,14,16,16,17,17,18,18,19,19,20,20,23,23,24,24,25,25,26,26,27,27,28,28,29,29,30,30,31,31,32,32,33,33,34,34,35,35,36,36],"right_children":[2,4,6,8,10,-1,12,14,16,18,20,22,-1,24,26,-1,28,30,32,34,36,-1,-1,38,40,42,44,46,48,50,52,54,56,58,60,62,64,-1,-1,-1,-1,-1,-1,-1,-1,-1,-1,-1,-1,-1,-1,-1,-1,-1,-1,-1,-1,-1,-1,-1,-1,-1,-1,-1,-1],"split_conditions":[1E1,8.319E1,7.688E1,3.159E1,4.931E1,-6.641766E-2,9.164E1,6.631E1,7.583E1,9.085E1,1.16E-2,8.043E1,-5.531915E-2,1.665E1,1.16E-2,1.9640756E-1,4.359E1,1.31E-2,4.719E1,8.982E1,9.928E1,1.1764706E-2,5.8823533E-2,8.6E-3,6E-4,5.12E0,7.623E1,7.9E-3,4.647E1,4.333E1,4.072E1,8.24E0,1.68E-2,5.66E1,6.666E1,9.352E1,5.622E1,6.451613E-3,1.4594595E-1,1.1764706E-2,1.9197707E-1,-5.2964427E-2,3.3766236E-2,1.509434E-1,6.451613E-3,-3.69338E-2,1.4977579E-1,1.4046513E-1,1.9472818E-1,-6.408706E-2,-3.8016528E-2,-2.6530612E-2,1.6059114E-1,-6.545218E-2,-2.5E-2,-5.8064517E-2,5.454546E-2,6.9603525E-2,1.8681319E-1,-4.704663E-2,1.1196172E-1,1.9726028E-1,1.4008811E-1,-5.235602E-3,1.338843E-1],"split_indices":[2,3,3,0,0,0,0,3,3,3,1,0,0,0,1,0,0,1,0,3,3,0,0,1,1,2,3,1,0,0,0,2,1,0,0,3,0,0,0,0,0,0,0,0,0,0,0,0,0,0,0,0,0,0,0,0,0,0,0,0,0,0,0,0,0],"split_type":[0,0,0,0,0,0,0,0,0,0,0,0,0,0,0,0,0,0,0,0,0,0,0,0,0,0,0,0,0,0,0,0,0,0,0,0,0,0,0,0,0,0,0,0,0,0,0,0,0,0,0,0,0,0,0,0,0,0,0,0,0,0,0,0,0],"sum_hessian":[3.75E3,2.271375E3,1.478625E3,1.30125E3,9.70125E2,1.4715E3,7.125E0,2.2875E2,1.0725E3,6.2475E2,3.45375E2,2.25E0,4.875E0,1.02375E2,1.26375E2,8.0625E2,2.6625E2,2.04E2,4.2075E2,1.93875E2,1.515E2,1.125E0,1.125E0,1.5E1,8.7375E1,7.0875E1,5.55E1,8.9625E1,1.76625E2,1.31625E2,7.2375E1,3.8625E2,3.45E1,4.9125E1,1.4475E2,9.9375E1,5.2125E1,6.75E0,8.25E0,1.125E0,8.625E1,6.225E1,8.625E0,2.55E1,3E1,3.4875E1,5.475E1,2.5875E1,1.5075E2,1.02375E2,2.925E1,4.8E1,2.4375E1,3.8325E2,3E0,3E1,4.5E0,2.7375E1,2.175E1,1.19625E2,2.5125E1,7.2E1,2.7375E1,2.2875E1,2.925E1],"tree_param":{"num_deleted":"0","num_feature":"5","num_nodes":"65","size_leaf_vector":"1"}},{"base_weights":[-2.2394028E-2,-5.272529E-1,1.367E0,4.5761773E-1,-6.149661E-1,1.8152533E0,5.541156E-1,-4.3772674E-1,1.2048682E0,-6.567131E-1,-2.3394723E-1,1.4197953E0,1.9278015E0,1.0940593E0,-1.4915799E-1,3.75E-1,-5.799151E-1,1.7271096E0,5.1716244E-1,-4.8523748E-1,-6.6406834E-1,4.8615384E-1,-5.749817E-1,1.842932E0,6.1538464E-1,1.7294251E0,1.9794212E-1,8.733625E-3,1.5128645E0,-5.1566267E-1,5.6941175E-1,1.0967742E0,-2.7027026E-1,5.8823533E-2,-6.017192E-1,1.8350516E-1,9E-1,-2.264151E-1,1.1759657E0,-6.303237E-1,-4E-2,-3.8297874E-1,-6.6452205E-2,1.6264591E0,-2.543641E-1,-1.6513762E-1,-6.4822815E-2,1.943463E-1,1.4951457E0,1.8181819E-1,-2.580645E-1,1.9278195E0,1.0956522E0,6.232558E-1,-5.179283E-1,1.7927461E0,1.6267942E-1,-6.579378E-2,-1.1453745E-1,1.027027E0,-4.5255473E-1,1.5384616E-2,1.4545456E-1,-5.762712E-2,6.0869563E-2,-4.4334974E-2,-6.560636E-2,-0E0,1.6363637E-1,1.25E-1,-4.680851E-2,1.7818181E-1,5.954198E-2,-1.4634146E-2,-6.570397E-2,1.0588236E-1,-5.714286E-2,1.1764706E-2,-5.2631583E-2,1.7627119E-1,6.8965517E-3,3.4146342E-2,-6.44898E-2,9.677419E-2,-5.8536585E-2,1.7176472E-1,3.636364E-2,3.1578947E-2,-5.8385093E-2,1.9390245E-1,5.8823533E-2,1.8389262E-1,-2.4719102E-2,1.296E-1,-2.857143E-2,4.878049E-3,-6.055046E-2,1.8742442E-1,1.2328767E-1,1.03614464E-1,-3.8805973E-2,8.571429E-2,-5.822785E-2,1.6540541E-1,-1.6806724E-3,1.7142858E-2,-6.1818182E-2],"categories":[],"categories_nodes":[],"categories_segments":[],"categories_sizes":[],"default_left":[0,0,0,0,0,0,0,0,0,0,0,0,0,0,0,0,0,0,0,0,0,0,0,0,0,0,0,0,0,0,0,0,0,0,0,0,0,0,0,0,0,0,0,0,0,0,0,0,0,0,0,0,0,0,0,0,0,0,0,0,0,0,0,0,0,0,0,0,0,0,0,0,0,0,0,0,0,0,0,0,0,0,0,0,0,0,0,0,0,0,0,0,0,0,0,0,0,0,0,0,0,0,0,0,0,0,0],"id":3,"left_children":[1,3,5,7,9,11,13,15,17,19,21,23,25,27,29,31,33,35,37,39,41,43,45,47,49,51,-1,53,55,57,59,61,63,-1,65,-1,67,69,71,73,75,77,-1,79,81,83,-1,-1,85,-1,87,89,91,93,95,97,99,-1,101,103,105,-1,-1,-1,-1,-1,-1,-1,-1,-1,-1,-1,-1,-1,-1,-1,-1,-1,-1,-1,-1,-1,-1,-1,-1,-1,-1,-1,-1,-1,-1,-1,-1,-1,-1,-1,-1,-1,-1,-1,-1,-1,-1,-1,-1,-1,-1],"loss_changes":[2.6318518E3,2.3801617E2,3.633723E2,1.5148102E2,4.004779E1,2.593164E1,1.356787E2,1.2163515E1,4.3371826E1,2.5499268E0,6.195063E1,4.8730927E1,1.6828613E0,9.180385E1,4.1344738E1,7.7482557E0,2.6049004E0,4.564575E0,2.7025475E1,6.2649994E0,2.368164E-2,6.902255E1,5.0225563E0,4.3322754E-1,5.509948E1,1.1828857E1,0E0,1.8851503E1,5.4786102E1,5.845669E0,2.5309618E1,2.390707E0,2.8386943E0,0E0,4.6005058E-1,0E0,6.6272726E0,1.0040445E1,9.1830635E0,8.525944E-1,1.5203697E1,4.834991E-1,0E0,6.6957703E0,1.1883836E1,1.3539336E1,0E0,0E0,5.858284E0,0E0,5.9799433E0,1.0708618E-1,2.9149956E1,1.6804464E1,1.5866861E0,3.1932068E0,1.2969555E1,0E0,1.3395385E1,2.424474E1,1.875818E0,0E0,0E0,0E0,0E0,0E0,0E0,0E0,0E0,0E0,0E0,0E0,0E0,0E0,0E0,0E0,0E0,0E0,0E0,0E0,0E0,0E0,0E0,0E0,0E0,0E0,0E0,0E0,0E0,0E0,0E0,0E0,0E0,0E0,0E0,0E0,0E0,0E0,0E0,0E0,0E0,0E0,0E0,0E0,0E0,0E0,0E0],"parents":[2147483647,0,0,1,1,2,2,3,3,4,4,5,5,6,6,7,7,8,8,9,9,10,10,11,11,12,12,13,13,14,14,15,15,16,16,17,17,18,18,19,19,20,20,21,21,22,22,23,23,24,24,25,25,27,27,28,28,29,29,30,30,31,31,32,32,34,34,36,36,37,37,38,38,39,39,40,40,41,41,43,43,44,44,45,45,48,48,50,50,51,51,52,52,53,53,54,54,55,55,56,56,58,58,59,59,60,60],"right_children":[2,4,6,8,10,12,14,16,18,20,22,24,26,28,30,32,34,36,38,40,42,44,46,48,50,52,-1,54,56,58,60,62,64,-1,66,-1,68,70,72,74,76,78,-1,80,82,84,-1,-1,86,-1,88,90,92,94,96,98,100,-1,102,104,106,-1,-1,-1,-1,-1,-1,-1,-1,-1,-1,-1,-1,-1,-1,-1,-1,-1,-1,-1,-1,-1,-1,-1,-1,-1,-1,-1,-1,-1,-1,-1,-1,-1,-1,-1,-1,-1,-1,-1,-1,-1,-1,-1,-1,-1,-1],"split_conditions":[8.268E1,3.159E1,4.931E1,6.631E1,7.583E1,8.814E1,1.16E-2,1.665E1,1.16E-2,3.659E1,4.359E1,1.31E-2,9.23E1,8.982E1,9.928E1,8.6E-3,6E-4,5.12E0,7.623E1,6.961E1,2E-4,7.9E-3,4.695E1,4.29E1,3.385E1,4.29E1,1.9794212E-1,5.54E1,6.666E1,9.352E1,6.077E1,5.669E1,6.215E1,5.8823533E-2,5.2E-3,1.8350516E-1,7.374E1,1.665E1,2.468E1,1E-3,7.5E-3,4.017E1,-6.6452205E-2,5.68E0,1.27E-2,6.5E-3,-6.4822815E-2,1.943463E-1,9.9E-3,1.8181819E-1,4.017E1,7.12E0,1.39E-2,6.5E-3,5.8E-1,5.31E0,4.3E-3,-6.579378E-2,5.5E1,1.7E-2,1.32E-2,1.5384616E-2,1.4545456E-1,-5.762712E-2,6.0869563E-2,-4.4334974E-2,-6.560636E-2,-0E0,1.6363637E-1,1.25E-1,-4.680851E-2,1.7818181E-1,5.954198E-2,-1.4634146E-2,-6.570397E-2,1.0588236E-1,-5.714286E-2,1.1764706E-2,-5.2631583E-2,1.7627119E-1,6.8965517E-3,3.4146342E-2,-6.44898E-2,9.677419E-2,-5.8536585E-2,1.7176472E-1,3.636364E-2,3.1578947E-2,-5.8385093E-2,1.9390245E-1,5.8823533E-2,1.8389262E-1,-2.4719102E-2,1.296E-1,-2.857143E-2,4.878049E-3,-6.055046E-2,1.8742442E-1,1.2328767E-1,1.03614464E-1,-3.8805973E-2,8.571429E-2,-5.822785E-2,1.6540541E-1,-1.6806724E-3,1.7142858E-2,-6.1818182E-2],"split_indices":[3,0,0,3,3,3,1,0,1,0,0,1,3,3,3,1,1,2,3,3,1,1,0,0,0,0,0,0,0,3,0,3,3,0,1,0,3,0,0,1,1,0,0,2,1,1,0,0,1,0,0,2,1,1,2,2,1,0,0,1,1,0,0,0,0,0,0,0,0,0,0,0,0,0,0,0,0,0,0,0,0,0,0,0,0,0,0,0,0,0,0,0,0,0,0,0,0,0,0,0,0,0,0,0,0,0,0],"split_type":[0,0,0,0,0,0,0,0,0,0,0,0,0,0,0,0,0,0,0,0,0,0,0,0,0,0,0,0,0,0,0,0,0,0,0,0,0,0,0,0,0,0,0,0,0,0,0,0,0,0,0,0,0,0,0,0,0,0,0,0,0,0,0,0,0,0,0,0,0,0,0,0,0,0,0,0,0,0,0,0,0,0,0,0,0,0,0,0,0,0,0,0,0,0,0,0,0,0,0,0,0,0,0,0,0,0,0],"sum_hessian":[3.75E3,2.751E3,9.99E2,2.24625E2,2.526375E3,6.43125E2,3.55875E2,1.02375E2,1.2225E2,2.27625E3,2.50125E2,1.455E2,4.97625E2,2.01E2,1.54875E2,1.5E1,8.7375E1,6.8625E1,5.3625E1,9.6375E1,2.179875E3,8.025E1,1.69875E2,9.45E1,5.1E1,1.09875E2,3.8775E2,5.625E1,1.4475E2,1.0275E2,5.2125E1,6.75E0,8.25E0,1.125E0,8.625E1,5.9625E1,9E0,2.55E1,2.8125E1,7.2375E1,2.4E1,4.875E0,2.175E3,3.1125E1,4.9125E1,2.625E1,1.43625E2,6.975E1,2.475E1,2.1E1,3E1,8.2125E1,2.775E1,2.5875E1,3.0375E1,1.19625E2,2.5125E1,7.5375E1,2.7375E1,3.6E1,1.6125E1,2.25E0,4.5E0,6.375E0,1.875E0,2.4375E1,6.1875E1,4.5E0,4.5E0,3E0,2.25E1,1.275E1,1.5375E1,4.125E0,6.825E1,7.5E0,1.65E1,1.125E0,3.75E0,2.85E1,2.625E0,1.95E1,2.9625E1,6.75E0,1.95E1,2.025E1,4.5E0,1.0875E1,1.9125E1,8.1E1,1.125E0,1.7625E1,1.0125E1,1.4625E1,1.125E1,4.125E0,2.625E1,1.02375E2,1.725E1,9.375E0,1.575E1,8.625E0,1.875E1,2.2125E1,1.3875E1,3.375E0,1.275E1],"tree_param":{"num_deleted":"0","num_feature":"5","num_nodes":"107","size_leaf_vector":"1"}},{"base_weights":[7.712308E-2,-5.885444E-1,1.4237545E0,-6.4621997E-1,4.8805892E-2,6.873422E-1,1.5924197E0,-6.483425E-1,4.969817E-1,-3.8137433E-1,4.6515307E-1,1.6748612E-1,1.235211E0,1.2620124E0,1.6379195E0,-7.9070926E-2,-6.500455E-1,-3.4791764E-2,8.408565E-1,-4.7088185E-1,5.929345E-1,9.46451E-1,-1.7979147E-1,1.0603281E0,-1.8087506E-1,1.419973E0,1.5582323E-1,1.4178984E0,3.8095722E-1,1.6416675E-1,1.3752827E-1,-5.3254027E-2,6.036065E-1,-6.50905E-2,-2.8333536E-1,1.143169E-1,9.479764E-3,2.8186223E-1,-5.85113E-1,1.1344377E0,-2.768426E-1,-3.1485683E-1,1.2691728E0,-3.6003512E-1,1.1412503E0,-2.2479968E-1,1.4132936E0,-6.0871106E-2,1.0572709E-1,9.5656735E-1,1.5230777E0,-4.0206248E-1,8.1149155E-1,5.6023765E-1,1.500754E0,-2.2600503E-1,1.2265619E0,-3.586865E-2,5.6797024E-2,4.8993697E-4,1.0109303E-1,-5.4356735E-2,5.849426E-2,-3.941123E-2,7.658682E-2,-6.4219646E-2,-3.5521336E-2,1.0748244E-2,1.3608162E-1,-4.544068E-2,1.2340153E-2,-4.456287E-2,5.7413697E-2,6.8616375E-2,1.5198822E-1,-5.0427217E-2,5.018702E-2,1.3498138E-1,3.5512853E-2,-5.493359E-2,3.2295853E-2,2.7218932E-2,1.4865941E-1,7.291329E-2,-3.2895487E-2,1.3457517E-1,1.6274858E-2,1.6024399E-1,1.05192915E-1,-5.7383507E-2,7.0990147E-3,-4.000294E-2,1.12938516E-1,1.361077E-1,-2.5107762E-2,9.686339E-2,1.5819435E-1,-5.8728106E-2,3.418045E-2,1.3629383E-1,5.225215E-2],"categories":[],"categories_nodes":[],"categories_segments":[],"categories_sizes":[],"default_left":[0,0,0,0,0,0,0,0,0,0,0,0,0,0,0,0,0,0,0,0,0,0,0,0,0,0,0,0,0,0,0,0,0,0,0,0,0,0,0,0,0,0,0,0,0,0,0,0,0,0,0,0,0,0,0,0,0,0,0,0,0,0,0,0,0,0,0,0,0,0,0,0,0,0,0,0,0,0,0,0,0,0,0,0,0,0,0,0,0,0,0,0,0,0,0,0,0,0,0,0,0],"id":4,"left_children":[1,3,5,7,9,11,13,15,17,19,21,23,25,27,29,31,33,-1,35,37,39,41,43,45,47,49,51,53,55,-1,57,-1,59,-1,61,-1,-1,63,65,67,69,71,73,75,77,79,81,-1,83,85,87,89,91,93,95,97,99,-1,-1,-1,-1,-1,-1,-1,-1,-1,-1,-1,-1,-1,-1,-1,-1,-1,-1,-1,-1,-1,-1,-1,-1,-1,-1,-1,-1,-1,-1,-1,-1,-1,-1,-1,-1,-1,-1,-1,-1,-1,-1,-1,-1],"loss_changes":[3.3666611E3,9.242334E1,1.5321753E2,5.914978E0,3.7699947E1,6.623474E1,1.311792E1,2.1795044E0,1.6980429E0,9.312924E0,3.3357006E1,3.7782364E1,2.2398804E1,1.685019E1,4.7478027E0,2.7985816E0,5.3845215E-1,0E0,7.3309875E-1,8.370638E0,4.6275296E0,2.5385822E1,1.1489967E1,1.5770321E1,1.0829253E1,3.1644135E0,6.80098E0,6.7782135E0,1.0748688E1,0E0,9.075892E-1,0E0,8.8820446E-1,0E0,1.9300582E0,0E0,0E0,4.636448E0,8.6351204E-1,1.2115388E0,3.6294103E-1,1.8028808E0,6.1303787E0,5.437573E0,4.7587013E-1,1.6356602E0,1.8422852E0,0E0,1.4717234E1,6.0500584E0,1.2095947E0,8.7217724E-1,3.7133198E0,7.5154314E0,2.6659088E0,2.8103735E0,1.21315956E-1,0E0,0E0,0E0,0E0,0E0,0E0,0E0,0E0,0E0,0E0,0E0,0E0,0E0,0E0,0E0,0E0,0E0,0E0,0E0,0E0,0E0,0E0,0E0,0E0,0E0,0E0,0E0,0E0,0E0,0E0,0E0,0E0,0E0,0E0,0E0,0E0,0E0,0E0,0E0,0E0,0E0,0E0,0E0,0E0],"parents":[2147483647,0,0,1,1,2,2,3,3,4,4,5,5,6,6,7,7,8,8,9,9,10,10,11,11,12,12,13,13,14,14,15,15,16,16,18,18,19,19,20,20,21,21,22,22,23,23,24,24,25,25,26,26,27,27,28,28,30,30,32,32,34,34,37,37,38,38,39,39,40,40,41,41,42,42,43,43,44,44,45,45,46,46,48,48,49,49,50,50,51,51,52,52,53,53,54,54,55,55,56,56],"right_children":[2,4,6,8,10,12,14,16,18,20,22,24,26,28,30,32,34,-1,36,38,40,42,44,46,48,50,52,54,56,-1,58,-1,60,-1,62,-1,-1,64,66,68,70,72,74,76,78,80,82,-1,84,86,88,90,92,94,96,98,100,-1,-1,-1,-1,-1,-1,-1,-1,-1,-1,-1,-1,-1,-1,-1,-1,-1,-1,-1,-1,-1,-1,-1,-1,-1,-1,-1,-1,-1,-1,-1,-1,-1,-1,-1,-1,-1,-1,-1,-1,-1,-1,-1,-1],"split_conditions":[1.3444E2,4.58E-2,4.46E-2,4.583E1,1.0405E2,1.7454E2,1.6424E2,1.285E1,1.0751E2,3.936E1,4.3E1,3.208E1,5.569E1,5.537E1,7.258E1,2.587E1,1.322E2,-3.4791764E-2,3.414E1,2.243E1,4.246E1,1.559E1,3.848E1,1.836E1,2.473E1,2.57E-2,2.694E1,1.373E1,6.72E-2,1.6416675E-1,6.47E-1,-5.3254027E-2,1.2028E2,-6.50905E-2,3.132E1,1.143169E-1,9.479764E-3,2.43E1,7.09E-2,5.51E-2,4.283E1,7.49E-2,5.61E-2,7.7E-2,4.964E1,1.5932E2,1.3875E2,-6.0871106E-2,4.3E1,4.005E1,7.74E-1,2.189E1,2.77E-2,3.112E1,5.02E-2,2.74E1,6.258E1,-3.586865E-2,5.6797024E-2,4.8993697E-4,1.0109303E-1,-5.4356735E-2,5.849426E-2,-3.941123E-2,7.658682E-2,-6.4219646E-2,-3.5521336E-2,1.0748244E-2,1.3608162E-1,-4.544068E-2,1.2340153E-2,-4.456287E-2,5.7413697E-2,6.8616375E-2,1.5198822E-1,-5.0427217E-2,5.018702E-2,1.3498138E-1,3.5512853E-2,-5.493359E-2,3.2295853E-2,2.7218932E-2,1.4865941E-1,7.291329E-2,-3.2895487E-2,1.3457517E-1,1.6274858E-2,1.6024399E-1,1.05192915E-1,-5.7383507E-2,7.0990147E-3,-4.000294E-2,1.12938516E-1,1.361077E-1,-2.5107762E-2,9.686339E-2,1.5819435E-1,-5.8728106E-2,3.418045E-2,1.3629383E-1,5.225215E-2],"split_indices":[0,1,1,2,0,0,0,3,0,2,3,3,3,3,3,2,0,0,3,3,3,2,2,2,2,1,2,2,1,0,4,0,0,0,2,0,0,2,1,1,2,1,1,1,3,0,0,0,3,3,4,2,1,3,1,2,3,0,0,0,0,0,0,0,0,0,0,0,0,0,0,0,0,0,0,0,0,0,0,0,0,0,0,0,0,0,0,0,0,0,0,0,0,0,0,0,0,0,0,0,0],"split_type":[0,0,0,0,0,0,0,0,0,0,0,0,0,0,0,0,0,0,0,0,0,0,0,0,0,0,0,0,0,0,0,0,0,0,0,0,0,0,0,0,0,0,0,0,0,0,0,0,0,0,0,0,0,0,0,0,0,0,0,0,0,0,0,0,0,0,0,0,0,0,0,0,0,0,0,0,0,0,0,0,0,0,0,0,0,0,0,0,0,0,0,0,0,0,0,0,0,0,0,0,0],"sum_hessian":[3.7537861E3,2.512412E3,1.241374E3,2.3039111E3,2.0850107E2,2.3228152E2,1.00909247E3,2.3000735E3,3.8375309E0,1.02588295E2,1.0591277E2,1.1985779E2,1.1242373E2,1.2561864E2,8.834738E2,7.0017786E0,2.2930718E3,1.1066755E0,2.7308552E0,9.442994E1,8.15836E0,6.0383408E1,4.5529366E1,3.306617E1,8.679162E1,9.572301E1,1.6700718E1,1.0621635E2,1.940229E1,8.8117847E2,2.2953823E0,4.33931E0,2.662468E0,2.2869373E3,6.134657E0,1.5645871E0,1.1662682E0,1.22485695E1,8.2181366E1,4.840494E0,3.3178656E0,1.2307162E1,4.807625E1,4.070325E1,4.8261123E0,7.2031217E0,2.5863049E1,3.4366245E1,5.2425373E1,1.9292093E1,7.6430916E1,9.23217E0,7.4685473E0,1.0040987E1,9.617536E1,1.1721503E1,7.6807876E0,1.1436644E0,1.1517179E0,1.4877374E0,1.1747307E0,5.007752E0,1.1269051E0,5.188255E0,7.0603147E0,6.43981E1,1.7783264E1,1.1406741E0,3.69982E0,2.2045262E0,1.1133395E0,1.1163698E1,1.1434639E0,1.5580848E1,3.24954E1,3.5223625E1,5.4796267E0,3.2474787E0,1.5786335E0,4.5213995E0,2.6817224E0,1.845565E0,2.4017485E1,2.1259024E1,3.1166351E1,1.2478829E1,6.813264E0,6.3357586E1,1.3073331E1,6.6165524E0,2.6156182E0,1.4986567E0,5.9698906E0,4.7121067E0,5.328881E0,1.4443363E1,8.1731995E1,7.142625E0,4.578878E0,5.6503954E0,2.0303924E0],"tree_param":{"num_deleted":"0","num_feature":"5","num_nodes":"101","size_leaf_vector":"1"}},{"base_weights":[-3.496917E-1,-6.4897496E-1,8.743612E-2,-1.4963998E-1,-6.503392E-1,1.081065E0,-4.830651E-1,-5.447365E-2,1.0176175E-1,-6.5125115E-2,-3.0322102E-1,1.3895587E0,6.5960306E-1,1.7331536E-1,-6.240264E-1,5.757689E-2,-5.5068284E-2,7.9935604E-1,1.4762038E0,1.1744257E0,-4.3198206E-2,-1.6743068E-1,9.274766E-1,-6.413103E-1,-1.3272472E-1,1.2732954E0,1.5377441E-1,1.5430678E0,7.5086606E-1,3.6819088E-1,1.4560738E0,-3.6740392E-1,5.310507E-1,4.2184165E-1,-4.366903E-1,1.3880808E0,2.503007E-1,-5.1322967E-1,-6.5038435E-2,5.568577E-1,-4.251973E-1,1.4196545E-1,5.186479E-2,9.730914E-2,-3.6967676E-2,1.5869908E-1,1.1142011E-1,1.1972693E-1,-2.3929123E-2,1.1869309E-1,-1.934884E-2,1.5816079E-1,3.0516243E-2,4.592944E-2,-5.654884E-2,1.3738464E-1,5.0675723E-4,1.1913669E-1,-2.7980372E-2,-1.230931E-3,-5.7637703E-2,1.4280139E-1,3.7922632E-2,8.881268E-2,-2.9666452E-2,-6.363105E-2,-2.5083452E-2,1.15766026E-1,-2.8995205E-2,4.3368656E-2,-5.621363E-2],"categories":[],"categories_nodes":[],"categories_segments":[],"categories_sizes":[],"default_left":[0,0,0,0,0,0,0,0,0,0,0,0,0,0,0,0,0,0,0,0,0,0,0,0,0,0,0,0,0,0,0,0,0,0,0,0,0,0,0,0,0,0,0,0,0,0,0,0,0,0,0,0,0,0,0,0,0,0,0,0,0,0,0,0,0,0,0,0,0,0,0],"id":5,"left_children":[1,3,5,7,9,11,13,-1,-1,-1,15,17,19,21,23,-1,-1,25,27,29,31,33,35,37,39,41,43,45,47,49,51,53,55,57,59,61,63,65,-1,67,69,-1,-1,-1,-1,-1,-1,-1,-1,-1,-1,-1,-1,-1,-1,-1,-1,-1,-1,-1,-1,-1,-1,-1,-1,-1,-1,-1,-1,-1,-1],"loss_changes":[4.768303E2,1.3764648E0,8.4060596E2,3.8717592E0,4.8535156E-1,6.940332E1,8.7278275E1,0E0,0E0,0E0,1.9535947E0,1.474292E1,8.3440994E1,4.3158237E1,6.502533E0,0E0,0E0,1.2667141E1,1.1952087E1,2.9679306E1,1.8516903E1,1.860709E1,1.5944012E1,5.3689575E-1,5.8084035E0,1.9261475E0,8.48033E0,2.8763428E0,1.1232598E1,1.6687504E1,1.3716095E1,1.0656786E1,1.5916523E1,2.0269882E1,4.7463675E0,7.0196533E-1,8.065786E0,1.5942497E0,0E0,4.7417383E0,2.591994E0,0E0,0E0,0E0,0E0,0E0,0E0,0E0,0E0,0E0,0E0,0E0,0E0,0E0,0E0,0E0,0E0,0E0,0E0,0E0,0E0,0E0,0E0,0E0,0E0,0E0,0E0,0E0,0E0,0E0,0E0],"parents":[2147483647,0,0,1,1,2,2,3,3,4,4,5,5,6,6,10,10,11,11,12,12,13,13,14,14,17,17,18,18,19,19,20,20,21,21,22,22,23,23,24,24,25,25,26,26,27,27,28,28,29,29,30,30,31,31,32,32,33,33,34,34,35,35,36,36,37,37,39,39,40,40],"right_children":[2,4,6,8,10,12,14,-1,-1,-1,16,18,20,22,24,-1,-1,26,28,30,32,34,36,38,40,42,44,46,48,50,52,54,56,58,60,62,64,66,-1,68,70,-1,-1,-1,-1,-1,-1,-1,-1,-1,-1,-1,-1,-1,-1,-1,-1,-1,-1,-1,-1,-1,-1,-1,-1,-1,-1,-1,-1,-1,-1],"split_conditions":[1E1,2.39E1,1.5481E2,5.686E1,8.641E1,1.2418E2,4.58E-2,-5.447365E-2,1.0176175E-1,-6.5125115E-2,5.394E1,2.243E1,5.19E-2,4.839E1,5.734E1,5.757689E-2,-5.5068284E-2,5.28E-2,3.848E1,3.208E1,4.552E1,1.7295E2,1.8735E2,5.4E-2,5.91E-2,3.45E1,2.43E1,7.28E-2,5.99E-2,2.34E1,3.848E1,1.559E1,2.299E1,2.34E1,1.721E1,3.848E1,2.189E1,4.4E1,-6.5038435E-2,2.824E1,1.505E1,1.4196545E-1,5.186479E-2,9.730914E-2,-3.6967676E-2,1.5869908E-1,1.1142011E-1,1.1972693E-1,-2.3929123E-2,1.1869309E-1,-1.934884E-2,1.5816079E-1,3.0516243E-2,4.592944E-2,-5.654884E-2,1.3738464E-1,5.0675723E-4,1.1913669E-1,-2.7980372E-2,-1.230931E-3,-5.7637703E-2,1.4280139E-1,3.7922632E-2,8.881268E-2,-2.9666452E-2,-6.363105E-2,-2.5083452E-2,1.15766026E-1,-2.8995205E-2,4.3368656E-2,-5.621363E-2],"split_indices":[2,3,0,0,0,0,1,0,0,0,3,3,1,3,3,0,0,1,2,3,3,0,0,1,1,2,2,1,1,2,2,2,2,2,2,2,2,3,0,2,2,0,0,0,0,0,0,0,0,0,0,0,0,0,0,0,0,0,0,0,0,0,0,0,0,0,0,0,0,0,0],"split_type":[0,0,0,0,0,0,0,0,0,0,0,0,0,0,0,0,0,0,0,0,0,0,0,0,0,0,0,0,0,0,0,0,0,0,0,0,0,0,0,0,0,0,0,0,0,0,0,0,0,0,0,0,0,0,0,0,0,0,0,0,0,0,0,0,0,0,0,0,0,0,0],"sum_hessian":[3.6433604E3,2.1623823E3,1.480978E3,6.193352E0,2.156189E3,5.398459E2,9.411322E2,5.025594E0,1.167758E0,2.1496653E3,6.5237007E0,3.1037015E2,2.2947571E2,1.6634134E2,7.7479083E2,1.141691E0,5.38201E0,4.104035E1,2.693298E2,1.3206392E2,9.741179E1,1.1511013E2,5.1231213E1,7.481653E2,2.6625547E1,2.3105581E1,1.793477E1,2.4556538E2,2.3764412E1,3.4788094E1,9.7275826E1,6.2491146E1,3.4920643E1,3.592403E1,7.91861E1,2.9866608E1,2.1364603E1,5.3306057E1,6.9485925E2,7.660322E0,1.8965225E1,1.8614252E1,4.4913297E0,6.6566486E0,1.1278122E1,2.2030247E2,2.5262918E1,1.623558E1,7.528832E0,1.3701996E1,2.1086098E1,8.737166E1,9.904165E0,1.1824277E1,5.066687E1,1.279959E1,2.2121054E1,1.6800367E1,1.9123663E1,1.9879248E1,5.930685E1,2.8329767E1,1.5368412E0,9.575131E0,1.1789472E1,3.531565E1,1.7990406E1,4.266325E0,3.393997E0,2.3099802E0,1.6655245E1],"tree_param":{"num_deleted":"0","num_feature":"5","num_nodes":"71","size_leaf_vector":"1"}},{"base_weights":[2.7882797E-1,8.217914E-1,-6.4695233E-1,1.4089414E0,-5.690073E-2,-6.490106E-2,-2.0755944E-1,7.3229706E-1,1.538968E0,-4.899171E-1,6.6381776E-1,4.5252293E-1,-5.4554503E-2,1.4280603E0,1.0114614E-2,1.6204531E0,1.2804329E0,-2.585294E-1,-6.3391227E-1,1.3355176E-1,1.2163694E0,5.769338E-2,1.1500423E-2,5.986865E-1,1.5215737E0,-4.5705724E-1,5.6471354E-1,9.9161035E-1,1.6234261E0,6.9003564E-1,1.5605309E0,-5.8089924E-1,2.9267502E-1,-6.4392847E-1,-4.866644E-1,8.5120475E-1,-2.9744932E-1,1.5176932E0,6.1348945E-1,-3.4621697E-2,1.0460041E-1,-2.2323313E-4,1.5434466E-1,-1.1153045E-2,-6.1782807E-2,1.23689435E-1,1.3185706E-3,1.3631766E-1,-3.8897753E-2,1.625447E-1,8.300593E-2,-2.0757528E-2,1.3864338E-1,1.2370475E-1,1.631501E-1,-6.286712E-2,-4.0893678E-2,-2.4767248E-2,1.4332442E-1,-6.467431E-2,-2.3464449E-2,-5.8564883E-2,2.3835687E-2,2.9293904E-2,1.3961229E-1,-5.286616E-2,9.1238976E-2,9.725516E-2,1.5874152E-1,1.6026326E-2,1.5164663E-1],"categories":[],"categories_nodes":[],"categories_segments":[],"categories_sizes":[],"default_left":[0,0,0,0,0,0,0,0,0,0,0,0,0,0,0,0,0,0,0,0,0,0,0,0,0,0,0,0,0,0,0,0,0,0,0,0,0,0,0,0,0,0,0,0,0,0,0,0,0,0,0,0,0,0,0,0,0,0,0,0,0,0,0,0,0,0,0,0,0,0,0],"id":6,"left_children":[1,3,5,7,9,-1,11,13,15,17,19,21,-1,23,25,27,29,31,33,35,37,-1,-1,39,41,43,45,47,49,51,53,55,57,59,61,63,65,67,69,-1,-1,-1,-1,-1,-1,-1,-1,-1,-1,-1,-1,-1,-1,-1,-1,-1,-1,-1,-1,-1,-1,-1,-1,-1,-1,-1,-1,-1,-1,-1,-1],"loss_changes":[1.915702E3,1.2393228E3,1.1396484E0,1.2555762E2,3.0088855E2,0E0,2.0405505E0,1.17564865E2,2.3350342E1,1.9900635E1,1.058705E2,7.092786E-2,0E0,8.33197E0,3.0268578E1,9.863281E-2,4.7540985E1,4.1517082E1,2.3309326E-1,5.7720173E1,3.1240662E1,0E0,0E0,6.163032E0,3.551422E0,3.454256E0,1.978285E1,4.0542502E0,1.06933594E-1,6.0541477E1,2.5412292E0,9.518013E-1,5.368566E1,2.4430847E-1,2.1269698E0,2.087716E1,3.3160168E1,2.9183655E0,2.4596779E1,0E0,0E0,0E0,0E0,0E0,0E0,0E0,0E0,0E0,0E0,0E0,0E0,0E0,0E0,0E0,0E0,0E0,0E0,0E0,0E0,0E0,0E0,0E0,0E0,0E0,0E0,0E0,0E0,0E0,0E0,0E0,0E0],"parents":[2147483647,0,0,1,1,2,2,3,3,4,4,6,6,7,7,8,8,9,9,10,10,11,11,13,13,14,14,15,15,16,16,17,17,18,18,19,19,20,20,23,23,24,24,25,25,26,26,27,27,28,28,29,29,30,30,31,31,32,32,33,33,34,34,35,35,36,36,37,37,38,38],"right_children":[2,4,6,8,10,-1,12,14,16,18,20,22,-1,24,26,28,30,32,34,36,38,-1,-1,40,42,44,46,48,50,52,54,56,58,60,62,64,66,68,70,-1,-1,-1,-1,-1,-1,-1,-1,-1,-1,-1,-1,-1,-1,-1,-1,-1,-1,-1,-1,-1,-1,-1,-1,-1,-1,-1,-1,-1,-1,-1,-1],"split_conditions":[1E1,8.319E1,7.688E1,3.121E1,4.931E1,-6.490106E-2,2.66E-2,6.732E1,7.583E1,9.23E1,1.09E-2,8.641E1,-5.4554503E-2,1.521E1,1.16E-2,2.39E1,4.359E1,1.31E-2,4.74E1,9.183E1,9.928E1,5.769338E-2,1.1500423E-2,7.2E-3,6E-4,7.258E1,7.623E1,5.686E1,8.641E1,9.3E-3,4.4E-3,4.333E1,4.195E1,8.24E0,1.68E-2,5.567E1,6.841E1,5.12E1,6.077E1,-3.4621697E-2,1.0460041E-1,-2.2323313E-4,1.5434466E-1,-1.1153045E-2,-6.1782807E-2,1.23689435E-1,1.3185706E-3,1.3631766E-1,-3.8897753E-2,1.625447E-1,8.300593E-2,-2.0757528E-2,1.3864338E-1,1.2370475E-1,1.631501E-1,-6.286712E-2,-4.0893678E-2,-2.4767248E-2,1.4332442E-1,-6.467431E-2,-2.3464449E-2,-5.8564883E-2,2.3835687E-2,2.9293904E-2,1.3961229E-1,-5.286616E-2,9.1238976E-2,9.725516E-2,1.5874152E-1,1.6026326E-2,1.5164663E-1],"split_indices":[2,3,3,0,0,0,1,3,3,3,1,0,0,0,1,3,0,1,0,3,3,0,0,1,1,3,3,0,0,1,1,0,0,2,1,0,0,0,0,0,0,0,0,0,0,0,0,0,0,0,0,0,0,0,0,0,0,0,0,0,0,0,0,0,0,0,0,0,0,0,0],"split_type":[0,0,0,0,0,0,0,0,0,0,0,0,0,0,0,0,0,0,0,0,0,0,0,0,0,0,0,0,0,0,0,0,0,0,0,0,0,0,0,0,0,0,0,0,0,0,0,0,0,0,0,0,0,0,0,0,0,0,0,0,0,0,0,0,0,0,0,0,0,0,0],"sum_hessian":[3.8090347E3,2.400986E3,1.4080486E3,1.438898E3,9.6208813E2,1.4010087E3,7.0398574E0,2.330036E2,1.2058944E3,6.012001E2,3.6088803E2,2.2692175E0,4.77064E0,1.1817465E2,1.1482895E2,9.128985E2,2.929959E2,2.3168994E2,3.6951016E2,1.8479137E2,1.7609665E2,1.1397588E0,1.1294585E0,1.2724328E1,1.0545032E2,6.2422565E1,5.2406384E1,5.869675E0,9.070288E2,9.5391304E1,1.9760461E2,1.461568E2,8.5533134E1,3.4281766E2,2.6692509E1,6.897209E1,1.15819275E2,1.16401115E2,5.9695534E1,4.160917E0,8.563411E0,1.5049326E0,1.0394539E2,2.0359623E1,4.2062943E1,2.3059584E1,2.9346798E1,4.634874E0,1.234801E0,9.0367816E2,3.350659E0,4.198166E1,5.340964E1,3.8869064E1,1.5873555E2,1.1230273E2,3.385407E1,5.8568848E1,2.6964289E1,3.3990002E2,2.917617E0,2.3655188E1,3.0373216E0,3.4828285E1,3.414381E1,9.770912E1,1.8110155E1,1.4894338E1,1.01506775E2,4.0530014E1,1.9165522E1],"tree_param":{"num_deleted":"0","num_feature":"5","num_nodes":"71","size_leaf_vector":"1"}},{"base_weights":[-2.0790994E-2,-5.101061E-1,1.1717725E0,4.1684195E-1,-5.9870946E-1,1.4155692E0,1.893196E-1,-4.2007512E-1,1.0456666E0,-6.4125717E-1,-2.218395E-1,1.1269397E0,1.6040828E0,7.818862E-1,-3.7119207E-1,3.468924E-1,-5.6284016E-1,1.4518946E0,4.7014216E-1,-4.6592653E-1,-6.488517E-1,4.3980756E-1,-5.5819297E-1,1.506657E0,5.403485E-1,1.6222303E-1,1.2670829E0,-5.174627E-1,1.1981809E0,-6.320677E-2,1.1369398E-1,9.7239876E-1,-2.5750518E-1,5.474165E-2,-5.850898E-1,1.5524765E0,9.184409E-1,-2.1265545E-1,1.0235784E0,-6.141994E-1,-2.4372708E-2,-3.660495E-1,-6.493181E-2,1.1315699E0,-5.2644503E-1,-1.5444583E-1,-6.327988E-2,1.6013814E0,8.8580865E-1,1.0900959E0,-4.8031864E-1,1.5514842E-1,1.1379028E-2,7.488736E-2,-5.8557177E-1,1.4372597E0,-9.907476E-2,8.256673E-1,-4.259232E-1,1.3125772E-2,1.2795855E-1,-5.642587E-2,5.8199476E-2,-4.2429365E-2,-6.410112E-2,4.8897076E-2,1.5661138E-1,1.0103623E-2,1.5119536E-1,1.157647E-1,-4.5336585E-2,1.4232199E-1,3.5677493E-2,-1.3129829E-2,-6.417354E-2,9.9098995E-2,-5.544261E-2,1.3543934E-2,-5.137777E-2,1.3748997E-1,4.668104E-2,-9.938992E-4,-6.323808E-2,8.944841E-2,-5.7217967E-2,1.6463707E-1,1.2718335E-1,1.5315613E-1,-9.242618E-3,1.4452629E-1,6.0739566E-2,-2.853978E-2,-6.316725E-2,7.67332E-2,-3.577146E-2,5.9055578E-2,-3.959415E-2,-1.9306207E-2,-6.239006E-2,1.5865456E-1,9.231465E-2,8.252711E-2,-4.1543234E-2,1.4682284E-1,-5.6459337E-2,4.7326047E-2,-5.843642E-2],"categories":[],"categories_nodes":[],"categories_segments":[],"categories_sizes":[],"default_left":[0,0,0,0,0,0,0,0,0,0,0,0,0,0,0,0,0,0,0,0,0,0,0,0,0,0,0,0,0,0,0,0,0,0,0,0,0,0,0,0,0,0,0,0,0,0,0,0,0,0,0,0,0,0,0,0,0,0,0,0,0,0,0,0,0,0,0,0,0,0,0,0,0,0,0,0,0,0,0,0,0,0,0,0,0,0,0,0,0,0,0,0,0,0,0,0,0,0,0,0,0,0,0,0,0,0,0],"id":7,"left_children":[1,3,5,7,9,11,13,15,17,19,21,23,25,27,29,31,33,35,37,39,41,43,45,47,49,-1,51,53,55,-1,57,59,61,-1,63,65,67,69,71,73,75,77,-1,79,81,83,-1,85,87,89,91,-1,93,95,97,99,101,103,105,-1,-1,-1,-1,-1,-1,-1,-1,-1,-1,-1,-1,-1,-1,-1,-1,-1,-1,-1,-1,-1,-1,-1,-1,-1,-1,-1,-1,-1,-1,-1,-1,-1,-1,-1,-1,-1,-1,-1,-1,-1,-1,-1,-1,-1,-1,-1,-1],"loss_changes":[2.176417E3,2.1744946E2,2.596328E2,1.2217622E2,3.8570007E1,4.548645E1,7.23274E1,1.1139652E1,3.026384E1,2.5855713E0,5.5090317E1,7.642627E1,1.145752E0,5.7822037E1,1.4256577E1,6.4143124E0,2.411335E0,2.7119293E0,2.147337E1,6.1123753E0,3.6193848E-2,5.648655E1,4.8369637E0,1.0928467E1,7.785958E1,0E0,1.1165394E1,1.1072712E0,2.507586E1,0E0,1.5747885E1,1.9564042E0,2.6673672E0,0E0,4.7856903E-1,1.5422058E-1,6.970172E0,9.103986E0,7.8170204E0,8.4682846E-1,1.3771945E1,4.9267405E-1,0E0,7.291893E0,1.9399424E0,1.228709E1,0E0,5.884094E-1,1.9111427E1,1.4531868E1,1.2636261E0,0E0,2.1690097E0,1.1090417E0,2.3690891E-1,3.7502747E0,4.274748E0,1.6567669E1,3.6182861E0,0E0,0E0,0E0,0E0,0E0,0E0,0E0,0E0,0E0,0E0,0E0,0E0,0E0,0E0,0E0,0E0,0E0,0E0,0E0,0E0,0E0,0E0,0E0,0E0,0E0,0E0,0E0,0E0,0E0,0E0,0E0,0E0,0E0,0E0,0E0,0E0,0E0,0E0,0E0,0E0,0E0,0E0,0E0,0E0,0E0,0E0,0E0,0E0],"parents":[2147483647,0,0,1,1,2,2,3,3,4,4,5,5,6,6,7,7,8,8,9,9,10,10,11,11,12,12,13,13,14,14,15,15,16,16,17,17,18,18,19,19,20,20,21,21,22,22,23,23,24,24,26,26,27,27,28,28,30,30,31,31,32,32,34,34,35,35,36,36,37,37,38,38,39,39,40,40,41,41,43,43,44,44,45,45,47,47,48,48,49,49,50,50,52,52,53,53,54,54,55,55,56,56,57,57,58,58],"right_children":[2,4,6,8,10,12,14,16,18,20,22,24,26,28,30,32,34,36,38,40,42,44,46,48,50,-1,52,54,56,-1,58,60,62,-1,64,66,68,70,72,74,76,78,-1,80,82,84,-1,86,88,90,92,-1,94,96,98,100,102,104,106,-1,-1,-1,-1,-1,-1,-1,-1,-1,-1,-1,-1,-1,-1,-1,-1,-1,-1,-1,-1,-1,-1,-1,-1,-1,-1,-1,-1,-1,-1,-1,-1,-1,-1,-1,-1,-1,-1,-1,-1,-1,-1,-1,-1,-1,-1,-1,-1],"split_conditions":[8.268E1,3.159E1,5.567E1,6.631E1,7.583E1,9.23E1,9.8E-3,1.665E1,1.16E-2,3.659E1,4.359E1,4.29E1,5.324E1,9.055E1,9.928E1,8.6E-3,6E-4,4.59E0,7.623E1,6.961E1,2E-4,1.09E-2,4.695E1,1.73E-2,1.27E-2,1.6222303E-1,1.6E-2,5.8E-1,7.049E1,-6.320677E-2,1.42E-2,5.669E1,6.215E1,5.474165E-2,5.2E-3,8.53E-1,7.374E1,1.665E1,3.36E0,1E-3,7.5E-3,1.08E0,-6.493181E-2,7.9E-3,1.27E-2,6.5E-3,-6.327988E-2,4.072E1,3.322E1,6.6E-3,2.71E0,1.5514842E-1,1.9E0,5.79E1,5.66E1,4.48E0,3.2E-3,6.331E1,7.5E-1,1.3125772E-2,1.2795855E-1,-5.642587E-2,5.8199476E-2,-4.2429365E-2,-6.410112E-2,4.8897076E-2,1.5661138E-1,1.0103623E-2,1.5119536E-1,1.157647E-1,-4.5336585E-2,1.4232199E-1,3.5677493E-2,-1.3129829E-2,-6.417354E-2,9.9098995E-2,-5.544261E-2,1.3543934E-2,-5.137777E-2,1.3748997E-1,4.668104E-2,-9.938992E-4,-6.323808E-2,8.944841E-2,-5.7217967E-2,1.6463707E-1,1.2718335E-1,1.5315613E-1,-9.242618E-3,1.4452629E-1,6.0739566E-2,-2.853978E-2,-6.316725E-2,7.67332E-2,-3.577146E-2,5.9055578E-2,-3.959415E-2,-1.9306207E-2,-6.239006E-2,1.5865456E-1,9.231465E-2,8.252711E-2,-4.1543234E-2,1.4682284E-1,-5.6459337E-2,4.7326047E-2,-5.843642E-2],"split_indices":[3,0,0,3,3,3,1,0,1,0,0,0,0,3,3,1,1,2,3,3,1,1,0,1,1,0,1,2,0,0,1,3,3,0,1,4,3,0,2,1,1,2,0,1,1,1,0,0,0,1,2,0,2,0,0,2,1,0,2,0,0,0,0,0,0,0,0,0,0,0,0,0,0,0,0,0,0,0,0,0,0,0,0,0,0,0,0,0,0,0,0,0,0,0,0,0,0,0,0,0,0,0,0,0,0,0,0],"split_type":[0,0,0,0,0,0,0,0,0,0,0,0,0,0,0,0,0,0,0,0,0,0,0,0,0,0,0,0,0,0,0,0,0,0,0,0,0,0,0,0,0,0,0,0,0,0,0,0,0,0,0,0,0,0,0,0,0,0,0,0,0,0,0,0,0,0,0,0,0,0,0,0,0,0,0,0,0,0,0,0,0,0,0,0,0,0,0,0,0,0,0,0,0,0,0,0,0,0,0,0,0,0,0,0,0,0,0],"sum_hessian":[3.7276592E3,2.6435635E3,1.0840958E3,2.3031857E2,2.4132449E3,8.682082E2,2.1588765E2,9.895245E1,1.3136612E2,2.1678037E3,2.4544118E2,3.457757E2,5.224325E2,1.0475106E2,1.1113659E2,1.53043E1,8.3648155E1,7.611698E1,5.5249134E1,9.258946E1,2.075214E3,8.261672E1,1.6282445E2,2.0894868E2,1.3682703E2,4.9211826E2,3.0314228E1,2.5358498E1,7.939256E1,7.206243E1,3.9074158E1,7.2216053E0,8.082695E0,1.1796639E0,8.246849E1,6.2434765E1,1.3682219E1,2.500955E1,3.0239584E1,6.902127E1,2.3568195E1,4.7109275E0,2.0705032E3,4.8047405E1,3.456932E1,2.5873566E1,1.3695088E2,1.799187E2,2.9029984E1,8.888444E1,4.794258E1,2.4524244E1,5.7899837E0,2.6048043E0,2.2753693E1,6.6946655E1,1.2445909E1,1.6618086E1,2.2456074E1,2.3136473E0,4.907958E0,6.159775E0,1.9229202E0,2.3495865E1,5.8972626E1,1.2570758E0,6.117769E1,6.2477927E0,7.4344254E0,3.1676486E0,2.1841902E1,1.8198261E1,1.2041322E1,4.034595E0,6.498667E1,7.7852592E0,1.5782935E1,1.0908918E0,3.6200356E0,3.4390694E1,1.3656709E1,6.0696483E0,2.8499674E1,7.044228E0,1.8829338E1,1.5479105E2,2.5127642E1,1.7145954E1,1.188403E1,5.005802E1,3.882642E1,2.22166E1,2.5725983E1,1.5455428E0,4.244441E0,1.1218379E0,1.4829663E0,2.5613139E0,2.0192379E1,5.0264957E1,1.6681696E1,2.7633066E0,9.682602E0,1.1326868E1,5.2912173E0,3.0664406E0,1.9389633E1],"tree_param":{"num_deleted":"0","num_feature":"5","num_nodes":"107","size_leaf_vector":"1"}},{"base_weights":[7.197435E-2,-5.791289E-1,1.2243203E0,-6.3367504E-1,1.8369645E-2,5.9693295E-1,1.364639E0,-6.358774E-1,4.72145E-1,-4.036036E-1,3.7199014E-1,8.618086E-2,1.0379709E0,1.0880365E0,1.4044448E0,-1.4316048E-1,-6.372011E-2,-3.4056455E-2,7.907582E-1,-4.676044E-1,6.2167746E-1,8.3010954E-1,-2.770248E-1,8.573918E-1,-2.4068084E-1,1.2536832E0,3.6542854E-1,1.2908621E0,6.088736E-1,1.4074443E-1,1.23588406E-1,-5.1086217E-2,4.380578E-1,1.0673771E-1,9.002211E-3,1.7315301E-1,-5.666188E-1,9.109745E-1,-3.3857387E-2,-3.9047576E-2,1.2305763E0,-4.3941084E-1,7.3905843E-1,-2.0295638E-1,1.2365333E0,-4.3704516E-1,3.5345367E-1,8.696649E-1,1.3459675E0,-2.4070495E-1,7.323475E-1,4.883036E-1,1.381433E-1,4.1900262E-2,1.2160212E0,-3.557326E-2,5.3274423E-2,1.0737534E-2,5.6347053E-2,-5.3381026E-2,6.2236425E-2,-6.280044E-2,-3.30175E-2,3.3919837E-2,1.09403275E-1,-3.5830893E-2,6.076159E-2,8.61922E-2,1.4235811E-1,-5.448277E-2,2.3453245E-2,1.1578025E-1,-4.098992E-2,-5.587263E-2,3.519633E-2,5.8524054E-2,1.3122843E-1,-6.0678035E-2,-1.3973433E-2,8.488133E-2,-4.617724E-2,1.2109281E-1,-3.4294908E-3,9.475753E-2,1.394881E-1,-5.6745242E-2,1.4331189E-2,-2.9998438E-3,1.1691256E-1,1.22493245E-1,-2.6156355E-2,-4.78044E-2,6.2272318E-2,1.3124947E-1,3.4865115E-2],"categories":[],"categories_nodes":[],"categories_segments":[],"categories_sizes":[],"default_left":[0,0,0,0,0,0,0,0,0,0,0,0,0,0,0,0,0,0,0,0,0,0,0,0,0,0,0,0,0,0,0,0,0,0,0,0,0,0,0,0,0,0,0,0,0,0,0,0,0,0,0,0,0,0,0,0,0,0,0,0,0,0,0,0,0,0,0,0,0,0,0,0,0,0,0,0,0,0,0,0,0,0,0,0,0,0,0,0,0,0,0,0,0,0,0],"id":8,"left_children":[1,3,5,7,9,11,13,15,17,19,21,23,25,27,29,31,-1,-1,33,35,37,39,41,43,45,47,49,51,53,-1,55,-1,57,-1,-1,59,61,63,-1,65,67,69,71,73,75,77,79,81,83,85,87,89,-1,91,93,-1,-1,-1,-1,-1,-1,-1,-1,-1,-1,-1,-1,-1,-1,-1,-1,-1,-1,-1,-1,-1,-1,-1,-1,-1,-1,-1,-1,-1,-1,-1,-1,-1,-1,-1,-1,-1,-1,-1,-1],"loss_changes":[2.7952656E3,7.759766E1,1.17593506E2,5.612854E0,3.0011227E1,5.5688866E1,1.0565674E1,1.3289795E0,1.5406542E0,6.309247E0,3.2756516E1,2.9404789E1,1.8805862E1,1.3075134E1,3.5019531E0,1.7463503E0,0E0,0E0,6.459408E-1,5.611513E0,1.9247379E0,2.2456676E1,7.9174385E0,1.4200417E1,9.736567E0,2.3778687E0,7.661974E0,6.544449E0,1.5202021E1,0E0,8.428952E-1,0E0,7.631183E-2,0E0,0E0,4.269288E0,8.8853836E-1,1.2526226E-1,0E0,4.610255E0,1.9110565E0,2.9911203E0,3.7046824E0,2.1705017E0,4.9994278E-1,3.052927E0,8.854197E0,6.8979015E0,2.157898E-1,1.7682989E0,7.0987787E0,6.7378993E0,0E0,7.530039E0,1.3298512E0,0E0,0E0,0E0,0E0,0E0,0E0,0E0,0E0,0E0,0E0,0E0,0E0,0E0,0E0,0E0,0E0,0E0,0E0,0E0,0E0,0E0,0E0,0E0,0E0,0E0,0E0,0E0,0E0,0E0,0E0,0E0,0E0,0E0,0E0,0E0,0E0,0E0,0E0,0E0,0E0],"parents":[2147483647,0,0,1,1,2,2,3,3,4,4,5,5,6,6,7,7,8,8,9,9,10,10,11,11,12,12,13,13,14,14,15,15,18,18,19,19,20,20,21,21,22,22,23,23,24,24,25,25,26,26,27,27,28,28,30,30,32,32,35,35,36,36,37,37,39,39,40,40,41,41,42,42,43,43,44,44,45,45,46,46,47,47,48,48,49,49,50,50,51,51,53,53,54,54],"right_children":[2,4,6,8,10,12,14,16,18,20,22,24,26,28,30,32,-1,-1,34,36,38,40,42,44,46,48,50,52,54,-1,56,-1,58,-1,-1,60,62,64,-1,66,68,70,72,74,76,78,80,82,84,86,88,90,-1,92,94,-1,-1,-1,-1,-1,-1,-1,-1,-1,-1,-1,-1,-1,-1,-1,-1,-1,-1,-1,-1,-1,-1,-1,-1,-1,-1,-1,-1,-1,-1,-1,-1,-1,-1,-1,-1,-1,-1,-1,-1],"split_conditions":[1.322E2,4.58E-2,4.46E-2,4.583E1,1.0185E2,1.7097E2,1.6424E2,1.174E1,1.0751E2,4.113E1,4.3E1,3.208E1,4.884E1,4.768E1,7.258E1,2.587E1,-6.372011E-2,-3.4056455E-2,3.414E1,2.243E1,5.058E1,2.115E1,3.803E1,2.34E1,3.252E1,2.57E-2,1.8735E2,1.373E1,6.56E-2,1.4074443E-1,1.7097E2,-5.1086217E-2,3.132E1,1.0673771E-1,9.002211E-3,2.43E1,7.09E-2,8.043E1,-3.3857387E-2,6.89E-2,5.91E-2,7.7E-2,5.09E1,1.5691E2,1.3875E2,1.5481E2,4.928E1,4.005E1,1.433E1,2.473E1,2.189E1,3.112E1,1.381433E-1,2.74E1,6.258E1,-3.557326E-2,5.3274423E-2,1.0737534E-2,5.6347053E-2,-5.3381026E-2,6.2236425E-2,-6.280044E-2,-3.30175E-2,3.3919837E-2,1.09403275E-1,-3.5830893E-2,6.076159E-2,8.61922E-2,1.4235811E-1,-5.448277E-2,2.3453245E-2,1.1578025E-1,-4.098992E-2,-5.587263E-2,3.519633E-2,5.8524054E-2,1.3122843E-1,-6.0678035E-2,-1.3973433E-2,8.488133E-2,-4.617724E-2,1.2109281E-1,-3.4294908E-3,9.475753E-2,1.394881E-1,-5.6745242E-2,1.4331189E-2,-2.9998438E-3,1.1691256E-1,1.22493245E-1,-2.6156355E-2,-4.78044E-2,6.2272318E-2,1.3124947E-1,3.4865115E-2],"split_indices":[0,1,1,2,0,0,0,3,0,2,3,3,3,3,3,2,0,0,3,3,3,2,2,2,2,1,0,2,1,0,0,0,2,0,0,2,1,0,0,1,1,1,3,0,0,0,3,3,2,2,2,3,0,2,3,0,0,0,0,0,0,0,0,0,0,0,0,0,0,0,0,0,0,0,0,0,0,0,0,0,0,0,0,0,0,0,0,0,0,0,0,0,0,0,0],"split_type":[0,0,0,0,0,0,0,0,0,0,0,0,0,0,0,0,0,0,0,0,0,0,0,0,0,0,0,0,0,0,0,0,0,0,0,0,0,0,0,0,0,0,0,0,0,0,0,0,0,0,0,0,0,0,0,0,0,0,0,0,0,0,0,0,0,0,0,0,0,0,0,0,0,0,0,0,0,0,0,0,0,0,0,0,0,0,0,0,0,0,0,0,0,0,0],"sum_hessian":[3.723604E3,2.3795808E3,1.3440232E3,2.180464E3,1.9911668E2,2.4661632E2,1.0974069E3,2.1765544E3,3.9098246E0,9.071986E1,1.0839682E2,1.14830345E2,1.3178598E2,1.4162383E2,9.557831E2,6.124271E0,2.1704302E3,1.0817164E0,2.8281083E0,8.590157E1,4.81828E0,6.3379898E1,4.5016926E1,3.369824E1,8.11321E1,9.912756E1,3.2658417E1,9.831425E1,4.330957E1,9.534515E2,2.331587E0,3.8252904E0,2.2989807E0,1.6525383E0,1.17557E0,1.1397239E1,7.450434E1,3.7421815E0,1.0760988E0,2.0276054E1,4.3103844E1,3.93032E1,5.7137227E0,8.99804E0,2.4700197E1,6.117716E1,1.9954947E1,2.1225727E1,7.790183E1,1.2444557E1,2.0213861E1,1.0618042E1,8.7696205E1,2.294853E1,2.036104E1,1.133857E0,1.1977301E0,1.1425456E0,1.1564351E0,4.355025E0,7.042214E0,5.7833546E1,1.6670794E1,1.5994154E0,2.1427662E0,1.3872858E1,6.403196E0,1.6690144E1,2.64137E1,3.4152687E1,5.150513E0,4.181906E0,1.5318167E0,5.4786863E0,3.5193536E0,3.4826705E0,2.1217525E1,3.8281372E1,2.2895786E1,1.2386985E1,7.5679617E0,1.5162133E1,6.0635943E0,1.074643E1,6.71554E1,6.4655523E0,5.9790044E0,7.7020817E0,1.251178E1,5.0367146E0,5.581328E0,1.2202228E1,1.0746303E1,1.786123E1,2.499809E0],"tree_param":{"num_deleted":"0","num_feature":"5","num_nodes":"95","size_leaf_vector":"1"}},{"base_weights":[-3.3547175E-1,-6.3518584E-1,8.260097E-2,-1.3928412E-1,-6.365893E-1,9.5380664E-1,-4.6678668E-1,-5.3176124E-2,9.3802206E-2,-6.37529E-2,-2.8876704E-1,1.1510682E0,4.9175495E-1,1.6136107E-1,-6.0923904E-1,5.5035003E-2,-5.3795088E-2,1.2113264E0,4.674418E-1,9.7679883E-1,-2.4940932E-1,-1.5919568E-1,8.3010536E-1,-6.2700206E-1,-1.2203196E-1,1.2929902E0,7.311459E-1,1.2374558E0,4.4744212E-2,1.2418968E-1,1.2720419E0,-4.4970784E-1,3.2681176E-1,3.804074E-1,-4.201221E-1,1.2162353E0,2.3141468E-1,-4.959186E-1,-6.364017E-2,5.1898235E-1,-4.0917015E-1,8.330631E-2,1.338356E-1,-1.3940056E-2,1.1028707E-1,4.5283716E-2,1.3630585E-1,-3.1482395E-2,1.31317E-1,9.5538646E-2,-2.092745E-2,1.3529961E-1,9.338952E-3,3.0638266E-2,-6.081751E-2,1.0122943E-1,-3.933237E-2,1.0442289E-1,-2.7108958E-2,-5.184483E-4,-5.61617E-2,5.5005264E-2,1.2757449E-1,8.0057256E-2,-2.8622597E-2,-6.2220372E-2,-2.3310693E-2,1.0424163E-1,-2.7554248E-2,4.09313E-2,-5.4733295E-2],"categories":[],"categories_nodes":[],"categories_segments":[],"categories_sizes":[],"default_left":[0,0,0,0,0,0,0,0,0,0,0,0,0,0,0,0,0,0,0,0,0,0,0,0,0,0,0,0,0,0,0,0,0,0,0,0,0,0,0,0,0,0,0,0,0,0,0,0,0,0,0,0,0,0,0,0,0,0,0,0,0,0,0,0,0,0,0,0,0,0,0],"id":9,"left_children":[1,3,5,7,9,11,13,-1,-1,-1,15,17,19,21,23,-1,-1,25,27,29,31,33,35,37,39,41,43,45,47,49,51,53,55,57,59,61,63,65,-1,67,69,-1,-1,-1,-1,-1,-1,-1,-1,-1,-1,-1,-1,-1,-1,-1,-1,-1,-1,-1,-1,-1,-1,-1,-1,-1,-1,-1,-1,-1,-1],"loss_changes":[4.417255E2,1.340271E0,7.053236E2,3.4899325E0,4.8492432E-1,5.1374695E1,8.0974304E1,0E0,0E0,0E0,1.8315681E0,1.5854553E1,6.2165627E1,3.611901E1,6.3013E0,0E0,0E0,1.3395142E1,1.0984561E1,2.6100952E1,8.102724E0,1.6255241E1,1.2330257E1,5.602417E-1,5.212386E0,5.3792114E0,1.809955E1,5.637131E-1,1.08739E1,7.944037E0,7.2565994E0,6.365405E0,9.461128E0,1.6624458E1,4.549075E0,6.037712E-1,6.8949556E0,1.583744E0,0E0,3.9656343E0,2.4088614E0,0E0,0E0,0E0,0E0,0E0,0E0,0E0,0E0,0E0,0E0,0E0,0E0,0E0,0E0,0E0,0E0,0E0,0E0,0E0,0E0,0E0,0E0,0E0,0E0,0E0,0E0,0E0,0E0,0E0,0E0],"parents":[2147483647,0,0,1,1,2,2,3,3,4,4,5,5,6,6,10,10,11,11,12,12,13,13,14,14,17,17,18,18,19,19,20,20,21,21,22,22,23,23,24,24,25,25,26,26,27,27,28,28,29,29,30,30,31,31,32,32,33,33,34,34,35,35,36,36,37,37,39,39,40,40],"right_children":[2,4,6,8,10,12,14,-1,-1,-1,16,18,20,22,24,-1,-1,26,28,30,32,34,36,38,40,42,44,46,48,50,52,54,56,58,60,62,64,66,-1,68,70,-1,-1,-1,-1,-1,-1,-1,-1,-1,-1,-1,-1,-1,-1,-1,-1,-1,-1,-1,-1,-1,-1,-1,-1,-1,-1,-1,-1,-1,-1],"split_conditions":[1E1,2.39E1,1.5481E2,5.686E1,8.641E1,1.322E2,4.58E-2,-5.3176124E-2,9.3802206E-2,-6.37529E-2,5.394E1,3.893E1,5.19E-2,4.839E1,5.734E1,5.5035003E-2,-5.3795088E-2,7.02E-2,3.8E-2,3.208E1,4.964E1,1.7295E2,1.8735E2,5.4E-2,5.91E-2,2.013E1,3.526E1,2.49E1,5.09E1,2.029E1,3.999E1,1.505E1,2.883E1,2.34E1,1.721E1,4.928E1,2.189E1,4.4E1,-6.364017E-2,2.824E1,1.505E1,8.330631E-2,1.338356E-1,-1.3940056E-2,1.1028707E-1,4.5283716E-2,1.3630585E-1,-3.1482395E-2,1.31317E-1,9.5538646E-2,-2.092745E-2,1.3529961E-1,9.338952E-3,3.0638266E-2,-6.081751E-2,1.0122943E-1,-3.933237E-2,1.0442289E-1,-2.7108958E-2,-5.184483E-4,-5.61617E-2,5.5005264E-2,1.2757449E-1,8.0057256E-2,-2.8622597E-2,-6.2220372E-2,-2.3310693E-2,1.0424163E-1,-2.7554248E-2,4.09313E-2,-5.4733295E-2],"split_indices":[2,3,0,0,0,0,1,0,0,0,3,2,1,3,3,0,0,1,1,3,3,0,0,1,1,3,3,3,3,2,2,2,2,2,2,3,2,3,0,2,2,0,0,0,0,0,0,0,0,0,0,0,0,0,0,0,0,0,0,0,0,0,0,0,0,0,0,0,0,0,0],"split_type":[0,0,0,0,0,0,0,0,0,0,0,0,0,0,0,0,0,0,0,0,0,0,0,0,0,0,0,0,0,0,0,0,0,0,0,0,0,0,0,0,0,0,0,0,0,0,0,0,0,0,0,0,0,0,0,0,0,0,0,0,0,0,0,0,0,0,0,0,0,0,0],"sum_hessian":[3.52386E3,2.052159E3,1.471701E3,6.0742707E0,2.0460847E3,5.68868E2,9.028331E2,4.8234286E0,1.2508423E0,2.0397412E3,6.343605E0,3.9762183E2,1.7124612E2,1.6687225E2,7.359609E2,1.1757389E0,5.167866E0,3.6470322E2,3.2918606E1,1.0331514E2,6.793098E1,1.1331679E2,5.3555466E1,7.097956E2,2.6165287E1,3.102471E2,5.4456123E1,1.0983257E1,2.193535E1,2.6939451E1,7.637569E1,5.0571518E1,1.735946E1,3.678548E1,7.653131E1,3.1930298E1,2.162517E1,5.1088795E1,6.587068E2,7.8448415E0,1.8320444E1,2.9592846E1,2.8065427E2,1.648192E1,3.7974205E1,2.15109E0,8.832167E0,1.7676334E1,4.259015E0,7.1792736E0,1.9760178E1,7.132865E1,5.047035E0,8.600895E0,4.1970623E1,8.685862E0,8.673598E0,1.7921818E1,1.8863663E1,1.9724714E1,5.6806595E1,3.458377E0,2.847192E1,1.0039703E1,1.1585466E1,3.358378E1,1.7505018E1,4.5411353E0,3.3037062E0,2.362476E0,1.5957969E1],"tree_param":{"num_deleted":"0","num_feature":"5","num_nodes":"71","size_leaf_vector":"1"}},{"base_weights":[2.5760886E-1,7.3604375E-1,-6.3311726E-1,1.221555E0,-5.248618E-2,-6.3524865E-2,-1.9298811E-1,6.5783197E-1,1.3255618E0,-4.738487E-1,6.0135484E-1,4.5752776E-1,-5.352634E-2,1.2360896E0,1.01457E-2,1.3845065E0,1.0961494E0,-2.1819627E-1,-6.036753E-1,1.2670612E-1,1.0674362E0,5.7455927E-2,1.2262635E-2,6.2910265E-1,1.3260155E0,-4.400682E-1,5.112151E-1,1.2466335E0,1.40338E-1,4.8713088E-1,1.2954305E0,-5.542404E-1,3.2543334E-1,-6.2242645E-1,-3.8706177E-1,7.641992E-1,-2.8304598E-1,1.3124539E0,5.5603325E-1,1.0057113E-1,-2.6614523E-2,-4.796574E-4,1.3445131E-1,-5.5114713E-2,6.2088515E-3,-2.4307055E-2,8.987368E-2,1.3711429E-1,8.6749874E-2,-1.2657451E-2,1.4437948E-1,8.525797E-2,1.3914973E-1,-6.106594E-2,-3.5130262E-2,-4.649254E-2,1.0043589E-1,-6.250807E-2,-2.1934902E-2,-5.490042E-2,4.934151E-2,2.7756948E-2,1.2114855E-1,-5.382731E-2,7.172569E-2,1.4197756E-1,1.0137196E-1,-8.275761E-3,1.05738126E-1],"categories":[],"categories_nodes":[],"categories_segments":[],"categories_sizes":[],"default_left":[0,0,0,0,0,0,0,0,0,0,0,0,0,0,0,0,0,0,0,0,0,0,0,0,0,0,0,0,0,0,0,0,0,0,0,0,0,0,0,0,0,0,0,0,0,0,0,0,0,0,0,0,0,0,0,0,0,0,0,0,0,0,0,0,0,0,0,0,0],"id":10,"left_children":[1,3,5,7,9,-1,11,13,15,17,19,21,-1,23,25,27,29,31,33,35,37,-1,-1,39,41,43,45,47,-1,49,51,53,55,57,59,61,63,65,67,-1,-1,-1,-1,-1,-1,-1,-1,-1,-1,-1,-1,-1,-1,-1,-1,-1,-1,-1,-1,-1,-1,-1,-1,-1,-1,-1,-1,-1,-1],"loss_changes":[1.6311364E3,9.5327026E2,1.1322021E0,8.9481445E1,2.619538E2,0E0,2.0000353E0,9.063163E1,1.6062256E1,1.9056686E1,8.2304565E1,5.719149E-2,0E0,6.1446686E0,2.6205042E1,9.3188477E-1,3.22041E1,3.6036804E1,1.314148E0,4.8740376E1,2.2813126E1,0E0,0E0,6.471548E0,2.7254944E0,3.4478216E0,1.6285458E1,5.090378E0,0E0,4.0284843E1,7.4602356E0,1.1785011E0,4.103862E1,2.3808289E-1,4.9970546E0,1.5542957E1,2.9442333E1,2.6097565E0,2.0134043E1,0E0,0E0,0E0,0E0,0E0,0E0,0E0,0E0,0E0,0E0,0E0,0E0,0E0,0E0,0E0,0E0,0E0,0E0,0E0,0E0,0E0,0E0,0E0,0E0,0E0,0E0,0E0,0E0,0E0,0E0],"parents":[2147483647,0,0,1,1,2,2,3,3,4,4,6,6,7,7,8,8,9,9,10,10,11,11,13,13,14,14,15,15,16,16,17,17,18,18,19,19,20,20,23,23,24,24,25,25,26,26,27,27,29,29,30,30,31,31,32,32,33,33,34,34,35,35,36,36,37,37,38,38],"right_children":[2,4,6,8,10,-1,12,14,16,18,20,22,-1,24,26,28,30,32,34,36,38,-1,-1,40,42,44,46,48,-1,50,52,54,56,58,60,62,64,66,68,-1,-1,-1,-1,-1,-1,-1,-1,-1,-1,-1,-1,-1,-1,-1,-1,-1,-1,-1,-1,-1,-1,-1,-1,-1,-1,-1,-1,-1,-1],"split_conditions":[1E1,8.319E1,7.688E1,3.121E1,4.931E1,-6.3524865E-2,9.164E1,6.732E1,7.688E1,9.085E1,1.09E-2,7.839E1,-5.352634E-2,1.665E1,1.16E-2,3.686E1,4.147E1,1.31E-2,4.719E1,9.183E1,9.928E1,5.7455927E-2,1.2262635E-2,6.215E1,6E-4,4.59E0,2.284E1,6.961E1,1.40338E-1,1.27E-2,4.4E-3,4.333E1,3.628E1,8.24E0,1.68E-2,5.567E1,6.666E1,9.304E1,5.66E1,1.0057113E-1,-2.6614523E-2,-4.796574E-4,1.3445131E-1,-5.5114713E-2,6.2088515E-3,-2.4307055E-2,8.987368E-2,1.3711429E-1,8.6749874E-2,-1.2657451E-2,1.4437948E-1,8.525797E-2,1.3914973E-1,-6.106594E-2,-3.5130262E-2,-4.649254E-2,1.0043589E-1,-6.250807E-2,-2.1934902E-2,-5.490042E-2,4.934151E-2,2.7756948E-2,1.2114855E-1,-5.382731E-2,7.172569E-2,1.4197756E-1,1.0137196E-1,-8.275761E-3,1.05738126E-1],"split_indices":[2,3,3,0,0,0,0,3,3,3,1,3,0,0,1,0,0,1,0,3,3,0,0,3,1,2,0,3,0,1,1,0,0,2,1,0,0,3,0,0,0,0,0,0,0,0,0,0,0,0,0,0,0,0,0,0,0,0,0,0,0,0,0,0,0,0,0,0,0],"split_type":[0,0,0,0,0,0,0,0,0,0,0,0,0,0,0,0,0,0,0,0,0,0,0,0,0,0,0,0,0,0,0,0,0,0,0,0,0,0,0,0,0,0,0,0,0,0,0,0,0,0,0,0,0,0,0,0,0,0,0,0,0,0,0,0,0,0,0,0,0],"sum_hessian":[3.825477E3,2.4888286E3,1.3366486E3,1.5400468E3,9.4878186E2,1.3297659E3,6.8827496E0,2.4102144E2,1.2990253E3,5.7713025E2,3.716516E2,2.2568116E0,4.625938E0,1.2685562E2,1.1416581E2,1.0294784E3,2.6954684E2,1.9527623E2,3.8185406E2,1.847636E2,1.8688802E2,1.1420976E0,1.1147141E0,1.740051E1,1.0945512E2,6.0198677E1,5.3967133E1,1.3203133E2,8.974471E2,6.730426E1,2.0224258E2,1.2066671E2,7.460952E1,3.497081E2,3.214596E1,7.195338E1,1.1281022E2,1.2529276E2,6.159525E1,1.2161203E1,5.2393064E0,1.5106665E0,1.0794445E2,4.9214657E1,1.0984022E1,1.8442589E1,3.5524544E1,9.742129E1,3.4610043E1,4.1530132E1,2.5774128E1,3.7811787E1,1.644308E2,9.284551E1,2.7821198E1,3.4621147E1,3.9988373E1,3.4687323E2,2.834868E0,2.7469992E1,4.6759706E0,3.5237232E1,3.6716145E1,9.024588E1,2.2564335E1,8.941674E1,3.5876022E1,2.7452135E1,3.4143116E1],"tree_param":{"num_deleted":"0","num_feature":"5","num_nodes":"69","size_leaf_vector":"1"}},{"base_weights":[-1.9387342E-2,-4.9435875E-1,1.0290794E0,1.93768E-1,-6.1064315E-1,1.2275975E0,1.7484751E-1,-4.7875512E-1,7.1005774E-1,-6.350146E-1,-3.7520567E-1,8.706314E-1,1.3272929E0,7.014311E-1,-3.572376E-1,3.2543737E-1,-5.672614E-1,1.0659835E0,-8.007478E-3,-3.491108E-1,-6.3549995E-2,2.6248887E-1,-5.66569E-1,1.2087078E0,2.6846132E-1,1.3927227E-1,1.1080533E0,-5.020736E-1,1.0516706E0,-6.1784346E-2,1.0223338E-1,8.828335E-1,-2.461363E-1,-3.9681605E-1,-6.322309E-2,6.77437E-1,1.3048089E0,1.0092403E0,-3.638539E-1,-5.0153464E-2,1.5336099E-2,1.1846056E0,-5.4143834E-1,-1.8493961E-1,-6.106628E-1,1.341215E0,4.695346E-1,8.40891E-1,-4.8450887E-1,1.2466271E0,1.0859351E-1,8.144726E-2,-5.716606E-1,1.2471017E0,-9.415947E-2,7.4973196E-1,-4.1609618E-1,-2.8033452E-3,1.0910952E-1,-5.5336248E-2,5.562496E-2,-5.6359082E-2,1.555647E-2,1.2960818E-1,3.0136013E-2,1.3577804E-1,6.255837E-2,1.8938836E-2,1.3534175E-1,4.074216E-3,-6.327837E-2,1.2942828E-1,-3.9304107E-2,1.6839333E-2,-5.768135E-2,5.9238058E-2,-5.8794506E-2,-4.2237893E-2,-6.292512E-2,1.4152604E-1,9.7568356E-2,1.2142284E-1,-6.0670596E-2,1.2877424E-1,2.3515796E-2,1.5575606E-3,-5.9245404E-2,7.759055E-2,1.4001447E-1,-5.9374638E-2,5.60161E-2,5.7347156E-2,-3.8510855E-2,-1.8269273E-2,-6.1081745E-2,1.3397941E-1,6.924137E-2,7.7278234E-2,-4.0490296E-2,1.2982716E-1,-5.5208195E-2,4.4449136E-2,-5.745829E-2],"categories":[],"categories_nodes":[],"categories_segments":[],"categories_sizes":[],"default_left":[0,0,0,0,0,0,0,0,0,0,0,0,0,0,0,0,0,0,0,0,0,0,0,0,0,0,0,0,0,0,0,0,0,0,0,0,0,0,0,0,0,0,0,0,0,0,0,0,0,0,0,0,0,0,0,0,0,0,0,0,0,0,0,0,0,0,0,0,0,0,0,0,0,0,0,0,0,0,0,0,0,0,0,0,0,0,0,0,0,0,0,0,0,0,0,0,0,0,0,0,0,0,0],"id":11,"left_children":[1,3,5,7,9,11,13,15,17,19,21,23,25,27,29,31,33,35,37,39,-1,41,43,45,47,-1,49,51,53,-1,55,57,59,61,-1,63,65,67,69,-1,-1,71,73,75,77,79,81,83,85,87,89,91,93,95,97,99,101,-1,-1,-1,-1,-1,-1,-1,-1,-1,-1,-1,-1,-1,-1,-1,-1,-1,-1,-1,-1,-1,-1,-1,-1,-1,-1,-1,-1,-1,-1,-1,-1,-1,-1,-1,-1,-1,-1,-1,-1,-1,-1,-1,-1,-1,-1],"loss_changes":[1.8324498E3,2.0275818E2,1.9433496E2,1.27713356E2,1.2193481E1,3.196753E1,6.1191998E1,1.1566578E1,5.3150444E1,5.0354004E-2,2.5248175E1,4.1633133E1,8.865967E0,4.674871E1,1.3096789E1,5.4708767E0,1.348423E0,1.2017075E1,2.5670258E1,5.015089E-1,0E0,3.6342064E1,2.5545921E0,1.2270554E1,3.2902626E1,0E0,2.3641708E1,1.0777206E0,1.920958E1,0E0,1.3821197E1,1.6556473E0,2.5075536E0,4.0068913E0,0E0,1.2406574E1,2.2097015E0,4.930126E0,5.740451E0,0E0,0E0,4.444174E0,7.6040745E-1,5.9410453E0,2.3004532E-1,1.6274872E0,1.801648E1,1.1389088E1,1.8011608E0,9.80217E0,7.309933E0,1.0428975E0,2.3587704E-1,2.820816E0,3.9100597E0,1.3751134E1,3.392255E0,0E0,0E0,0E0,0E0,0E0,0E0,0E0,0E0,0E0,0E0,0E0,0E0,0E0,0E0,0E0,0E0,0E0,0E0,0E0,0E0,0E0,0E0,0E0,0E0,0E0,0E0,0E0,0E0,0E0,0E0,0E0,0E0,0E0,0E0,0E0,0E0,0E0,0E0,0E0,0E0,0E0,0E0,0E0,0E0,0E0,0E0],"parents":[2147483647,0,0,1,1,2,2,3,3,4,4,5,5,6,6,7,7,8,8,9,9,10,10,11,11,12,12,13,13,14,14,15,15,16,16,17,17,18,18,19,19,21,21,22,22,23,23,24,24,26,26,27,27,28,28,30,30,31,31,32,32,33,33,35,35,36,36,37,37,38,38,41,41,42,42,43,43,44,44,45,45,46,46,47,47,48,48,49,49,50,50,51,51,52,52,53,53,54,54,55,55,56,56],"right_children":[2,4,6,8,10,12,14,16,18,20,22,24,26,28,30,32,34,36,38,40,-1,42,44,46,48,-1,50,52,54,-1,56,58,60,62,-1,64,66,68,70,-1,-1,72,74,76,78,80,82,84,86,88,90,92,94,96,98,100,102,-1,-1,-1,-1,-1,-1,-1,-1,-1,-1,-1,-1,-1,-1,-1,-1,-1,-1,-1,-1,-1,-1,-1,-1,-1,-1,-1,-1,-1,-1,-1,-1,-1,-1,-1,-1,-1,-1,-1,-1,-1,-1,-1,-1,-1,-1],"split_conditions":[8.268E1,3.719E1,5.567E1,6.662E1,7.583E1,8.814E1,9.8E-3,1.665E1,1.31E-2,2E-4,4.4E-3,4.333E1,4.719E1,9.055E1,9.928E1,8.6E-3,5.2E-3,7.374E1,2.284E1,7.1E1,-6.3549995E-2,4.647E1,6.5E-3,1.72E-2,9.9E-3,1.3927227E-1,1.7E-2,5.8E-1,7.049E1,-6.1784346E-2,1.42E-2,5.537E1,6.215E1,6.342E1,-6.322309E-2,4.4E-3,5.56E0,7.443E1,2.57E0,-5.0153464E-2,1.5336099E-2,5.9E0,5.8E-1,4.599E1,8.3E-3,4.072E1,3.385E1,2.99E0,1.42E0,9.262E1,9.566E1,5.79E1,5.66E1,5.12E0,3.2E-3,6.331E1,7.5E-1,-2.8033452E-3,1.0910952E-1,-5.5336248E-2,5.562496E-2,-5.6359082E-2,1.555647E-2,1.2960818E-1,3.0136013E-2,1.3577804E-1,6.255837E-2,1.8938836E-2,1.3534175E-1,4.074216E-3,-6.327837E-2,1.2942828E-1,-3.9304107E-2,1.6839333E-2,-5.768135E-2,5.9238058E-2,-5.8794506E-2,-4.2237893E-2,-6.292512E-2,1.4152604E-1,9.7568356E-2,1.2142284E-1,-6.0670596E-2,1.2877424E-1,2.3515796E-2,1.5575606E-3,-5.9245404E-2,7.759055E-2,1.4001447E-1,-5.9374638E-2,5.60161E-2,5.7347156E-2,-3.8510855E-2,-1.8269273E-2,-6.1081745E-2,1.3397941E-1,6.924137E-2,7.7278234E-2,-4.0490296E-2,1.2982716E-1,-5.5208195E-2,4.4449136E-2,-5.745829E-2],"split_indices":[3,0,0,3,3,3,1,0,1,1,1,0,0,3,3,1,1,3,0,3,0,0,1,1,1,0,1,2,0,0,1,3,3,3,0,1,2,3,2,0,0,2,2,0,1,0,0,2,2,3,3,0,0,2,1,0,2,0,0,0,0,0,0,0,0,0,0,0,0,0,0,0,0,0,0,0,0,0,0,0,0,0,0,0,0,0,0,0,0,0,0,0,0,0,0,0,0,0,0,0,0,0,0],"split_type":[0,0,0,0,0,0,0,0,0,0,0,0,0,0,0,0,0,0,0,0,0,0,0,0,0,0,0,0,0,0,0,0,0,0,0,0,0,0,0,0,0,0,0,0,0,0,0,0,0,0,0,0,0,0,0,0,0,0,0,0,0,0,0,0,0,0,0,0,0,0,0,0,0,0,0,0,0,0,0,0,0,0,0,0,0,0,0,0,0,0,0,0,0,0,0,0,0,0,0,0,0,0,0],"sum_hessian":[3.6776577E3,2.531416E3,1.1462415E3,3.6584116E2,2.165575E3,9.297391E2,2.1650243E2,1.589128E2,2.0692838E2,1.9608945E3,2.0468045E2,2.0509953E2,7.246395E2,1.0865379E2,1.0784863E2,1.5489943E1,1.4342285E2,1.3802737E2,6.8901E1,4.5438104E0,1.9563507E3,4.7158592E1,1.5752187E2,1.3070857E2,7.439097E1,5.539624E2,1.7067711E2,2.4394629E1,8.425916E1,6.859677E1,3.9251865E1,7.5665298E0,7.9234123E0,4.1543217E1,1.0187964E2,5.400417E1,8.40232E1,1.7380295E1,5.152071E1,3.487691E0,1.0561191E0,2.1744173E1,2.541442E1,1.6853163E1,1.406687E2,1.1014842E2,2.0560143E1,4.2195763E1,3.2195206E1,1.4967726E2,2.0999857E1,2.5810263E0,2.1813602E1,7.190652E1,1.2352652E1,1.725297E1,2.1998894E1,1.5691202E0,5.9974093E0,5.954025E0,1.9693875E0,3.1893604E1,9.649611E0,1.9492603E1,3.4511566E1,7.7017715E1,7.0054846E0,5.5973396E0,1.1782955E1,2.091032E1,3.0610388E1,2.0498722E1,1.2454495E0,1.0279298E0,2.438649E1,5.59383E0,1.1259333E1,1.4771294E1,1.2589741E2,8.9206215E1,2.0942213E1,1.2076037E1,8.484104E0,2.3634552E1,1.8561213E1,5.867618E0,2.6327587E1,3.829866E1,1.1137859E2,8.094821E0,1.2905035E1,1.14469E0,1.4363363E0,2.5132892E0,1.9300312E1,6.0398144E1,1.150837E1,2.867037E0,9.485615E0,1.2140221E1,5.1127496E0,3.1406221E0,1.885827E1],"tree_param":{"num_deleted":"0","num_feature":"5","num_nodes":"103","size_leaf_vector":"1"}},{"base_weights":[6.7496285E-2,-5.652394E-1,1.0856209E0,-6.2111723E-1,2.1940345E-2,5.440291E-1,1.203208E0,-6.2338877E-1,4.4031513E-1,3.3812505E-1,-4.120231E-1,8.108903E-2,9.259292E-1,9.6879876E-1,1.2366747E0,-1.3551237E-1,-6.247579E-2,-3.3308875E-2,7.3222363E-1,-2.2592224E-1,7.7069205E-1,-5.100019E-1,3.4595123E-1,7.7126235E-1,-2.2861364E-1,1.1077771E0,3.372576E-1,1.1408048E0,5.522035E-1,1.2392133E-1,1.1067193E-1,-5.0161075E-2,4.2253745E-1,9.876294E-2,7.913283E-3,-4.5380592E-1,5.7345325E-1,-3.246485E-2,1.1290152E0,-6.087926E-1,-3.4819648E-2,8.9595664E-1,-5.1409896E-2,-4.2688972E-1,1.0332285E0,-4.2185158E-1,3.2964662E-1,7.7050936E-1,1.1883264E0,-2.2562176E-1,6.597167E-1,4.5110244E-1,1.2159463E-1,3.3883233E-2,1.0821924E0,-3.562684E-2,5.0875437E-2,1.0515719E-2,5.4089632E-2,-5.4210406E-2,7.2464906E-2,-5.1629532E-2,1.1848482E-1,-3.4095753E-2,5.5880345E-2,5.381868E-2,1.201687E-1,-2.2320338E-2,-6.2333614E-2,-5.506099E-2,4.4560574E-2,9.396903E-3,1.0512809E-1,1.0398111E-2,-5.4544497E-2,3.7177026E-2,1.13168135E-1,-5.9215862E-2,-1.354619E-2,7.70916E-2,-4.478253E-2,1.07331276E-1,-5.246322E-3,8.521592E-2,1.2289871E-1,-5.538965E-2,1.4601423E-2,8.9219995E-2,-5.0609656E-2,1.21447645E-1,-1.7491568E-2,-4.6604794E-2,5.632431E-2,1.1644715E-1,3.1964645E-2],"categories":[],"categories_nodes":[],"categories_segments":[],"categories_sizes":[],"default_left":[0,0,0,0,0,0,0,0,0,0,0,0,0,0,0,0,0,0,0,0,0,0,0,0,0,0,0,0,0,0,0,0,0,0,0,0,0,0,0,0,0,0,0,0,0,0,0,0,0,0,0,0,0,0,0,0,0,0,0,0,0,0,0,0,0,0,0,0,0,0,0,0,0,0,0,0,0,0,0,0,0,0,0,0,0,0,0,0,0,0,0,0,0,0,0],"id":12,"left_children":[1,3,5,7,9,11,13,15,17,19,21,23,25,27,29,31,-1,-1,33,35,37,39,41,43,45,47,49,51,53,-1,55,-1,57,-1,-1,59,61,63,65,67,69,71,-1,73,75,77,79,81,83,85,87,89,-1,91,93,-1,-1,-1,-1,-1,-1,-1,-1,-1,-1,-1,-1,-1,-1,-1,-1,-1,-1,-1,-1,-1,-1,-1,-1,-1,-1,-1,-1,-1,-1,-1,-1,-1,-1,-1,-1,-1,-1,-1,-1],"loss_changes":[2.3618296E3,7.42027E1,8.883301E1,5.2526245E0,2.7231424E1,4.456369E1,7.852417E0,1.2918701E0,1.3716162E0,2.8177288E1,6.3904924E0,2.4806435E1,1.4426613E1,1.0029053E1,2.7382812E0,1.6510199E0,0E0,0E0,5.788982E-1,9.47573E0,1.879588E1,3.4760914E0,5.273117E0,1.1715445E1,8.802611E0,1.9420166E0,6.332244E0,4.859146E0,1.2436932E1,0E0,8.0596745E-1,0E0,6.833118E-2,0E0,0E0,4.547206E0,8.383212E0,4.0358567E0,1.2898026E0,2.0640755E-1,3.6856399E0,7.196202E-1,0E0,5.0685644E-1,1.5178223E0,2.850997E0,7.62249E0,5.8185873E0,8.8134766E-2,1.6855472E0,6.390956E0,5.8710628E0,0E0,6.6109643E0,1.0343647E0,0E0,0E0,0E0,0E0,0E0,0E0,0E0,0E0,0E0,0E0,0E0,0E0,0E0,0E0,0E0,0E0,0E0,0E0,0E0,0E0,0E0,0E0,0E0,0E0,0E0,0E0,0E0,0E0,0E0,0E0,0E0,0E0,0E0,0E0,0E0,0E0,0E0,0E0,0E0,0E0],"parents":[2147483647,0,0,1,1,2,2,3,3,4,4,5,5,6,6,7,7,8,8,9,9,10,10,11,11,12,12,13,13,14,14,15,15,18,18,19,19,20,20,21,21,22,22,23,23,24,24,25,25,26,26,27,27,28,28,30,30,32,32,35,35,36,36,37,37,38,38,39,39,40,40,41,41,43,43,44,44,45,45,46,46,47,47,48,48,49,49,50,50,51,51,53,53,54,54],"right_children":[2,4,6,8,10,12,14,16,18,20,22,24,26,28,30,32,-1,-1,34,36,38,40,42,44,46,48,50,52,54,-1,56,-1,58,-1,-1,60,62,64,66,68,70,72,-1,74,76,78,80,82,84,86,88,90,-1,92,94,-1,-1,-1,-1,-1,-1,-1,-1,-1,-1,-1,-1,-1,-1,-1,-1,-1,-1,-1,-1,-1,-1,-1,-1,-1,-1,-1,-1,-1,-1,-1,-1,-1,-1,-1,-1,-1,-1,-1,-1],"split_conditions":[1.322E2,4.58E-2,4.46E-2,4.583E1,4.246E1,1.7097E2,1.6424E2,1.174E1,1.0751E2,1.0185E2,3.803E1,3.208E1,4.884E1,4.768E1,7.258E1,2.587E1,-6.247579E-2,-3.3308875E-2,3.414E1,7.02E-2,2.115E1,1.2418E2,5.09E1,1.836E1,3.252E1,2.57E-2,1.8735E2,1.373E1,6.56E-2,1.2392133E-1,6.47E-1,-5.0161075E-2,3.132E1,9.876294E-2,7.913283E-3,3.999E1,2.299E1,6.89E-2,2.387E1,4.3E1,6.89E-2,8.641E1,-5.1409896E-2,1.549E1,1.3875E2,1.5481E2,4.928E1,4.005E1,1.433E1,2.473E1,7.69E-1,2.911E1,1.2159463E-1,2.74E1,6.258E1,-3.562684E-2,5.0875437E-2,1.0515719E-2,5.4089632E-2,-5.4210406E-2,7.2464906E-2,-5.1629532E-2,1.1848482E-1,-3.4095753E-2,5.5880345E-2,5.381868E-2,1.201687E-1,-2.2320338E-2,-6.2333614E-2,-5.506099E-2,4.4560574E-2,9.396903E-3,1.0512809E-1,1.0398111E-2,-5.4544497E-2,3.7177026E-2,1.13168135E-1,-5.9215862E-2,-1.354619E-2,7.70916E-2,-4.478253E-2,1.07331276E-1,-5.246322E-3,8.521592E-2,1.2289871E-1,-5.538965E-2,1.4601423E-2,8.9219995E-2,-5.0609656E-2,1.21447645E-1,-1.7491568E-2,-4.6604794E-2,5.632431E-2,1.1644715E-1,3.1964645E-2],"split_indices":[0,1,1,2,3,0,0,3,0,0,2,3,3,3,3,2,0,0,3,1,2,0,3,2,2,1,0,2,1,0,4,0,2,0,0,2,2,1,2,3,1,0,0,3,0,0,3,3,2,2,4,3,0,2,3,0,0,0,0,0,0,0,0,0,0,0,0,0,0,0,0,0,0,0,0,0,0,0,0,0,0,0,0,0,0,0,0,0,0,0,0,0,0,0,0],"split_type":[0,0,0,0,0,0,0,0,0,0,0,0,0,0,0,0,0,0,0,0,0,0,0,0,0,0,0,0,0,0,0,0,0,0,0,0,0,0,0,0,0,0,0,0,0,0,0,0,0,0,0,0,0,0,0,0,0,0,0,0,0,0,0,0,0,0,0,0,0,0,0,0,0,0,0,0,0,0,0,0,0,0,0,0,0,0,0,0,0,0,0,0,0,0,0],"sum_hessian":[3.6643247E3,2.2601501E3,1.4041747E3,2.0637039E3,1.9644624E2,2.5148619E2,1.1526885E3,2.0597087E3,3.9951506E0,1.1377263E2,8.2673615E1,1.1422939E2,1.3725679E2,1.4775099E2,1.00493744E3,6.0438695E0,2.0536648E3,1.0560641E0,2.9390864E0,4.958882E1,6.41838E1,7.349987E1,9.1737385E0,3.4919918E1,7.930947E1,1.0418954E2,3.3067257E1,1.0334358E2,4.4407417E1,1.0025766E3,2.3608346E0,3.7106812E0,2.333188E0,1.7445875E0,1.194499E0,3.8924606E1,1.0664216E1,2.0081617E1,4.4102184E1,6.061649E1,1.2883385E1,5.569971E0,3.6037672E0,6.152181E0,2.8767738E1,5.9097595E1,2.0211878E1,2.212321E1,8.206633E1,1.2153177E1,2.0914078E1,1.0840968E1,9.250261E1,2.2988745E1,2.141867E1,1.1347919E0,1.2260427E0,1.1467171E0,1.1864711E0,3.671374E1,2.2108653E0,3.888648E0,6.7755685E0,1.3474617E1,6.6070004E0,5.7510843E0,3.83511E1,2.7973876E0,5.78191E1,6.142566E0,6.7408185E0,1.1641395E0,4.405832E0,1.145546E0,5.006635E0,4.345887E0,2.442185E1,3.6389954E1,2.2707642E1,1.2899147E1,7.31273E0,1.5950293E1,6.1729174E0,1.1224476E1,7.084185E1,6.1926436E0,5.9605336E0,1.7632544E1,3.281535E0,4.4610763E0,6.379892E0,1.18845215E1,1.1104224E1,1.8856916E1,2.5617533E0],"tree_param":{"num_deleted":"0","num_feature":"5","num_nodes":"95","size_leaf_vector":"1"}},{"base_weights":[-3.2262754E-1,-6.226511E-1,7.857924E-2,-1.20753236E-1,-6.241129E-1,8.090572E-1,-4.870503E-1,-5.17811E-2,9.0394266E-2,-6.250935E-2,-2.7016252E-1,1.0441288E0,4.4510785E-1,1.7677031E-1,-5.8594507E-1,5.3983826E-2,-5.240314E-2,1.1042262E0,5.1758504E-1,9.306729E-1,-5.1561777E-2,-5.098998E-1,4.830341E-1,-6.101717E-1,1.05787806E-1,7.069524E-1,1.1748523E0,1.1056404E0,1.1229013E-1,3.3808112E-1,1.1200615E0,-3.1668717E-1,4.5621175E-1,-4.1036624E-3,-6.1626572E-2,7.5190794E-1,-3.5987154E-1,-4.6950325E-1,-6.2378347E-2,6.5395725E-1,-3.7969527E-1,1.09261565E-1,1.6426375E-2,1.18482865E-1,3.7609514E-2,4.15443E-2,1.1822815E-1,-2.8393982E-2,1.2276428E-1,1.050949E-1,-2.096325E-2,1.1877885E-1,4.396192E-2,3.757947E-2,-5.143684E-2,9.30428E-2,-1.4677144E-2,-5.0325282E-2,5.1767137E-2,1.16859786E-1,2.438635E-2,-5.9598643E-2,3.2450546E-2,-6.2059116E-2,-1.9596087E-2,1.05875544E-1,-2.9996801E-2,5.264473E-2,-5.071902E-2],"categories":[],"categories_nodes":[],"categories_segments":[],"categories_sizes":[],"default_left":[0,0,0,0,0,0,0,0,0,0,0,0,0,0,0,0,0,0,0,0,0,0,0,0,0,0,0,0,0,0,0,0,0,0,0,0,0,0,0,0,0,0,0,0,0,0,0,0,0,0,0,0,0,0,0,0,0,0,0,0,0,0,0,0,0,0,0,0,0],"id":13,"left_children":[1,3,5,7,9,11,13,-1,-1,-1,15,17,19,21,23,-1,-1,25,27,29,31,33,35,37,39,41,43,45,47,49,51,53,55,57,-1,59,61,63,-1,65,67,-1,-1,-1,-1,-1,-1,-1,-1,-1,-1,-1,-1,-1,-1,-1,-1,-1,-1,-1,-1,-1,-1,-1,-1,-1,-1,-1,-1],"loss_changes":[4.0874277E2,1.3499146E0,6.0097784E2,3.267968E0,5.0335693E-1,5.3838257E1,5.3925003E1,0E0,0E0,0E0,1.7454497E0,1.1608124E1,6.0538105E1,2.2763445E1,1.2026215E1,0E0,0E0,8.8377075E0,9.722065E0,1.3861359E1,1.6964596E1,1.8003778E0,1.7168245E1,1.0278625E0,6.90278E0,1.1231983E1,1.8738098E0,3.9447594E-1,1.1648719E1,1.2777929E1,3.8890457E0,1.1510544E1,1.2508854E1,2.0392184E0,0E0,1.1750229E1,3.2164056E0,2.5606327E0,0E0,4.9944363E0,1.8720849E0,0E0,0E0,0E0,0E0,0E0,0E0,0E0,0E0,0E0,0E0,0E0,0E0,0E0,0E0,0E0,0E0,0E0,0E0,0E0,0E0,0E0,0E0,0E0,0E0,0E0,0E0,0E0,0E0],"parents":[2147483647,0,0,1,1,2,2,3,3,4,4,5,5,6,6,10,10,11,11,12,12,13,13,14,14,17,17,18,18,19,19,20,20,21,21,22,22,23,23,24,24,25,25,26,26,27,27,28,28,29,29,30,30,31,31,32,32,33,33,35,35,36,36,37,37,39,39,40,40],"right_children":[2,4,6,8,10,12,14,-1,-1,-1,16,18,20,22,24,-1,-1,26,28,30,32,34,36,38,40,42,44,46,48,50,52,54,56,58,-1,60,62,64,-1,66,68,-1,-1,-1,-1,-1,-1,-1,-1,-1,-1,-1,-1,-1,-1,-1,-1,-1,-1,-1,-1,-1,-1,-1,-1,-1,-1,-1,-1],"split_conditions":[1E1,2.39E1,1.6153E2,5.686E1,8.641E1,1.2818E2,3.8E-2,-5.17811E-2,9.0394266E-2,-6.250935E-2,5.394E1,3.752E1,4.7E-2,3.464E1,6.004E1,5.3983826E-2,-5.240314E-2,2.49E1,3.89E-2,3.208E1,4.768E1,1.433E1,2.973E1,5.19E-2,5.91E-2,5.28E-2,7.688E1,2.243E1,5.09E1,2.34E1,3.848E1,1.617E1,6.56E-2,2.71E1,-6.1626572E-2,1.8735E2,5.312E1,4.4E1,-6.2378347E-2,3.338E1,1.6682E2,1.09261565E-1,1.6426375E-2,1.18482865E-1,3.7609514E-2,4.15443E-2,1.1822815E-1,-2.8393982E-2,1.2276428E-1,1.050949E-1,-2.096325E-2,1.1877885E-1,4.396192E-2,3.757947E-2,-5.143684E-2,9.30428E-2,-1.4677144E-2,-5.0325282E-2,5.1767137E-2,1.16859786E-1,2.438635E-2,-5.9598643E-2,3.2450546E-2,-6.2059116E-2,-1.9596087E-2,1.05875544E-1,-2.9996801E-2,5.264473E-2,-5.071902E-2],"split_indices":[2,3,0,0,0,0,1,0,0,0,3,2,1,3,3,0,0,3,1,3,3,2,2,1,1,1,3,3,3,2,2,2,1,3,0,0,3,3,0,2,0,0,0,0,0,0,0,0,0,0,0,0,0,0,0,0,0,0,0,0,0,0,0,0,0,0,0,0,0],"split_type":[0,0,0,0,0,0,0,0,0,0,0,0,0,0,0,0,0,0,0,0,0,0,0,0,0,0,0,0,0,0,0,0,0,0,0,0,0,0,0,0,0,0,0,0,0,0,0,0,0,0,0,0,0,0,0,0,0,0,0,0,0,0,0,0,0,0,0,0,0],"sum_hessian":[3.3942708E3,1.9417058E3,1.452565E3,5.8816614E0,1.9358242E3,6.3372076E2,8.188442E2,4.5955915E0,1.2860699E0,1.9297118E3,6.11243E0,3.8389655E2,2.4982422E2,1.0607041E2,7.127738E2,1.1897947E0,4.922635E0,3.4358417E2,4.0312363E1,1.2588244E2,1.2394179E2,3.251162E1,7.355879E1,6.887689E2,2.4004885E1,5.3523327E1,2.9006085E2,1.5742734E1,2.456963E1,3.1162115E1,9.472032E1,8.167361E1,4.2268177E1,5.8294983E0,2.6682123E1,5.5851112E1,1.7707684E1,6.38999E1,6.24869E2,1.1111559E1,1.2893326E1,3.0695875E1,2.2827452E1,2.860053E2,4.0555196E0,2.2151003E0,1.3527634E1,1.8679241E1,5.89039E0,1.3140506E1,1.802161E1,8.5467766E1,9.252553E0,1.793742E1,6.373619E1,2.3356451E1,1.8911726E1,2.9974885E0,2.8320096E0,2.9970009E1,2.5881102E1,1.3261519E1,4.446163E0,4.034635E1,2.3553547E1,7.723991E0,3.3875682E0,1.2043692E0,1.1688957E1],"tree_param":{"num_deleted":"0","num_feature":"5","num_nodes":"69","size_leaf_vector":"1"}},{"base_weights":[2.3993635E-1,6.684377E-1,-6.204851E-1,1.0378464E0,-1.4452274E-1,-6.2270213E-2,-1.7880921E-1,6.488222E-1,1.1788611E0,-4.2143577E-1,6.8559694E-1,4.632084E-1,-5.2582033E-2,1.0209849E0,-1.24012664E-1,1.2127393E0,8.6076295E-1,-6.0050565E-1,-1.7371918E-1,-2.941659E-1,9.307269E-1,5.8124285E-2,1.2424688E-2,2.5984135E-1,1.0865054E0,-4.3052915E-1,5.001477E-1,1.103136E0,1.2406492E0,2.5064623E-1,1.1190377E0,-1.9199423E-1,-6.0827565E-1,-4.8877332E-1,3.2360318E-1,-4.5229962E-1,6.400334E-1,6.5099174E-1,1.2600418E0,8.977024E-2,-4.0753607E-2,5.85858E-2,1.1660346E-1,-6.151293E-2,-1.7234985E-2,-4.90179E-2,9.210332E-2,1.2168831E-1,6.903426E-2,6.918166E-2,1.2432565E-1,-3.8528554E-2,1.1726576E-1,3.5550382E-2,1.2352242E-1,5.2890994E-2,-3.9825942E-2,-5.2154284E-2,-6.24124E-2,-3.7138674E-3,-5.5771936E-2,1.14487045E-1,-2.0602664E-2,5.295079E-2,-6.0007848E-2,1.0601143E-1,2.887287E-3,1.0923137E-1,7.878324E-3,7.828916E-2,1.3055408E-1],"categories":[],"categories_nodes":[],"categories_segments":[],"categories_sizes":[],"default_left":[0,0,0,0,0,0,0,0,0,0,0,0,0,0,0,0,0,0,0,0,0,0,0,0,0,0,0,0,0,0,0,0,0,0,0,0,0,0,0,0,0,0,0,0,0,0,0,0,0,0,0,0,0,0,0,0,0,0,0,0,0,0,0,0,0,0,0,0,0,0,0],"id":14,"left_children":[1,3,5,7,9,-1,11,13,15,17,19,21,-1,23,25,27,29,31,33,35,37,-1,-1,39,41,43,45,47,49,51,53,55,57,59,61,63,65,67,69,-1,-1,-1,-1,-1,-1,-1,-1,-1,-1,-1,-1,-1,-1,-1,-1,-1,-1,-1,-1,-1,-1,-1,-1,-1,-1,-1,-1,-1,-1,-1,-1],"loss_changes":[1.4038671E3,7.634187E2,1.1283569E0,9.510657E1,1.8302269E2,0E0,1.9647679E0,1.344947E2,1.2765747E1,2.6365051E1,4.8121994E1,5.7504892E-2,0E0,1.5448517E1,2.943651E1,2.1663818E0,1.9698273E1,9.8126984E-1,3.9607063E1,6.2916727E0,1.3881973E1,0E0,0E0,1.1568091E1,1.0868225E1,4.801605E0,2.1611713E1,1.0596893E1,4.465332E-1,2.3317272E1,7.437599E0,1.3880693E0,1.404953E-1,4.791111E0,4.2968956E1,5.444361E0,1.585789E0,2.2228207E1,5.4608154E-1,0E0,0E0,0E0,0E0,0E0,0E0,0E0,0E0,0E0,0E0,0E0,0E0,0E0,0E0,0E0,0E0,0E0,0E0,0E0,0E0,0E0,0E0,0E0,0E0,0E0,0E0,0E0,0E0,0E0,0E0,0E0,0E0],"parents":[2147483647,0,0,1,1,2,2,3,3,4,4,6,6,7,7,8,8,9,9,10,10,11,11,13,13,14,14,15,15,16,16,17,17,18,18,19,19,20,20,23,23,24,24,25,25,26,26,27,27,28,28,29,29,30,30,31,31,32,32,33,33,34,34,35,35,36,36,37,37,38,38],"right_children":[2,4,6,8,10,-1,12,14,16,18,20,22,-1,24,26,28,30,32,34,36,38,-1,-1,40,42,44,46,48,50,52,54,56,58,60,62,64,66,68,70,-1,-1,-1,-1,-1,-1,-1,-1,-1,-1,-1,-1,-1,-1,-1,-1,-1,-1,-1,-1,-1,-1,-1,-1,-1,-1,-1,-1,-1,-1,-1,-1],"split_conditions":[1E1,8.618E1,7.688E1,3.719E1,5.567E1,-6.2270213E-2,2.66E-2,7.443E1,8.268E1,4.29E1,4.5E-3,2.548E1,-5.2582033E-2,1.665E1,1.44E-2,4.4E-3,7.2E-3,8.654E1,1.27E-2,7.129E1,1.42E-2,5.8124285E-2,1.2424688E-2,6.215E1,3E-3,9.2E-3,2.468E1,7.583E1,2.39E1,5.412E1,4.124E1,8.91E-1,8.982E1,8.879E1,9.23E1,9.022E1,1.0143E2,9.866E1,7.5E-1,8.977024E-2,-4.0753607E-2,5.85858E-2,1.1660346E-1,-6.151293E-2,-1.7234985E-2,-4.90179E-2,9.210332E-2,1.2168831E-1,6.903426E-2,6.918166E-2,1.2432565E-1,-3.8528554E-2,1.1726576E-1,3.5550382E-2,1.2352242E-1,5.2890994E-2,-3.9825942E-2,-5.2154284E-2,-6.24124E-2,-3.7138674E-3,-5.5771936E-2,1.14487045E-1,-2.0602664E-2,5.295079E-2,-6.0007848E-2,1.0601143E-1,2.887287E-3,1.0923137E-1,7.878324E-3,7.828916E-2,1.3055408E-1],"split_indices":[2,3,3,0,0,0,1,3,3,0,1,2,0,0,1,1,1,3,1,0,1,0,0,3,1,1,0,3,3,0,0,4,3,3,3,3,3,3,2,0,0,0,0,0,0,0,0,0,0,0,0,0,0,0,0,0,0,0,0,0,0,0,0,0,0,0,0,0,0,0,0],"split_type":[0,0,0,0,0,0,0,0,0,0,0,0,0,0,0,0,0,0,0,0,0,0,0,0,0,0,0,0,0,0,0,0,0,0,0,0,0,0,0,0,0,0,0,0,0,0,0,0,0,0,0,0,0,0,0,0,0,0,0,0,0,0,0,0,0,0,0,0,0,0,0],"sum_hessian":[3.8055737E3,2.5405627E3,1.265011E3,1.7466221E3,7.939406E2,1.2582852E3,6.7257724E0,4.661718E2,1.2804502E3,5.957136E2,1.9822704E2,2.2423215E0,4.483451E0,3.1443356E2,1.5173824E2,1.1546636E3,1.2578663E2,3.4493912E2,2.5077448E2,3.962987E1,1.5859717E2,1.1330063E0,1.1093152E0,2.5315247E1,2.8911832E2,1.0197162E2,4.976662E1,2.4257715E2,9.120865E2,3.799718E1,8.7789444E1,6.918267E0,3.3802087E2,1.5353017E2,9.724429E1,3.4333942E1,5.2959294E0,8.7363464E1,7.1233696E1,1.2767398E1,1.254785E1,4.0778515E1,2.483398E2,5.865225E1,4.3319366E1,1.479349E1,3.497313E1,1.8864671E2,5.3930428E1,5.571618E0,9.0651483E2,2.2831745E1,1.5165437E1,1.2130722E1,7.565872E1,1.1911014E0,5.7271657E0,5.746145E1,2.8055942E2,2.0537415E1,1.3299275E2,3.7669964E1,5.9574333E1,4.1538224E0,3.0180119E1,2.703256E0,2.5926735E0,4.88096E1,3.8553867E1,7.7861986E0,6.34475E1],"tree_param":{"num_deleted":"0","num_feature":"5","num_nodes":"71","size_leaf_vector":"1"}},{"base_weights":[-1.81158E-2,-5.237032E-1,8.446332E-1,2.0109805E-1,-5.92785E-1,1.0727781E0,2.2921903E-1,-3.8690853E-1,7.091477E-1,-6.143795E-1,-2.5825307E-1,6.9536924E-1,1.1884769E0,-3.601407E-1,6.8424684E-1,3.037532E-1,-5.310016E-1,1.0832362E0,1.0636512E-1,-4.3564242E-1,-6.2239236E-1,2.4149966E-1,-5.833799E-1,1.0175039E0,1.0511581E-1,1.2413323E-1,1.0644397E0,3.8106215E-1,-5.634346E-1,9.728673E-1,-2.0758493E-1,8.108529E-1,-2.3981461E-1,4.961924E-2,-5.544422E-1,1.1674073E0,2.897349E-1,1.1941085E-1,-1.8735176E-1,-5.872351E-1,-2.0462466E-2,-5.390624E-1,-6.2505044E-2,1.0683862E0,-2.7624416E-1,-2.4646086E-1,-6.185648E-2,1.1899369E0,3.766671E-1,1.0849187E0,-4.3752435E-1,1.2201997E-1,6.9461083E-1,-4.517281E-1,8.381137E-1,-3.020993E-1,-6.051237E-1,1.1354417E0,1.3736801E-1,4.94407E-1,-4.9241036E-1,1.04488E-2,1.0560538E-1,-5.4263562E-2,5.055475E-2,-3.8609978E-2,-6.1476953E-2,1.2023213E-1,6.6294566E-2,9.479922E-2,-3.375197E-2,2.4542406E-2,-4.8665613E-2,-9.826157E-3,-6.169134E-2,8.649217E-2,-5.3680725E-2,-5.9726775E-2,-9.564155E-3,1.1343519E-1,4.843009E-3,2.5394207E-2,-6.236892E-2,6.5703146E-2,-5.468268E-2,1.27948E-1,9.7856E-2,9.3234286E-2,-5.3241707E-2,1.286138E-1,5.881376E-2,3.6575627E-2,-5.1699903E-2,-4.1347317E-2,1.0864568E-1,8.063235E-3,-5.8972728E-2,1.0311599E-1,-4.8157685E-2,4.557382E-2,-5.857108E-2,-3.8798165E-2,-6.288715E-2,1.204881E-1,8.077839E-2,9.741123E-2,-3.8519282E-2,9.902662E-2,-2.9111732E-2,1.6964754E-2,-5.908922E-2],"categories":[],"categories_nodes":[],"categories_segments":[],"categories_sizes":[],"default_left":[0,0,0,0,0,0,0,0,0,0,0,0,0,0,0,0,0,0,0,0,0,0,0,0,0,0,0,0,0,0,0,0,0,0,0,0,0,0,0,0,0,0,0,0,0,0,0,0,0,0,0,0,0,0,0,0,0,0,0,0,0,0,0,0,0,0,0,0,0,0,0,0,0,0,0,0,0,0,0,0,0,0,0,0,0,0,0,0,0,0,0,0,0,0,0,0,0,0,0,0,0,0,0,0,0,0,0,0,0,0,0],"id":15,"left_children":[1,3,5,7,9,11,13,15,17,19,21,23,25,27,29,31,33,35,37,39,41,43,45,47,49,-1,51,53,55,57,59,61,63,-1,65,67,69,-1,71,73,75,77,-1,79,81,83,-1,85,87,89,91,-1,93,95,97,99,101,103,105,107,109,-1,-1,-1,-1,-1,-1,-1,-1,-1,-1,-1,-1,-1,-1,-1,-1,-1,-1,-1,-1,-1,-1,-1,-1,-1,-1,-1,-1,-1,-1,-1,-1,-1,-1,-1,-1,-1,-1,-1,-1,-1,-1,-1,-1,-1,-1,-1,-1,-1,-1],"loss_changes":[1.5733036E3,1.13987305E2,1.8687244E2,5.961473E1,1.4842041E1,4.161682E1,9.72485E1,9.388808E0,2.3993961E1,2.5214233E0,2.0880081E1,4.3715553E1,3.546753E0,2.405996E1,5.2830902E1,4.7815123E0,2.1310253E0,4.0608597E0,1.3658963E1,5.4633293E0,7.5927734E-2,2.213599E1,7.677212E-1,1.6014908E1,4.433192E1,0E0,1.233725E1,1.3570446E1,1.1745872E0,2.0849915E1,1.0403728E1,1.4203558E0,2.2613988E0,0E0,5.327587E-1,2.459259E-1,3.4772596E0,0E0,4.5203853E0,8.636589E-1,1.1575429E1,1.6175308E0,0E0,1.2805481E0,6.083928E0,2.8022535E0,0E0,9.6121216E-1,1.7192684E1,2.2112808E0,3.6236877E0,0E0,3.090929E1,9.9751425E-1,6.286621E0,4.3802347E0,3.049507E-1,1.9690399E0,1.1887082E1,6.195517E0,2.4898129E0,0E0,0E0,0E0,0E0,0E0,0E0,0E0,0E0,0E0,0E0,0E0,0E0,0E0,0E0,0E0,0E0,0E0,0E0,0E0,0E0,0E0,0E0,0E0,0E0,0E0,0E0,0E0,0E0,0E0,0E0,0E0,0E0,0E0,0E0,0E0,0E0,0E0,0E0,0E0,0E0,0E0,0E0,0E0,0E0,0E0,0E0,0E0,0E0,0E0,0E0],"parents":[2147483647,0,0,1,1,2,2,3,3,4,4,5,5,6,6,7,7,8,8,9,9,10,10,11,11,12,12,13,13,14,14,15,15,16,16,17,17,18,18,19,19,20,20,21,21,22,22,23,23,24,24,26,26,27,27,28,28,29,29,30,30,31,31,32,32,34,34,35,35,36,36,38,38,39,39,40,40,41,41,43,43,44,44,45,45,47,47,48,48,49,49,50,50,52,52,53,53,54,54,55,55,56,56,57,57,58,58,59,59,60,60],"right_children":[2,4,6,8,10,12,14,16,18,20,22,24,26,28,30,32,34,36,38,40,42,44,46,48,50,-1,52,54,56,58,60,62,64,-1,66,68,70,-1,72,74,76,78,-1,80,82,84,-1,86,88,90,92,-1,94,96,98,100,102,104,106,108,110,-1,-1,-1,-1,-1,-1,-1,-1,-1,-1,-1,-1,-1,-1,-1,-1,-1,-1,-1,-1,-1,-1,-1,-1,-1,-1,-1,-1,-1,-1,-1,-1,-1,-1,-1,-1,-1,-1,-1,-1,-1,-1,-1,-1,-1,-1,-1,-1,-1,-1],"split_conditions":[7.937E1,3.159E1,5.16E1,6.631E1,7.583E1,8.618E1,9.23E1,1.665E1,1.14E-2,3.659E1,4.456E1,4.124E1,1.39E-2,4.3E-3,1.42E-2,8.6E-3,6E-4,5.06E0,1.806E1,6.961E1,2.1E-3,5.1E-3,4.647E1,1.6E-2,7.2E-3,1.2413323E-1,4.29E1,8.489E1,1.08E0,6.666E1,5.567E1,5.669E1,6.215E1,4.961924E-2,5.2E-3,4.26E0,2.408E1,1.1941085E-1,2.637E1,1E-3,7.5E-3,7.314E1,-6.2505044E-2,5.68E0,3.719E1,2.3E-3,-6.185648E-2,3.533E1,3.385E1,3.49E0,5.8E-1,1.2201997E-1,9.23E1,9E-4,6.541E1,5.567E1,5.9E-3,4.38E0,4.3E-3,1.7E-2,7.5E-1,1.04488E-2,1.0560538E-1,-5.4263562E-2,5.055475E-2,-3.8609978E-2,-6.1476953E-2,1.2023213E-1,6.6294566E-2,9.479922E-2,-3.375197E-2,2.4542406E-2,-4.8665613E-2,-9.826157E-3,-6.169134E-2,8.649217E-2,-5.3680725E-2,-5.9726775E-2,-9.564155E-3,1.1343519E-1,4.843009E-3,2.5394207E-2,-6.236892E-2,6.5703146E-2,-5.468268E-2,1.27948E-1,9.7856E-2,9.3234286E-2,-5.3241707E-2,1.286138E-1,5.881376E-2,3.6575627E-2,-5.1699903E-2,-4.1347317E-2,1.0864568E-1,8.063235E-3,-5.8972728E-2,1.0311599E-1,-4.8157685E-2,4.557382E-2,-5.857108E-2,-3.8798165E-2,-6.288715E-2,1.204881E-1,8.077839E-2,9.741123E-2,-3.8519282E-2,9.902662E-2,-2.9111732E-2,1.6964754E-2,-5.908922E-2],"split_indices":[3,0,0,3,3,3,3,0,1,0,0,0,1,1,1,1,1,2,0,3,1,1,0,1,1,0,0,3,2,0,0,3,3,0,1,2,0,0,0,1,1,3,0,2,0,1,0,0,0,2,2,0,3,1,0,0,1,2,1,1,2,0,0,0,0,0,0,0,0,0,0,0,0,0,0,0,0,0,0,0,0,0,0,0,0,0,0,0,0,0,0,0,0,0,0,0,0,0,0,0,0,0,0,0,0,0,0,0,0,0,0],"split_type":[0,0,0,0,0,0,0,0,0,0,0,0,0,0,0,0,0,0,0,0,0,0,0,0,0,0,0,0,0,0,0,0,0,0,0,0,0,0,0,0,0,0,0,0,0,0,0,0,0,0,0,0,0,0,0,0,0,0,0,0,0,0,0,0,0,0,0,0,0,0,0,0,0,0,0,0,0,0,0,0,0,0,0,0,0,0,0,0,0,0,0,0,0,0,0,0,0,0,0,0,0,0,0,0,0,0,0,0,0,0,0],"sum_hessian":[3.604867E3,2.2731504E3,1.3317166E3,1.9763777E2,2.0755125E3,9.710048E2,3.6071176E2,9.17206E1,1.0591717E2,1.9488734E3,1.26639114E2,2.2947365E2,7.415312E2,1.5724887E2,2.0346288E2,1.5641295E1,7.607931E1,6.486482E1,4.1052345E1,8.59956E1,1.8628778E3,5.0016277E1,7.662283E1,1.4798567E2,8.1487976E1,5.13646E2,2.278852E2,3.3658096E1,1.23590775E2,1.5364757E2,4.9815308E1,7.8377028E0,7.8035927E0,1.2474267E0,7.483188E1,5.8218098E1,6.6467247E0,8.0765085E0,3.2975838E1,6.2691093E1,2.3304506E1,6.3885197E1,1.7989926E3,1.884903E1,3.116725E1,8.002087E0,6.862075E1,1.1593392E2,3.2051746E1,2.8688341E1,5.2799633E1,1.5873273E2,6.915246E1,1.1930772E1,2.1727324E1,1.813775E1,1.05453026E2,1.2831969E2,2.5327885E1,1.4165829E1,3.564948E1,2.3871183E0,5.4505844E0,5.742535E0,2.0610573E0,2.1694307E1,5.313757E1,5.3155785E1,5.0623116E0,2.9937108E0,3.6530137E0,1.3555472E1,1.9420366E1,3.8339863E0,5.885711E1,8.335836E0,1.496867E1,5.6165684E1,7.7195125E0,1.7598677E1,1.2503517E0,1.2445327E1,1.8721922E1,1.7002739E0,6.301812E0,7.788666E1,3.8047264E1,1.987662E1,1.2175125E1,1.92872E1,9.401141E0,4.4292583E0,4.8370377E1,1.8051167E1,5.1101295E1,2.5416257E0,9.389147E0,1.914535E1,2.5819726E0,4.7740684E0,1.3363683E1,1.2105119E1,9.33479E1,1.03671684E2,2.4648003E1,9.404665E0,1.592322E1,8.524271E0,5.641557E0,4.5226574E0,3.1126822E1],"tree_param":{"num_deleted":"0","num_feature":"5","num_nodes":"111","size_leaf_vector":"1"}},{"base_weights":[6.355808E-2,-5.62647E-1,9.6500653E-1,-6.077985E-1,2.902824E-3,4.714432E-1,1.0716074E0,-6.1151695E-1,-3.5292458E-2,4.5047325E-1,-3.2895124E-1,-5.4643333E-2,7.770961E-1,7.6455235E-1,1.1039531E0,-9.707812E-2,-6.1294746E-1,-5.3534787E-2,4.001324E-1,-1.4677267E-1,8.543942E-1,-4.5692584E-1,5.2238303E-1,5.4447913E-1,-3.4918356E-1,9.5756316E-1,2.3352478E-1,9.713757E-1,2.4994938E-1,1.1066054E0,3.2255754E-2,-4.7890015E-2,4.1421303E-1,-3.8651434E-1,-6.1390795E-2,-2.6673025E-1,9.516345E-2,-5.415217E-1,4.4162503E-1,4.1749266E-1,1.1418452E-1,-5.5934304E-1,6.1687227E-2,8.662266E-1,-4.7817968E-2,-3.8753906E-1,9.2132175E-1,-4.6592143E-1,3.7203977E-1,5.738942E-1,1.0640618E0,-2.6413032E-1,6.3576E-1,2.0359255E-1,1.0564367E0,-3.719594E-1,7.083438E-1,1.1123993E-1,8.585939E-1,-3.9044917E-2,4.7564074E-2,1.0866495E-2,5.2267473E-2,-5.554548E-2,5.3613305E-2,1.2995391E-2,-4.3751325E-2,-5.9570055E-3,-5.93274E-2,-7.5543807E-3,8.773554E-2,-5.7134796E-3,1.2950246E-1,-6.427441E-3,-5.7288606E-2,-3.6372397E-2,6.616101E-2,9.815688E-3,1.1074882E-1,-5.6102633E-2,2.1427294E-2,6.277958E-2,1.1488076E-1,-2.1192377E-2,-6.0850482E-2,-4.982808E-2,7.240357E-2,9.688359E-2,-3.8567444E-3,7.27853E-2,1.13702275E-1,-3.8659453E-2,5.8144E-2,2.9903676E-3,9.940773E-2,8.397007E-2,-3.7138168E-2,6.426491E-2,1.0958946E-1,-5.4496344E-2,8.352441E-2,-5.2631002E-2,9.848826E-2,1.877279E-3,9.853822E-2],"categories":[],"categories_nodes":[],"categories_segments":[],"categories_sizes":[],"default_left":[0,0,0,0,0,0,0,0,0,0,0,0,0,0,0,0,0,0,0,0,0,0,0,0,0,0,0,0,0,0,0,0,0,0,0,0,0,0,0,0,0,0,0,0,0,0,0,0,0,0,0,0,0,0,0,0,0,0,0,0,0,0,0,0,0,0,0,0,0,0,0,0,0,0,0,0,0,0,0,0,0,0,0,0,0,0,0,0,0,0,0,0,0,0,0,0,0,0,0,0,0,0,0,0,0],"id":16,"left_children":[1,3,5,7,9,11,13,15,17,19,21,23,25,27,29,31,33,-1,35,37,39,41,43,45,47,49,51,53,55,57,59,-1,61,63,-1,65,-1,67,69,71,-1,73,75,77,-1,79,81,83,85,87,89,91,93,95,97,99,101,-1,103,-1,-1,-1,-1,-1,-1,-1,-1,-1,-1,-1,-1,-1,-1,-1,-1,-1,-1,-1,-1,-1,-1,-1,-1,-1,-1,-1,-1,-1,-1,-1,-1,-1,-1,-1,-1,-1,-1,-1,-1,-1,-1,-1,-1,-1,-1],"loss_changes":[2.0223245E3,5.39859E1,7.675952E1,4.14624E0,2.3511332E1,4.2272007E1,1.11427E1,1.3718872E0,3.1961386E0,1.6383652E1,1.0142541E1,1.7385687E1,1.6077873E1,1.2345154E1,3.0614014E0,1.4832904E0,1.8444824E-1,0E0,3.1566565E0,6.7528453E0,4.590851E0,4.2602043E0,4.66159E0,1.1774347E1,5.7248526E0,4.4737854E0,8.72386E0,5.2720337E0,1.0313541E1,6.068115E-1,8.8292897E-1,0E0,5.422598E-2,1.9955173E0,0E0,3.5181743E-1,0E0,3.944831E-1,2.727797E0,7.399864E0,0E0,4.092884E-1,3.818979E0,1.6598248E0,0E0,1.1708847E0,8.4420204E-1,1.942419E0,3.3451757E0,7.1021004E0,1.5329056E0,2.2763138E0,5.165386E0,3.8298051E0,5.268097E-1,3.7162788E0,7.5651445E0,0E0,3.0901546E0,0E0,0E0,0E0,0E0,0E0,0E0,0E0,0E0,0E0,0E0,0E0,0E0,0E0,0E0,0E0,0E0,0E0,0E0,0E0,0E0,0E0,0E0,0E0,0E0,0E0,0E0,0E0,0E0,0E0,0E0,0E0,0E0,0E0,0E0,0E0,0E0,0E0,0E0,0E0,0E0,0E0,0E0,0E0,0E0,0E0,0E0],"parents":[2147483647,0,0,1,1,2,2,3,3,4,4,5,5,6,6,7,7,8,8,9,9,10,10,11,11,12,12,13,13,14,14,15,15,16,16,18,18,19,19,20,20,21,21,22,22,23,23,24,24,25,25,26,26,27,27,28,28,29,29,30,30,32,32,33,33,35,35,37,37,38,38,39,39,41,41,42,42,43,43,45,45,46,46,47,47,48,48,49,49,50,50,51,51,52,52,53,53,54,54,55,55,56,56,58,58],"right_children":[2,4,6,8,10,12,14,16,18,20,22,24,26,28,30,32,34,-1,36,38,40,42,44,46,48,50,52,54,56,58,60,-1,62,64,-1,66,-1,68,70,72,-1,74,76,78,-1,80,82,84,86,88,90,92,94,96,98,100,102,-1,104,-1,-1,-1,-1,-1,-1,-1,-1,-1,-1,-1,-1,-1,-1,-1,-1,-1,-1,-1,-1,-1,-1,-1,-1,-1,-1,-1,-1,-1,-1,-1,-1,-1,-1,-1,-1,-1,-1,-1,-1,-1,-1,-1,-1,-1,-1],"split_conditions":[1.2818E2,4.95E-2,4.46E-2,3.893E1,3.464E1,1.6153E2,1.5206E2,1.174E1,1.0751E2,2.473E1,3.803E1,3.208E1,4.839E1,4.768E1,7.258E1,2.587E1,2.013E1,-5.3534787E-2,3.16E-2,1.1E2,1.0185E2,1.2028E2,5.09E1,2.34E1,3.848E1,1.721E1,1.8735E2,1.289E1,6.11E-2,5.897E1,1.7097E2,-4.7890015E-2,3.132E1,4.58E-2,-6.1390795E-2,2.801E1,9.516345E-2,1.605E1,1.373E1,7.02E-2,1.1418452E-1,3.526E1,2.34E1,8.907E1,-4.7817968E-2,1.5691E2,3.252E1,4.208E1,3.06E-2,3.572E1,2.57E-2,3.697E1,2.96E-2,2.752E1,1.617E1,3.848E1,2.162E1,1.1123993E-1,1.505E1,-3.9044917E-2,4.7564074E-2,1.0866495E-2,5.2267473E-2,-5.554548E-2,5.3613305E-2,1.2995391E-2,-4.3751325E-2,-5.9570055E-3,-5.93274E-2,-7.5543807E-3,8.773554E-2,-5.7134796E-3,1.2950246E-1,-6.427441E-3,-5.7288606E-2,-3.6372397E-2,6.616101E-2,9.815688E-3,1.1074882E-1,-5.6102633E-2,2.1427294E-2,6.277958E-2,1.1488076E-1,-2.1192377E-2,-6.0850482E-2,-4.982808E-2,7.240357E-2,9.688359E-2,-3.8567444E-3,7.27853E-2,1.13702275E-1,-3.8659453E-2,5.8144E-2,2.9903676E-3,9.940773E-2,8.397007E-2,-3.7138168E-2,6.426491E-2,1.0958946E-1,-5.4496344E-2,8.352441E-2,-5.2631002E-2,9.848826E-2,1.877279E-3,9.853822E-2],"split_indices":[0,1,1,2,3,0,0,3,0,2,2,3,3,3,3,2,3,0,1,0,0,0,3,2,2,2,0,2,1,3,0,0,2,1,0,3,0,3,2,1,0,3,2,0,0,0,2,3,1,3,1,2,1,3,2,2,2,0,2,0,0,0,0,0,0,0,0,0,0,0,0,0,0,0,0,0,0,0,0,0,0,0,0,0,0,0,0,0,0,0,0,0,0,0,0,0,0,0,0,0,0,0,0,0,0],"split_type":[0,0,0,0,0,0,0,0,0,0,0,0,0,0,0,0,0,0,0,0,0,0,0,0,0,0,0,0,0,0,0,0,0,0,0,0,0,0,0,0,0,0,0,0,0,0,0,0,0,0,0,0,0,0,0,0,0,0,0,0,0,0,0,0,0,0,0,0,0,0,0,0,0,0,0,0,0,0,0,0,0,0,0,0,0,0,0,0,0,0,0,0,0,0,0,0,0,0,0,0,0,0,0,0,0],"sum_hessian":[3.5805974E3,2.1130857E3,1.4675117E3,1.9567878E3,1.5629787E2,2.6162183E2,1.2058899E3,1.9440928E3,1.2695122E1,6.6394455E1,8.990341E1,9.6444244E1,1.651776E2,1.1727229E2,1.0886176E3,5.581852E0,1.9385109E3,5.802205E0,6.892917E0,2.7043705E1,3.935075E1,7.855771E1,1.1345699E1,3.1507158E1,6.493709E1,1.2343519E2,4.174241E1,8.301873E1,3.425356E1,1.0858976E3,2.7200494E0,3.231777E0,2.3500752E0,9.891722E0,1.9286191E3,3.3538644E0,3.5390527E0,1.6232906E1,1.0810798E1,1.65891E1,2.276165E1,6.553678E1,1.3020928E1,8.54386E0,2.8018386E0,9.063258E0,2.24439E1,5.6195255E1,8.74183E0,2.820681E1,9.522838E1,1.8811594E1,2.2930813E1,8.618581E0,7.4400154E1,1.4614486E1,1.9639074E1,1.0577028E3,2.819484E1,1.4536192E0,1.2664303E0,1.1401175E0,1.2099576E0,8.697206E0,1.1945164E0,1.0813174E0,2.272547E0,1.782659E0,1.4450248E1,5.321423E0,5.489375E0,1.1372818E1,5.2162833E0,1.8980756E0,6.3638706E1,7.848907E0,5.1720214E0,2.3785288E0,6.165332E0,7.0877957E0,1.9754627E0,1.1441108E1,1.1002792E1,2.1097878E1,3.5097378E1,2.3977458E0,6.3440847E0,1.6794878E1,1.1411934E1,1.8937792E1,7.629059E1,1.6905907E1,1.9056878E0,8.924459E0,1.4006353E1,3.873176E0,4.7454047E0,7.9819613E0,6.641819E1,1.3262424E1,1.3520609E0,3.4285467E0,1.6210527E1,3.848853E0,2.4345985E1],"tree_param":{"num_deleted":"0","num_feature":"5","num_nodes":"105","size_leaf_vector":"1"}},{"base_weights":[-3.1089962E-1,-6.1120903E-1,7.523973E-2,-1.0999151E-1,-6.1272526E-1,7.350863E-1,-4.7245625E-1,-5.0733924E-2,8.616555E-2,-6.137518E-2,-2.5245008E-1,9.0988225E-1,3.480113E-1,1.6765755E-1,-5.7297E-1,5.308146E-2,-5.112649E-2,1.0214176E0,6.537295E-1,7.4904597E-1,-2.517632E-1,-5.2058774E-1,4.3710896E-1,-5.9792155E-1,1.0762654E-1,1.0619947E0,5.6629056E-1,9.534661E-1,2.689401E-1,-1.721589E-1,9.2744213E-1,-4.418358E-1,3.374524E-1,-1.19088754E-1,-6.025794E-2,6.8093747E-1,-3.570026E-1,-4.5379025E-1,-6.121358E-2,5.180637E-1,-4.792004E-1,1.07228376E-1,1.2374896E-2,1.0026226E-1,1.2803927E-2,1.00749455E-1,-9.9853715E-3,8.40823E-2,-2.1663463E-2,3.801564E-2,-5.9207994E-2,1.02212645E-1,2.2825185E-2,2.4879193E-2,-5.446848E-2,8.1583105E-2,-3.667089E-2,5.5554777E-2,-5.101518E-2,1.0430419E-1,2.2084989E-2,-5.859316E-2,3.0085778E-2,-6.084774E-2,-1.8265072E-2,8.885648E-2,-3.451128E-2,-1.594014E-4,-5.5570103E-2],"categories":[],"categories_nodes":[],"categories_segments":[],"categories_sizes":[],"default_left":[0,0,0,0,0,0,0,0,0,0,0,0,0,0,0,0,0,0,0,0,0,0,0,0,0,0,0,0,0,0,0,0,0,0,0,0,0,0,0,0,0,0,0,0,0,0,0,0,0,0,0,0,0,0,0,0,0,0,0,0,0,0,0,0,0,0,0,0,0],"id":17,"left_children":[1,3,5,7,9,11,13,-1,-1,-1,15,17,19,21,23,-1,-1,25,27,29,31,33,35,37,39,41,43,45,47,49,51,53,55,57,-1,59,61,63,-1,65,67,-1,-1,-1,-1,-1,-1,-1,-1,-1,-1,-1,-1,-1,-1,-1,-1,-1,-1,-1,-1,-1,-1,-1,-1,-1,-1,-1,-1],"loss_changes":[3.778743E2,1.3256226E0,5.158087E2,3.0419934E0,5.2075195E-1,4.347989E1,5.028128E1,0E0,0E0,0E0,1.6681216E0,1.2054993E1,4.9015175E1,2.0002028E1,1.1516418E1,0E0,0E0,5.0950623E0,1.5643848E1,2.0193405E1,9.342762E0,9.308796E-1,1.5185911E1,1.0552521E0,6.1964984E0,2.590271E0,5.109562E0,4.488434E0,1.7332056E1,5.0076656E0,6.5381165E0,4.575017E0,7.234822E0,1.9748876E0,0E0,9.663656E0,3.005403E0,2.5007753E0,0E0,5.1078424E0,3.8946176E-1,0E0,0E0,0E0,0E0,0E0,0E0,0E0,0E0,0E0,0E0,0E0,0E0,0E0,0E0,0E0,0E0,0E0,0E0,0E0,0E0,0E0,0E0,0E0,0E0,0E0,0E0,0E0,0E0],"parents":[2147483647,0,0,1,1,2,2,3,3,4,4,5,5,6,6,10,10,11,11,12,12,13,13,14,14,17,17,18,18,19,19,20,20,21,21,22,22,23,23,24,24,25,25,26,26,27,27,28,28,29,29,30,30,31,31,32,32,33,33,35,35,36,36,37,37,39,39,40,40],"right_children":[2,4,6,8,10,12,14,-1,-1,-1,16,18,20,22,24,-1,-1,26,28,30,32,34,36,38,40,42,44,46,48,50,52,54,56,58,-1,60,62,64,-1,66,68,-1,-1,-1,-1,-1,-1,-1,-1,-1,-1,-1,-1,-1,-1,-1,-1,-1,-1,-1,-1,-1,-1,-1,-1,-1,-1,-1,-1],"split_conditions":[1E1,2.39E1,1.6153E2,5.686E1,8.641E1,1.3444E2,3.8E-2,-5.0733924E-2,8.616555E-2,-6.137518E-2,5.394E1,6.11E-2,5.02E-2,3.414E1,6.004E1,5.308146E-2,-5.112649E-2,3.893E1,1.0405E2,2.911E1,5.269E1,1.433E1,2.973E1,5.19E-2,6.22E-2,7.557E1,1.0751E2,3.936E1,2.029E1,2.299E1,3.697E1,1.373E1,2.883E1,1.7295E2,-6.025794E-2,1.8735E2,5.312E1,4.4E1,-6.121358E-2,3.338E1,6.074E1,1.07228376E-1,1.2374896E-2,1.0026226E-1,1.2803927E-2,1.00749455E-1,-9.9853715E-3,8.40823E-2,-2.1663463E-2,3.801564E-2,-5.9207994E-2,1.02212645E-1,2.2825185E-2,2.4879193E-2,-5.446848E-2,8.1583105E-2,-3.667089E-2,5.5554777E-2,-5.101518E-2,1.0430419E-1,2.2084989E-2,-5.859316E-2,3.0085778E-2,-6.084774E-2,-1.8265072E-2,8.885648E-2,-3.451128E-2,-1.594014E-4,-5.5570103E-2],"split_indices":[2,3,0,0,0,0,1,0,0,0,3,1,1,3,3,0,0,2,0,3,3,2,2,1,1,3,0,2,2,2,2,2,2,0,0,0,3,3,0,2,3,0,0,0,0,0,0,0,0,0,0,0,0,0,0,0,0,0,0,0,0,0,0,0,0,0,0,0,0],"split_type":[0,0,0,0,0,0,0,0,0,0,0,0,0,0,0,0,0,0,0,0,0,0,0,0,0,0,0,0,0,0,0,0,0,0,0,0,0,0,0,0,0,0,0,0,0,0,0,0,0,0,0,0,0,0,0,0,0,0,0,0,0,0,0,0,0,0,0,0,0],"sum_hessian":[3.257229E3,1.83192E3,1.425309E3,5.7468667E0,1.8261731E3,6.4631146E2,7.789975E2,4.4180107E0,1.328856E0,1.8202832E3,5.889952E0,4.4431592E2,2.0199553E2,1.0563045E2,6.7336707E2,1.2018347E0,4.6881175E0,3.0745486E2,1.3686105E2,1.2090466E2,8.109086E1,2.9457275E1,7.617317E1,6.496708E2,2.3696297E1,2.810631E2,2.639176E1,7.61023E1,6.0758747E1,1.9620907E1,1.0128376E2,6.150148E1,1.9589376E1,5.4113383E0,2.4045938E1,5.8387928E1,1.7785246E1,6.127472E1,5.8839606E2,1.4012726E1,9.683572E0,2.7787302E2,3.1900966E0,1.2579535E1,1.3812226E1,7.243059E1,3.67171E0,2.7563908E1,3.319484E1,8.515415E0,1.1105492E1,8.879701E1,1.2486748E1,7.787781E0,5.37137E1,1.1570358E1,8.019017E0,1.8313694E0,3.5799687E0,3.1964075E1,2.6423851E1,1.3275008E1,4.510237E0,3.8223675E1,2.3051043E1,9.783811E0,4.228915E0,1.4778619E0,8.205709E0],"tree_param":{"num_deleted":"0","num_feature":"5","num_nodes":"69","size_leaf_vector":"1"}},{"base_weights":[2.2486892E-1,6.135253E-1,-6.0895497E-1,9.364392E-1,-1.3596347E-1,-6.1125733E-2,-1.6971642E-1,4.5790666E-1,1.0254349E0,-4.6518913E-1,4.9863273E-1,4.466774E-1,-5.1638003E-2,8.676026E-1,-2.598978E-1,1.0891789E0,7.799434E-1,-5.8746994E-1,-2.4495679E-1,-9.123805E-3,8.86102E-1,5.6012344E-2,1.1991769E-2,1.0206492E0,4.2965254E-1,-5.7696766E-1,6.341652E-2,9.95469E-1,1.1135807E0,2.4889606E-1,1.0075299E0,-1.7365251E-1,-5.9559166E-1,-5.2656245E-1,2.1439986E-1,-2.2387671E-1,7.782724E-1,1.0885478E0,5.6256974E-1,3.9754212E-2,1.0728929E-1,-3.969587E-2,8.669731E-2,-6.113733E-2,-3.7311993E-3,-3.8630433E-2,6.353647E-2,1.0593285E-1,5.596943E-2,6.3094586E-2,1.1158508E-1,-3.800535E-2,1.0768396E-1,5.040689E-2,1.0790818E-1,5.1585943E-2,-3.8132932E-2,-5.0497796E-2,-6.1234094E-2,-1.22609995E-2,-5.7861257E-2,8.850126E-2,-4.566301E-2,5.3336244E-2,-4.7788244E-2,6.157207E-3,1.07423775E-1,8.4435456E-2,1.1456877E-1,1.665905E-2,1.1385194E-1],"categories":[],"categories_nodes":[],"categories_segments":[],"categories_sizes":[],"default_left":[0,0,0,0,0,0,0,0,0,0,0,0,0,0,0,0,0,0,0,0,0,0,0,0,0,0,0,0,0,0,0,0,0,0,0,0,0,0,0,0,0,0,0,0,0,0,0,0,0,0,0,0,0,0,0,0,0,0,0,0,0,0,0,0,0,0,0,0,0,0,0],"id":18,"left_children":[1,3,5,7,9,-1,11,13,15,17,19,21,-1,23,25,27,29,31,33,35,37,-1,-1,39,41,43,45,47,49,51,53,55,57,59,61,63,65,67,69,-1,-1,-1,-1,-1,-1,-1,-1,-1,-1,-1,-1,-1,-1,-1,-1,-1,-1,-1,-1,-1,-1,-1,-1,-1,-1,-1,-1,-1,-1,-1,-1],"loss_changes":[1.2177557E3,6.203615E2,1.1045837E0,7.581238E1,1.6163622E2,0E0,1.857734E0,8.335887E1,2.2772339E1,1.3568245E1,5.2020515E1,5.4312766E-2,0E0,1.1639648E1,1.0645572E1,1.6258545E0,3.778148E1,9.9450684E-1,2.3849419E1,1.9690292E1,9.209465E0,0E0,0E0,3.89682E0,1.783759E1,9.4914436E-1,1.3656962E1,6.544632E0,3.2617188E-1,5.0259823E1,7.379486E0,1.2992718E0,1.7641449E-1,2.3269768E0,3.2106205E1,1.7846294E1,5.2274427E0,3.0474854E-1,1.3445631E1,0E0,0E0,0E0,0E0,0E0,0E0,0E0,0E0,0E0,0E0,0E0,0E0,0E0,0E0,0E0,0E0,0E0,0E0,0E0,0E0,0E0,0E0,0E0,0E0,0E0,0E0,0E0,0E0,0E0,0E0,0E0,0E0],"parents":[2147483647,0,0,1,1,2,2,3,3,4,4,6,6,7,7,8,8,9,9,10,10,11,11,13,13,14,14,15,15,16,16,17,17,18,18,19,19,20,20,23,23,24,24,25,25,26,26,27,27,28,28,29,29,30,30,31,31,32,32,33,33,34,34,35,35,36,36,37,37,38,38],"right_children":[2,4,6,8,10,-1,12,14,16,18,20,22,-1,24,26,28,30,32,34,36,38,-1,-1,40,42,44,46,48,50,52,54,56,58,60,62,64,66,68,70,-1,-1,-1,-1,-1,-1,-1,-1,-1,-1,-1,-1,-1,-1,-1,-1,-1,-1,-1,-1,-1,-1,-1,-1,-1,-1,-1,-1,-1,-1,-1,-1],"split_conditions":[1E1,8.618E1,7.688E1,3.159E1,5.212E1,-6.1125733E-2,2.66E-2,7.258E1,7.869E1,4.29E1,9.8E-3,2.548E1,-5.1638003E-2,6.631E1,1.2E-2,4.4E-3,4.359E1,8.654E1,1.31E-2,6.841E1,9.928E1,5.6012344E-2,1.1991769E-2,1.335E1,6.5E-3,5.76E0,3.23E0,7.583E1,2.39E1,1.3E-2,3.4E-3,8.91E-1,8.982E1,8.852E1,9.513E1,9.119E1,3.4E-3,1.56E0,1.6E-2,3.9754212E-2,1.0728929E-1,-3.969587E-2,8.669731E-2,-6.113733E-2,-3.7311993E-3,-3.8630433E-2,6.353647E-2,1.0593285E-1,5.596943E-2,6.3094586E-2,1.1158508E-1,-3.800535E-2,1.0768396E-1,5.040689E-2,1.0790818E-1,5.1585943E-2,-3.8132932E-2,-5.0497796E-2,-6.1234094E-2,-1.22609995E-2,-5.7861257E-2,8.850126E-2,-4.566301E-2,5.3336244E-2,-4.7788244E-2,6.157207E-3,1.07423775E-1,8.4435456E-2,1.1456877E-1,1.665905E-2,1.1385194E-1],"split_indices":[2,3,3,0,0,0,1,3,3,0,1,2,0,3,1,1,0,3,1,0,3,0,0,0,1,2,2,3,3,1,1,4,3,3,3,3,1,2,1,0,0,0,0,0,0,0,0,0,0,0,0,0,0,0,0,0,0,0,0,0,0,0,0,0,0,0,0,0,0,0,0],"split_type":[0,0,0,0,0,0,0,0,0,0,0,0,0,0,0,0,0,0,0,0,0,0,0,0,0,0,0,0,0,0,0,0,0,0,0,0,0,0,0,0,0,0,0,0,0,0,0,0,0,0,0,0,0,0,0,0,0,0,0,0,0,0,0,0,0,0,0,0,0,0,0],"sum_hessian":[3.7555298E3,2.5617354E3,1.1937944E3,1.7901902E3,7.7154517E2,1.1871799E3,6.6145115E0,2.816882E2,1.508502E3,5.0817383E2,2.6337134E2,2.2771192E0,4.3373923E0,1.7919926E2,1.0248892E2,1.1948197E3,3.1368225E2,3.2567822E2,1.824956E2,1.14414314E2,1.4895702E2,1.1601553E0,1.1169637E0,1.3180722E2,4.7392048E1,5.1348057E1,5.1140865E1,2.5548347E2,9.3933624E2,9.4731224E1,2.18951E2,6.699673E0,3.1897855E2,1.1304672E2,6.944888E1,9.045851E1,2.3955803E1,9.01699E1,5.8787125E1,1.0862324E1,