{"learner":{"attributes":{"scikit_learn":"{\"_estimator_type\": \"regressor\"}"},"feature_names":[],"feature_types":[],"gradient_booster":{"model":{"gbtree_model_param":{"num_parallel_tree":"1","num_trees":"100"},"iteration_indptr":[0,1,2,3,4,5,6,7,8,9,10,11,12,13,14,15,16,17,18,19,20,21,22,23,24,25,26,27,28,29,30,31,32,33,34,35,36,37,38,39,40,41,42,43,44,45,46,47,48,49,50,51,52,53,54,55,56,57,58,59,60,61,62,63,64,65,66,67,68,69,70,71,72,73,74,75,76,77,78,79,80,81,82,83,84,85,86,87,88,89,90,91,92,93,94,95,96,97,98,99,100],"tree_info":[0,0,0,0,0,0,0,0,0,0,0,0,0,0,0,0,0,0,0,0,0,0,0,0,0,0,0,0,0,0,0,0,0,0,0,0,0,0,0,0,0,0,0,0,0,0,0,0,0,0,0,0,0,0,0,0,0,0,0,0,0,0,0,0,0,0,0,0,0,0,0,0,0,0,0,0,0,0,0,0,0,0,0,0,0,0,0,0,0,0,0,0,0,0,0,0,0,0,0,0],"trees":[{"base_weights":[-4.1056043E-9,2.1006438E-1,-7.0976816E-2,1.4689587E-1,3.34445E-1,2.7610962E-3,-9.396945E-2,1.1025527E-1,1.8939853E-1,2.979948E-1,4.280147E-1,3.985864E-2,-1.8703286E-2,-8.2161754E-2,-1.01987675E-1,9.123582E-2,1.2797415E-1,1.6966859E-1,2.10647E-1,2.6434595E-2,3.3455107E-2,4.083785E-2,5.2576076E-2,2.5964059E-2,5.4193128E-2,-7.414986E-3,-2.8964985E-2,-5.989068E-2,-8.65157E-2,-9.712559E-2,-1.0679818E-2,9.894757E-3,8.089366E-3,1.3862773E-2,1.1919057E-2,1.5895002E-2,1.789667E-2,1.9931948E-2,2.2658344E-2,3.2248788E-2,1.7792571E-2,4.629675E-3,6.088819E-3,2.156981E-3,-1.2437566E-2,-2.4549795E-2,-3.7387665E-2,-5.1421965E-3,-6.57892E-3,-8.318191E-3,-8.914533E-3,-9.4504375E-3,-9.960239E-3,3.5069808E-3,2.845098E-3,2.1084275E-3,1.4070877E-3,6.682078E-4,-1.7174284E-4,-8.1692514E-4,-1.4741821E-3,-2.0933403E-3,-2.748746E-3,-3.2885892E-3,-4.0152315E-3],"categories":[],"categories_nodes":[],"categories_segments":[],"categories_sizes":[],"default_left":[0,0,0,0,0,0,0,0,0,0,0,0,0,0,0,0,0,0,0,0,0,0,0,0,0,0,0,0,0,0,0,0,0,0,0,0,0,0,0,0,0,0,0,0,0,0,0,0,0,0,0,0,0,0,0,0,0,0,0,0,0,0,0,0,0],"id":0,"left_children":[1,3,5,7,9,11,13,15,17,19,21,23,25,27,29,31,33,35,37,-1,-1,-1,-1,39,41,43,45,47,49,51,-1,-1,-1,-1,-1,-1,-1,-1,-1,53,55,-1,-1,57,59,61,63,-1,-1,-1,-1,-1,-1,-1,-1,-1,-1,-1,-1,-1,-1,-1,-1,-1,-1],"loss_changes":[1.4912682E2,1.9797493E1,1.2675282E1,2.5907478E0,2.7714996E0,1.416524E0,5.3118515E-1,2.9263783E-1,2.891636E-1,6.680641E-1,2.3825836E-1,1.284529E-1,1.3033369E-1,2.1881294E-1,6.891632E-2,2.7008772E-2,2.6989937E-2,1.21154785E-2,2.1450043E-2,0E0,0E0,0E0,0E0,1.6527623E-2,1.4098406E-2,2.58917E-2,2.1022886E-2,1.564908E-2,9.503365E-3,1.6059875E-3,0E0,0E0,0E0,0E0,0E0,0E0,0E0,0E0,0E0,1.0056943E-3,1.5041791E-3,0E0,0E0,3.272443E-3,3.3514276E-3,3.5678446E-3,1.1811554E-3,0E0,0E0,0E0,0E0,0E0,0E0,0E0,0E0,0E0,0E0,0E0,0E0,0E0,0E0,0E0,0E0,0E0,0E0],"parents":[2147483647,0,0,1,1,2,2,3,3,4,4,5,5,6,6,7,7,8,8,9,9,10,10,11,11,12,12,13,13,14,14,15,15,16,16,17,17,18,18,23,23,24,24,25,25,26,26,27,27,28,28,29,29,39,39,40,40,43,43,44,44,45,45,46,46],"right_children":[2,4,6,8,10,12,14,16,18,20,22,24,26,28,30,32,34,36,38,-1,-1,-1,-1,40,42,44,46,48,50,52,-1,-1,-1,-1,-1,-1,-1,-1,-1,54,56,-1,-1,58,60,62,64,-1,-1,-1,-1,-1,-1,-1,-1,-1,-1,-1,-1,-1,-1,-1,-1,-1,-1],"split_conditions":[7.69E-1,2.015E-1,8.84E-1,1.56E-1,2.63E-1,8.28E-1,9.31E-1,5.44E-1,1.76E-1,9.3E-1,3.15E-1,4.04E-1,8.57E-1,9.13E-1,9.41E-1,7.49E-1,7.1E-1,1.655E-1,1.875E-1,2.6434595E-2,3.3455107E-2,4.083785E-2,5.2576076E-2,8.14E-1,4.32E-1,8.44E-1,8.7E-1,8.97E-1,9.25E-1,9.36E-1,-1.0679818E-2,9.894757E-3,8.089366E-3,1.3862773E-2,1.1919057E-2,1.5895002E-2,1.789667E-2,1.9931948E-2,2.2658344E-2,8.07E-1,8.21E-1,4.629675E-3,6.088819E-3,8.36E-1,8.5E-1,8.63E-1,8.75E-1,-5.1421965E-3,-6.57892E-3,-8.318191E-3,-8.914533E-3,-9.4504375E-3,-9.960239E-3,3.5069808E-3,2.845098E-3,2.1084275E-3,1.4070877E-3,6.682078E-4,-1.7174284E-4,-8.1692514E-4,-1.4741821E-3,-2.0933403E-3,-2.748746E-3,-3.2885892E-3,-4.0152315E-3],"split_indices":[3,5,3,5,5,3,3,6,5,6,5,6,3,3,3,3,3,5,5,0,0,0,0,3,6,3,3,3,3,3,0,0,0,0,0,0,0,0,0,3,3,0,0,3,3,3,3,0,0,0,0,0,0,0,0,0,0,0,0,0,0,0,0,0,0],"split_type":[0,0,0,0,0,0,0,0,0,0,0,0,0,0,0,0,0,0,0,0,0,0,0,0,0,0,0,0,0,0,0,0,0,0,0,0,0,0,0,0,0,0,0,0,0,0,0,0,0,0,0,0,0,0,0,0,0,0,0,0,0,0,0,0,0],"sum_hessian":[1E4,2.525E3,7.475E3,1.676E3,8.49E2,1.777E3,5.698E3,9.02E2,7.74E2,6.14E2,2.35E2,6.51E2,1.126E3,2.309E3,3.389E3,4.38E2,4.64E2,4.06E2,3.68E2,3.24E2,2.9E2,2E2,3.5E1,3.32E2,3.19E2,5.37E2,5.89E2,3.8E2,1.929E3,1.696E3,1.693E3,2.46E2,1.92E2,2.03E2,2.61E2,1.97E2,2.09E2,2.23E2,1.45E2,1.86E2,1.46E2,1.5E2,1.69E2,1.85E2,3.52E2,3.89E2,2E2,1.6E2,2.2E2,8.65E2,1.064E3,8.43E2,8.53E2,1.02E2,8.4E1,7.5E1,7.1E1,8.5E1,1E2,1.25E2,2.27E2,1.78E2,2.11E2,8.1E1,1.19E2],"tree_param":{"num_deleted":"0","num_feature":"7","num_nodes":"65","size_leaf_vector":"1"}},{"base_weights":[2.209858E-5,-6.4005286E-2,1.8881819E-1,2.248615E-3,-8.4582865E-2,3.0364934E-1,1.3317454E-1,3.560772E-2,-1.6845327E-2,-7.324556E-2,-9.135897E-2,2.724525E-1,3.921527E-1,1.7330487E-1,1.00124985E-1,4.8777167E-2,2.3650492E-2,-6.07454E-3,-2.5580332E-2,-5.252319E-2,-7.713709E-2,-8.648699E-2,-9.569892E-2,2.3982817E-2,3.0305985E-2,3.7462868E-2,4.8295096E-2,1.567916E-1,1.9473247E-1,8.262194E-2,1.17194325E-1,4.159502E-3,5.420404E-3,2.9297395E-2,1.603723E-2,3.2429309E-3,-1.0084422E-2,-2.0782474E-2,-3.2313544E-2,-4.631171E-3,-5.775814E-3,-7.2918856E-3,-7.892466E-3,-8.364695E-3,-8.831347E-3,-9.3056E-3,-9.8136915E-3,1.6661277E-2,1.4684218E-2,2.0684239E-2,1.8261697E-2,7.3376134E-2,9.070027E-3,1.0898303E-2,1.275789E-2,3.1857719E-3,2.5639357E-3,1.900359E-3,1.2683332E-3,6.0216355E-4,-3.190034E-5,-5.6458963E-4,-1.2196492E-3,-1.7582724E-3,-2.3101985E-3,-2.872548E-3,-3.6170539E-3,6.568756E-3,7.690433E-3],"categories":[],"categories_nodes":[],"categories_segments":[],"categories_sizes":[],"default_left":[0,0,0,0,0,0,0,0,0,0,0,0,0,0,0,0,0,0,0,0,0,0,0,0,0,0,0,0,0,0,0,0,0,0,0,0,0,0,0,0,0,0,0,0,0,0,0,0,0,0,0,0,0,0,0,0,0,0,0,0,0,0,0,0,0,0,0,0,0],"id":1,"left_children":[1,3,5,7,9,11,13,15,17,19,21,23,25,27,29,31,33,35,37,39,41,43,45,-1,-1,-1,-1,47,49,51,53,-1,-1,55,57,59,61,63,65,-1,-1,-1,-1,-1,-1,-1,-1,-1,-1,-1,-1,67,-1,-1,-1,-1,-1,-1,-1,-1,-1,-1,-1,-1,-1,-1,-1,-1,-1],"loss_changes":[1.20905365E2,1.0183014E1,1.6144478E1,1.1286504E0,4.31118E-1,2.173767E0,2.2479496E0,1.00414634E-1,1.05876E-1,1.682806E-1,6.706047E-2,5.4042816E-1,1.579895E-1,2.4192429E-1,2.708578E-1,9.6722245E-3,1.4147207E-2,1.893786E-2,1.9422174E-2,8.413255E-3,7.79438E-3,1.3751984E-3,2.948761E-3,0E0,0E0,0E0,0E0,1.8528938E-2,1.0789871E-2,2.822566E-2,2.6429176E-2,0E0,0E0,1.000151E-3,1.2214556E-3,1.5162481E-3,3.249701E-3,2.3102015E-3,2.5176406E-3,0E0,0E0,0E0,0E0,0E0,0E0,0E0,0E0,0E0,0E0,0E0,0E0,9.976625E-4,0E0,0E0,0E0,0E0,0E0,0E0,0E0,0E0,0E0,0E0,0E0,0E0,0E0,0E0,0E0,0E0,0E0],"parents":[2147483647,0,0,1,1,2,2,3,3,4,4,5,5,6,6,7,7,8,8,9,9,10,10,11,11,12,12,13,13,14,14,15,15,16,16,17,17,18,18,19,19,20,20,21,21,22,22,27,27,28,28,29,29,30,30,33,33,34,34,35,35,36,36,37,37,38,38,51,51],"right_children":[2,4,6,8,10,12,14,16,18,20,22,24,26,28,30,32,34,36,38,40,42,44,46,-1,-1,-1,-1,48,50,52,54,-1,-1,56,58,60,62,64,66,-1,-1,-1,-1,-1,-1,-1,-1,-1,-1,-1,-1,68,-1,-1,-1,-1,-1,-1,-1,-1,-1,-1,-1,-1,-1,-1,-1,-1,-1],"split_conditions":[4.62E-1,8.84E-1,5.94E-1,8.28E-1,9.3E-1,2.68E-1,6.86E-1,7.98E-1,8.56E-1,9.1E-1,9.4E-1,2.335E-1,3.24E-1,1.79E-1,5.48E-1,4.3E-1,8.14E-1,8.42E-1,8.68E-1,8.97E-1,9.23E-1,9.34E-1,9.45E-1,2.3982817E-2,3.0305985E-2,3.7462868E-2,4.8295096E-2,6.64E-1,6.22E-1,5.08E-1,5.88E-1,4.159502E-3,5.420404E-3,8.07E-1,8.21E-1,8.36E-1,8.48E-1,8.61E-1,8.75E-1,-4.631171E-3,-5.775814E-3,-7.2918856E-3,-7.892466E-3,-8.364695E-3,-8.831347E-3,-9.3056E-3,-9.8136915E-3,1.6661277E-2,1.4684218E-2,2.0684239E-2,1.8261697E-2,4.84E-1,9.070027E-3,1.0898303E-2,1.275789E-2,3.1857719E-3,2.5639357E-3,1.900359E-3,1.2683332E-3,6.0216355E-4,-3.190034E-5,-5.6458963E-4,-1.2196492E-3,-1.7582724E-3,-2.3101985E-3,-2.872548E-3,-3.6170539E-3,6.568756E-3,7.690433E-3],"split_indices":[6,3,3,3,3,5,3,3,3,3,3,5,5,5,6,6,3,3,3,3,3,3,3,0,0,0,0,3,3,6,6,0,0,3,3,3,3,3,3,0,0,0,0,0,0,0,0,0,0,0,0,6,0,0,0,0,0,0,0,0,0,0,0,0,0,0,0,0,0],"split_type":[0,0,0,0,0,0,0,0,0,0,0,0,0,0,0,0,0,0,0,0,0,0,0,0,0,0,0,0,0,0,0,0,0,0,0,0,0,0,0,0,0,0,0,0,0,0,0,0,0,0,0,0,0,0,0,0,0,0,0,0,0,0,0,0,0,0,0,0,0],"sum_hessian":[1E4,7.468E3,2.532E3,1.77E3,5.698E3,8.25E2,1.707E3,6.44E2,1.126E3,2.136E3,3.562E3,6.13E2,2.12E2,7.69E2,9.38E2,3.05E2,3.39E2,5.05E2,6.21E2,3.4E2,1.796E3,1.688E3,1.874E3,3.01E2,3.12E2,1.82E2,3E1,4.39E2,3.3E2,4.66E2,4.72E2,1.35E2,1.7E2,1.93E2,1.46E2,1.52E2,3.53E2,3.65E2,2.56E2,1.6E2,1.8E2,5.47E2,1.249E3,6.79E2,1.009E3,9.18E2,9.56E2,2.13E2,2.26E2,1.57E2,1.73E2,2.22E2,2.44E2,2.7E2,2.02E2,1.09E2,8.4E1,7.5E1,7.1E1,8.5E1,6.7E1,1.15E2,2.38E2,1.57E2,2.08E2,1.37E2,1.19E2,7.6E1,1.46E2],"tree_param":{"num_deleted":"0","num_feature":"7","num_nodes":"69","size_leaf_vector":"1"}},{"base_weights":[4.0100076E-5,-5.7948444E-2,1.6905797E-1,6.3473434E-4,-7.636307E-2,1.2038287E-1,2.7627307E-1,2.9802453E-2,-1.663208E-2,-6.762076E-2,-8.311287E-2,8.9974694E-2,1.5825859E-1,3.538833E-1,2.4790505E-1,4.1692857E-2,1.8587813E-2,-8.055779E-3,-2.5255423E-2,-5.076792E-2,-7.075983E-2,-7.9575635E-2,-8.701252E-3,7.158516E-2,1.04453735E-1,1.44575E-1,1.8122775E-2,3.3646774E-2,4.291961E-2,2.1887599E-2,2.7384717E-2,3.5156447E-3,4.694519E-3,2.4095757E-2,1.1590394E-2,-8.081218E-4,-1.1515793E-2,-2.144684E-2,-3.263696E-2,-4.484506E-3,-5.658174E-3,-6.806679E-3,-7.307723E-3,-7.7425167E-3,-8.152721E-3,6.225053E-3,7.7533983E-3,1.1330884E-2,9.466982E-3,1.3430089E-2,1.5402752E-2,2.6361672E-3,2.0320208E-3,1.4231469E-3,8.421526E-4,2.3981916E-4,-3.435012E-4,-8.3119277E-4,-1.3583062E-3,-1.858403E-3,-2.3801625E-3,-2.89455E-3,-3.4936927E-3],"categories":[],"categories_nodes":[],"categories_segments":[],"categories_sizes":[],"default_left":[0,0,0,0,0,0,0,0,0,0,0,0,0,0,0,0,0,0,0,0,0,0,0,0,0,0,0,0,0,0,0,0,0,0,0,0,0,0,0,0,0,0,0,0,0,0,0,0,0,0,0,0,0,0,0,0,0,0,0,0,0,0,0],"id":2,"left_children":[1,3,5,7,9,11,13,15,17,19,21,23,25,27,29,31,33,35,37,39,41,43,-1,45,47,49,-1,-1,-1,-1,-1,-1,-1,51,53,55,57,59,61,-1,-1,-1,-1,-1,-1,-1,-1,-1,-1,-1,-1,-1,-1,-1,-1,-1,-1,-1,-1,-1,-1,-1,-1],"loss_changes":[9.8030594E1,8.033779E0,1.3300537E1,8.9797074E-1,3.287239E-1,2.0116558E0,1.6669846E0,8.763379E-2,8.262774E-2,1.2728882E-1,3.711891E-2,2.529273E-1,2.195816E-1,1.3234138E-1,3.821144E-1,9.36991E-3,1.2940422E-2,1.4109042E-2,1.4987171E-2,1.0960937E-2,8.025169E-3,7.6293945E-4,0E0,1.927352E-2,3.649044E-2,2.7386665E-2,0E0,0E0,0E0,0E0,0E0,0E0,0E0,1.0983348E-3,1.1606384E-3,1.5495794E-3,2.4105571E-3,2.0586997E-3,5.849004E-4,0E0,0E0,0E0,0E0,0E0,0E0,0E0,0E0,0E0,0E0,0E0,0E0,0E0,0E0,0E0,0E0,0E0,0E0,0E0,0E0,0E0,0E0,0E0,0E0],"parents":[2147483647,0,0,1,1,2,2,3,3,4,4,5,5,6,6,7,7,8,8,9,9,10,10,11,11,12,12,13,13,14,14,15,15,16,16,17,17,18,18,19,19,20,20,21,21,23,23,24,24,25,25,33,33,34,34,35,35,36,36,37,37,38,38],"right_children":[2,4,6,8,10,12,14,16,18,20,22,24,26,28,30,32,34,36,38,40,42,44,-1,46,48,50,-1,-1,-1,-1,-1,-1,-1,52,54,56,58,60,62,-1,-1,-1,-1,-1,-1,-1,-1,-1,-1,-1,-1,-1,-1,-1,-1,-1,-1,-1,-1,-1,-1,-1,-1],"split_conditions":[4.58E-1,8.87E-1,2.055E-1,8.32E-1,9.32E-1,1.585E-1,4.64E-1,8.02E-1,8.59E-1,9.16E-1,9.42E-1,5.38E-1,1.815E-1,3.15E-1,9.44E-1,4.24E-1,8.17E-1,8.46E-1,8.72E-1,9.02E-1,9.26E-1,9.37E-1,-8.701252E-3,4.96E-1,7.12E-1,1.705E-1,1.8122775E-2,3.3646774E-2,4.291961E-2,2.1887599E-2,2.7384717E-2,3.5156447E-3,4.694519E-3,8.1E-1,8.25E-1,8.4E-1,8.52E-1,8.65E-1,8.78E-1,-4.484506E-3,-5.658174E-3,-6.806679E-3,-7.307723E-3,-7.7425167E-3,-8.152721E-3,6.225053E-3,7.7533983E-3,1.1330884E-2,9.466982E-3,1.3430089E-2,1.5402752E-2,2.6361672E-3,2.0320208E-3,1.4231469E-3,8.421526E-4,2.3981916E-4,-3.435012E-4,-8.3119277E-4,-1.3583062E-3,-1.858403E-3,-2.3801625E-3,-2.89455E-3,-3.4936927E-3],"split_indices":[6,3,5,3,3,5,3,3,3,3,3,6,5,5,6,6,3,3,3,3,3,3,0,6,3,5,0,0,0,0,0,0,0,3,3,3,3,3,3,0,0,0,0,0,0,0,0,0,0,0,0,0,0,0,0,0,0,0,0,0,0,0,0],"split_type":[0,0,0,0,0,0,0,0,0,0,0,0,0,0,0,0,0,0,0,0,0,0,0,0,0,0,0,0,0,0,0,0,0,0,0,0,0,0,0,0,0,0,0,0,0,0,0,0,0,0,0,0,0,0,0,0,0,0,0,0,0,0,0],"sum_hessian":[1E4,7.446E3,2.554E3,1.781E3,5.665E3,1.758E3,7.96E2,6.62E2,1.119E3,2.473E3,3.192E3,9.77E2,7.81E2,2.1E2,5.86E2,3.2E2,3.42E2,5.62E2,5.57E2,3.91E2,2.082E3,1.685E3,1.507E3,4.33E2,5.44E2,4.94E2,2.87E2,1.75E2,3.5E1,2.81E2,3.05E2,1.46E2,1.74E2,1.9E2,1.52E2,1.82E2,3.8E2,3.7E2,1.87E2,1.98E2,1.93E2,9.77E2,1.105E3,8.21E2,8.64E2,1.73E2,2.6E2,2.8E2,2.64E2,2.44E2,2.5E2,1.15E2,7.5E1,8.1E1,7.1E1,8.2E1,1E2,1.51E2,2.29E2,1.71E2,1.99E2,7.7E1,1.1E2],"tree_param":{"num_deleted":"0","num_feature":"7","num_nodes":"63","size_leaf_vector":"1"}},{"base_weights":[5.2182775E-5,-5.1586945E-2,1.5394211E-1,2.360418E-3,-6.85317E-2,1.06480524E-1,2.4220316E-1,2.9510684E-2,-1.366202E-2,-5.8633603E-2,-7.366043E-2,7.9993725E-2,1.3587539E-1,2.0662229E-1,2.9709864E-1,1.9750996E-2,4.089623E-2,-4.2421846E-3,-2.0272262E-2,-4.156516E-2,-6.180992E-2,-6.930952E-2,-7.721541E-2,9.0910845E-2,6.5271E-2,1.2113954E-1,1.5022306E-1,1.881077E-2,2.2918668E-2,2.7467608E-2,3.4598625E-1,2.4280068E-2,1.3023291E-2,3.6016784E-3,4.6575437E-3,2.641014E-3,-7.5825895E-3,-1.6070204E-2,-2.574046E-2,-3.5629708E-3,-4.4805347E-3,-5.3834645E-3,-6.2622763E-3,-6.7532524E-3,-7.1082227E-3,-7.535886E-3,-8.010487E-3,8.213739E-3,9.707815E-3,5.8708773E-3,6.9557526E-3,1.2696013E-2,1.1279628E-2,1.6181352E-2,1.4310303E-2,3.233218E-2,4.0467326E-2,2.7259972E-3,2.1527563E-3,1.5451419E-3,1.0279388E-3,4.90928E-4,-2.6651429E-5,-4.556445E-4,-9.308471E-4,-1.3957884E-3,-1.8304477E-3,-2.3007914E-3,-2.9328752E-3],"categories":[],"categories_nodes":[],"categories_segments":[],"categories_sizes":[],"default_left":[0,0,0,0,0,0,0,0,0,0,0,0,0,0,0,0,0,0,0,0,0,0,0,0,0,0,0,0,0,0,0,0,0,0,0,0,0,0,0,0,0,0,0,0,0,0,0,0,0,0,0,0,0,0,0,0,0,0,0,0,0,0,0,0,0,0,0,0,0],"id":3,"left_children":[1,3,5,7,9,11,13,15,17,19,21,23,25,27,29,31,33,35,37,39,41,43,45,47,49,51,53,-1,-1,-1,55,57,59,-1,-1,61,63,65,67,-1,-1,-1,-1,-1,-1,-1,-1,-1,-1,-1,-1,-1,-1,-1,-1,-1,-1,-1,-1,-1,-1,-1,-1,-1,-1,-1,-1,-1,-1],"loss_changes":[7.948329E1,6.8460407E0,1.0501194E1,7.795122E-1,2.849884E-1,1.2628803E0,1.6535454E0,7.308662E-2,7.008937E-2,1.0314989E-1,5.265236E-2,1.3277626E-1,1.4544582E-1,1.8081474E-1,2.8095818E-1,1.0653093E-2,6.8022013E-3,1.0734612E-2,1.4797568E-2,4.3462515E-3,7.273197E-3,5.41687E-4,4.986763E-3,1.8701553E-2,6.3523054E-3,4.4727325E-3,8.863449E-3,0E0,0E0,0E0,7.4920654E-3,1.1684299E-3,8.2056224E-4,0E0,0E0,1.0103509E-3,1.5975349E-3,1.5237555E-3,2.1294802E-3,0E0,0E0,0E0,0E0,0E0,0E0,0E0,0E0,0E0,0E0,0E0,0E0,0E0,0E0,0E0,0E0,0E0,0E0,0E0,0E0,0E0,0E0,0E0,0E0,0E0,0E0,0E0,0E0,0E0,0E0],"parents":[2147483647,0,0,1,1,2,2,3,3,4,4,5,5,6,6,7,7,8,8,9,9,10,10,11,11,12,12,13,13,14,14,15,15,16,16,17,17,18,18,19,19,20,20,21,21,22,22,23,23,24,24,25,25,26,26,30,30,31,31,32,32,35,35,36,36,37,37,38,38],"right_children":[2,4,6,8,10,12,14,16,18,20,22,24,26,28,30,32,34,36,38,40,42,44,46,48,50,52,54,-1,-1,-1,56,58,60,-1,-1,62,64,66,68,-1,-1,-1,-1,-1,-1,-1,-1,-1,-1,-1,-1,-1,-1,-1,-1,-1,-1,-1,-1,-1,-1,-1,-1,-1,-1,-1,-1,-1,-1],"split_conditions":[4.68E-1,8.84E-1,1.99E-1,8.28E-1,9.29E-1,1.54E-1,2.525E-1,4.1E-1,8.55E-1,9.08E-1,9.39E-1,7.34E-1,1.74E-1,2.215E-1,2.925E-1,8.14E-1,4.4E-1,8.42E-1,8.67E-1,8.93E-1,9.2E-1,9.34E-1,9.46E-1,5.68E-1,5E-1,6.75E-1,6.3E-1,1.881077E-2,2.2918668E-2,2.7467608E-2,1.354E0,8.05E-1,8.21E-1,3.6016784E-3,4.6575437E-3,8.36E-1,8.48E-1,8.61E-1,8.75E-1,-3.5629708E-3,-4.4805347E-3,-5.3834645E-3,-6.2622763E-3,-6.7532524E-3,-7.1082227E-3,-7.535886E-3,-8.010487E-3,8.213739E-3,9.707815E-3,5.8708773E-3,6.9557526E-3,1.2696013E-2,1.1279628E-2,1.6181352E-2,1.4310303E-2,3.233218E-2,4.0467326E-2,2.7259972E-3,2.1527563E-3,1.5451419E-3,1.0279388E-3,4.90928E-4,-2.6651429E-5,-4.556445E-4,-9.308471E-4,-1.3957884E-3,-1.8304477E-3,-2.3007914E-3,-2.9328752E-3],"split_indices":[6,3,5,3,3,5,5,6,3,3,3,3,5,5,5,3,6,3,3,3,3,3,3,6,6,3,3,0,0,0,6,3,3,0,0,3,3,3,3,0,0,0,0,0,0,0,0,0,0,0,0,0,0,0,0,0,0,0,0,0,0,0,0,0,0,0,0,0,0],"split_type":[0,0,0,0,0,0,0,0,0,0,0,0,0,0,0,0,0,0,0,0,0,0,0,0,0,0,0,0,0,0,0,0,0,0,0,0,0,0,0,0,0,0,0,0,0,0,0,0,0,0,0,0,0,0,0,0,0,0,0,0,0,0,0,0,0,0,0,0,0],"sum_hessian":[1E4,7.488E3,2.512E3,1.79E3,5.698E3,1.635E3,8.77E2,6.64E2,1.126E3,1.949E3,3.749E3,8.62E2,7.73E2,5.35E2,3.42E2,3.59E2,3.05E2,4.65E2,6.61E2,3.08E2,1.641E3,1.695E3,2.054E3,4.92E2,3.7E2,3.86E2,3.87E2,2.99E2,2.36E2,2.39E2,1.03E2,2.13E2,1.46E2,1.68E2,1.37E2,1.52E2,3.13E2,3.76E2,2.85E2,1.13E2,1.95E2,1.58E2,1.483E3,8.66E2,8.29E2,1.267E3,7.87E2,2.09E2,2.83E2,1.52E2,2.18E2,2.19E2,1.67E2,1.39E2,2.48E2,7.9E1,2.4E1,9.8E1,1.15E2,7.5E1,7.1E1,8.5E1,6.7E1,1.15E2,1.98E2,1.97E2,1.79E2,1.66E2,1.19E2],"tree_param":{"num_deleted":"0","num_feature":"7","num_nodes":"69","size_leaf_vector":"1"}},{"base_weights":[6.540672E-5,-4.6273727E-2,1.3911986E-1,3.1178803E-3,-6.148096E-2,1.0037017E-1,2.2687194E-1,2.7874969E-2,-1.1173783E-2,-5.16208E-2,-6.596614E-2,7.532851E-2,1.3047081E-1,2.034912E-1,2.8932992E-1,3.799672E-2,1.9390026E-2,-2.5737332E-3,-1.724357E-2,-3.6610104E-2,-5.515974E-2,-6.207701E-2,-6.950144E-2,8.923332E-2,6.330972E-2,1.4967056E-2,1.18966594E-1,2.2489732E-2,1.8204708E-2,2.7575076E-2,3.570913E-2,4.268321E-3,3.3518623E-3,2.3564126E-2,1.4002372E-2,4.242419E-3,-5.929867E-3,-1.374282E-2,-2.1708846E-2,-3.1516247E-3,-4.0347665E-3,-4.848504E-3,-5.5936663E-3,-6.023412E-3,-6.374606E-3,-6.7099007E-3,-7.1348483E-3,9.642141E-3,8.243518E-3,5.6450567E-3,7.0524947E-3,1.1040848E-2,1.2628195E-2,2.628882E-3,2.1411423E-3,1.6462313E-3,1.1551667E-3,6.875742E-4,1.9069765E-4,-3.590222E-4,-7.939797E-4,-1.1674674E-3,-1.5415306E-3,-1.9639109E-3,-2.4506699E-3],"categories":[],"categories_nodes":[],"categories_segments":[],"categories_sizes":[],"default_left":[0,0,0,0,0,0,0,0,0,0,0,0,0,0,0,0,0,0,0,0,0,0,0,0,0,0,0,0,0,0,0,0,0,0,0,0,0,0,0,0,0,0,0,0,0,0,0,0,0,0,0,0,0,0,0,0,0,0,0,0,0,0,0,0,0],"id":4,"left_children":[1,3,5,7,9,11,13,15,17,19,21,23,25,27,29,31,33,35,37,39,41,43,45,47,49,-1,51,-1,-1,-1,-1,-1,-1,53,55,57,59,61,63,-1,-1,-1,-1,-1,-1,-1,-1,-1,-1,-1,-1,-1,-1,-1,-1,-1,-1,-1,-1,-1,-1,-1,-1,-1,-1],"loss_changes":[6.444951E1,5.6350174E0,8.478146E0,6.2551135E-1,2.5026703E-1,1.2987175E0,1.0582657E0,5.482924E-2,5.8472335E-2,9.349346E-2,4.984474E-2,1.5311384E-1,1.5602398E-1,2.1611786E-1,9.108162E-2,4.739344E-3,7.631004E-3,1.0662458E-2,9.971753E-3,5.315751E-3,4.822731E-3,1.9583702E-3,4.3315887E-3,1.3454676E-2,2.1407366E-2,0E0,1.7172337E-2,0E0,0E0,0E0,0E0,0E0,0E0,5.984828E-4,7.563215E-4,9.339843E-4,1.438682E-3,1.1033043E-3,1.1806786E-3,0E0,0E0,0E0,0E0,0E0,0E0,0E0,0E0,0E0,0E0,0E0,0E0,0E0,0E0,0E0,0E0,0E0,0E0,0E0,0E0,0E0,0E0,0E0,0E0,0E0,0E0],"parents":[2147483647,0,0,1,1,2,2,3,3,4,4,5,5,6,6,7,7,8,8,9,9,10,10,11,11,12,12,13,13,14,14,15,15,16,16,17,17,18,18,19,19,20,20,21,21,22,22,23,23,24,24,26,26,33,33,34,34,35,35,36,36,37,37,38,38],"right_children":[2,4,6,8,10,12,14,16,18,20,22,24,26,28,30,32,34,36,38,40,42,44,46,48,50,-1,52,-1,-1,-1,-1,-1,-1,54,56,58,60,62,64,-1,-1,-1,-1,-1,-1,-1,-1,-1,-1,-1,-1,-1,-1,-1,-1,-1,-1,-1,-1,-1,-1,-1,-1,-1,-1],"split_conditions":[4.72E-1,8.81E-1,2.085E-1,8.25E-1,9.28E-1,1.6E-1,2.75E-1,7.94E-1,8.54E-1,9.08E-1,9.39E-1,7.22E-1,6.34E-1,5.21E-1,3.24E-1,7.8E-1,8.1E-1,8.4E-1,8.66E-1,8.93E-1,9.2E-1,9.33E-1,9.44E-1,7.02E-1,5.18E-1,1.4967056E-2,1.715E-1,2.2489732E-2,1.8204708E-2,2.7575076E-2,3.570913E-2,4.268321E-3,3.3518623E-3,8.02E-1,8.17E-1,8.32E-1,8.48E-1,8.59E-1,8.72E-1,-3.1516247E-3,-4.0347665E-3,-4.848504E-3,-5.5936663E-3,-6.023412E-3,-6.374606E-3,-6.7099007E-3,-7.1348483E-3,9.642141E-3,8.243518E-3,5.6450567E-3,7.0524947E-3,1.1040848E-2,1.2628195E-2,2.628882E-3,2.1411423E-3,1.6462313E-3,1.1551667E-3,6.875742E-4,1.9069765E-4,-3.590222E-4,-7.939797E-4,-1.1674674E-3,-1.5415306E-3,-1.9639109E-3,-2.4506699E-3],"split_indices":[6,3,5,3,3,5,5,3,3,3,3,3,3,3,5,3,3,3,3,3,3,3,3,3,6,0,5,0,0,0,0,0,0,3,3,3,3,3,3,0,0,0,0,0,0,0,0,0,0,0,0,0,0,0,0,0,0,0,0,0,0,0,0,0,0],"split_type":[0,0,0,0,0,0,0,0,0,0,0,0,0,0,0,0,0,0,0,0,0,0,0,0,0,0,0,0,0,0,0,0,0,0,0,0,0,0,0,0,0,0,0,0,0,0,0,0,0,0,0,0,0,0,0,0,0,0,0,0,0,0,0,0,0],"sum_hessian":[1E4,7.501E3,2.499E3,1.766E3,5.735E3,1.735E3,7.64E2,6.46E2,1.12E3,1.797E3,3.938E3,9.49E2,7.86E2,5.59E2,2.05E2,2.93E2,3.53E2,4.64E2,6.56E2,3.45E2,1.452E3,1.884E3,2.054E3,4.37E2,5.12E2,2.9E2,4.96E2,2.75E2,2.84E2,1.75E2,3E1,1.39E2,1.54E2,1.97E2,1.56E2,1.53E2,3.11E2,3.7E2,2.86E2,1.5E2,1.95E2,1.58E2,1.294E3,9.13E2,9.71E2,9.09E2,1.145E3,2.06E2,2.31E2,2.67E2,2.45E2,2.36E2,2.6E2,8.2E1,1.15E2,7.5E1,8.1E1,7.1E1,8.2E1,1.45E2,1.66E2,1.69E2,2.01E2,1.69E2,1.17E2],"tree_param":{"num_deleted":"0","num_feature":"7","num_nodes":"65","size_leaf_vector":"1"}},{"base_weights":[7.257746E-5,1.2321122E-1,-4.235307E-2,8.4392235E-2,1.955876E-1,2.816485E-4,-5.569434E-2,6.2505834E-2,1.08344756E-1,2.4360496E-1,1.6786616E-1,2.1519922E-2,-1.21392E-2,-4.8837703E-2,-6.0283393E-2,5.0223604E-2,7.174619E-2,1.20083034E-1,9.6482664E-2,2.2654677E-2,2.883766E-2,1.5325111E-1,1.8911654E-2,3.012934E-2,1.3600773E-2,-5.8810147E-3,-1.8431708E-2,-3.617192E-2,-5.1096175E-2,-5.7667065E-2,-6.351035E-2,4.3157362E-3,5.3739487E-3,6.545475E-3,7.7007175E-3,1.1550956E-2,1.2987892E-2,9.036903E-3,1.0194353E-2,1.4505396E-2,1.6248254E-2,2.516806E-3,3.379921E-3,1.7618645E-2,8.496105E-3,-5.5380794E-4,-8.424316E-3,-1.5662512E-2,-2.3798408E-2,-3.1698614E-3,-3.9767465E-3,-4.8416094E-3,-5.252198E-3,-5.578959E-3,-5.9135263E-3,-6.21325E-3,-6.5497565E-3,1.9288732E-3,1.4837738E-3,1.0410586E-3,6.197723E-4,1.7185691E-4,-2.4157237E-4,-6.0421845E-4,-9.961968E-4,-1.3535696E-3,-1.7413264E-3,-2.105716E-3,-2.5510292E-3],"categories":[],"categories_nodes":[],"categories_segments":[],"categories_sizes":[],"default_left":[0,0,0,0,0,0,0,0,0,0,0,0,0,0,0,0,0,0,0,0,0,0,0,0,0,0,0,0,0,0,0,0,0,0,0,0,0,0,0,0,0,0,0,0,0,0,0,0,0,0,0,0,0,0,0,0,0,0,0,0,0,0,0,0,0,0,0,0,0],"id":5,"left_children":[1,3,5,7,9,11,13,15,17,19,21,23,25,27,29,31,33,35,37,-1,-1,39,-1,41,43,45,47,49,51,53,55,-1,-1,-1,-1,-1,-1,-1,-1,-1,-1,-1,-1,57,59,61,63,65,67,-1,-1,-1,-1,-1,-1,-1,-1,-1,-1,-1,-1,-1,-1,-1,-1,-1,-1,-1,-1],"loss_changes":[5.2252808E1,7.1844406E0,4.231328E0,8.686991E-1,1.1491165E0,4.6823776E-1,1.7534065E-1,9.570241E-2,9.924984E-2,1.828785E-1,1.480465E-1,4.4247627E-2,4.3996856E-2,6.328583E-2,2.495861E-2,7.096648E-3,1.14097595E-2,2.7399063E-3,4.175186E-3,0E0,0E0,2.3870468E-3,0E0,4.848242E-3,6.8852007E-3,7.6232497E-3,7.9199225E-3,4.336655E-3,4.8327446E-3,1.891613E-3,6.0081482E-5,0E0,0E0,0E0,0E0,0E0,0E0,0E0,0E0,0E0,0E0,0E0,0E0,6.0087815E-4,6.0870964E-4,7.7841984E-4,1.3353694E-3,1.1457279E-3,3.450513E-4,0E0,0E0,0E0,0E0,0E0,0E0,0E0,0E0,0E0,0E0,0E0,0E0,0E0,0E0,0E0,0E0,0E0,0E0,0E0,0E0],"parents":[2147483647,0,0,1,1,2,2,3,3,4,4,5,5,6,6,7,7,8,8,9,9,10,10,11,11,12,12,13,13,14,14,15,15,16,16,17,17,18,18,21,21,23,23,24,24,25,25,26,26,27,27,28,28,29,29,30,30,43,43,44,44,45,45,46,46,47,47,48,48],"right_children":[2,4,6,8,10,12,14,16,18,20,22,24,26,28,30,32,34,36,38,-1,-1,40,-1,42,44,46,48,50,52,54,56,-1,-1,-1,-1,-1,-1,-1,-1,-1,-1,-1,-1,58,60,62,64,66,68,-1,-1,-1,-1,-1,-1,-1,-1,-1,-1,-1,-1,-1,-1,-1,-1,-1,-1,-1,-1],"split_conditions":[7.73E-1,1.975E-1,8.87E-1,1.525E-1,4.92E-1,8.32E-1,9.31E-1,5.28E-1,6.55E-1,2.965E-1,2.235E-1,8.02E-1,8.59E-1,9.13E-1,9.42E-1,4.88E-1,5.64E-1,1.86E-1,1.625E-1,2.2654677E-2,2.883766E-2,2.13E-1,1.8911654E-2,4.22E-1,8.17E-1,8.46E-1,8.72E-1,8.99E-1,9.24E-1,9.36E-1,9.47E-1,4.3157362E-3,5.3739487E-3,6.545475E-3,7.7007175E-3,1.1550956E-2,1.2987892E-2,9.036903E-3,1.0194353E-2,1.4505396E-2,1.6248254E-2,2.516806E-3,3.379921E-3,8.1E-1,8.25E-1,8.4E-1,8.52E-1,8.65E-1,8.78E-1,-3.1698614E-3,-3.9767465E-3,-4.8416094E-3,-5.252198E-3,-5.578959E-3,-5.9135263E-3,-6.21325E-3,-6.5497565E-3,1.9288732E-3,1.4837738E-3,1.0410586E-3,6.197723E-4,1.7185691E-4,-2.4157237E-4,-6.0421845E-4,-9.961968E-4,-1.3535696E-3,-1.7413264E-3,-2.105716E-3,-2.5510292E-3],"split_indices":[3,5,3,5,3,3,3,6,3,5,5,3,3,3,3,6,6,5,5,0,0,5,0,6,3,3,3,3,3,3,3,0,0,0,0,0,0,0,0,0,0,0,0,3,3,3,3,3,3,0,0,0,0,0,0,0,0,0,0,0,0,0,0,0,0,0,0,0,0],"split_type":[0,0,0,0,0,0,0,0,0,0,0,0,0,0,0,0,0,0,0,0,0,0,0,0,0,0,0,0,0,0,0,0,0,0,0,0,0,0,0,0,0,0,0,0,0,0,0,0,0,0,0,0,0,0,0,0,0,0,0,0,0,0,0,0,0,0,0,0,0],"sum_hessian":[1E4,2.562E3,7.438E3,1.669E3,8.93E2,1.773E3,5.665E3,8.74E2,7.95E2,3.24E2,5.69E2,6.54E2,1.119E3,2.276E3,3.389E3,3.78E2,4.96E2,3.95E2,4E2,2.39E2,8.5E1,3.42E2,2.27E2,3.12E2,3.42E2,5.62E2,5.57E2,3.47E2,1.929E3,1.882E3,1.507E3,1.3E2,2.48E2,2.32E2,2.64E2,2.78E2,1.17E2,1.97E2,2.03E2,1.9E2,1.52E2,1.36E2,1.76E2,1.9E2,1.52E2,1.82E2,3.8E2,3.7E2,1.87E2,1.59E2,1.88E2,6.82E2,1.247E3,8.43E2,1.039E3,9.09E2,5.98E2,1.15E2,7.5E1,8.1E1,7.1E1,8.2E1,1E2,1.51E2,2.29E2,1.71E2,1.99E2,7.7E1,1.1E2],"tree_param":{"num_deleted":"0","num_feature":"7","num_nodes":"69","size_leaf_vector":"1"}},{"base_weights":[7.821012E-5,-3.749299E-2,1.1282184E-1,2.5281715E-3,-4.9815148E-2,1.8514705E-1,8.1837595E-2,2.2597084E-2,-9.057123E-3,-4.1172523E-2,-5.320092E-2,1.6642988E-1,2.3783568E-1,6.1534133E-2,1.0688551E-1,1.5421922E-2,3.0493284E-2,-2.0651857E-3,-1.3991969E-2,-2.8721903E-2,-4.4040646E-2,-4.9779326E-2,-5.6109507E-2,1.4966081E-2,1.8441059E-2,2.2672724E-2,3.0385971E-2,5.0909083E-2,7.240885E-2,9.8647796E-2,1.2533468E-2,1.877377E-2,1.1374064E-2,2.6361854E-3,3.4222533E-3,3.4466332E-3,-4.7791437E-3,-1.1157357E-2,-1.7607471E-2,-2.4449015E-3,-3.1028783E-3,-3.8769536E-3,-4.4941106E-3,-4.8613246E-3,-5.129323E-3,-5.449602E-3,-5.8178585E-3,4.5436695E-3,5.6511383E-3,6.65088E-3,7.888635E-3,1.0549729E-2,9.181288E-3,2.0168405E-3,1.6459394E-3,1.3373493E-3,9.382227E-4,5.586561E-4,1.5487846E-4,-2.176538E-4,-5.996522E-4,-9.962856E-4,-1.3013541E-3,-1.595567E-3,-1.9837967E-3],"categories":[],"categories_nodes":[],"categories_segments":[],"categories_sizes":[],"default_left":[0,0,0,0,0,0,0,0,0,0,0,0,0,0,0,0,0,0,0,0,0,0,0,0,0,0,0,0,0,0,0,0,0,0,0,0,0,0,0,0,0,0,0,0,0,0,0,0,0,0,0,0,0,0,0,0,0,0,0,0,0,0,0,0,0],"id":6,"left_children":[1,3,5,7,9,11,13,15,17,19,21,23,25,27,29,31,33,35,37,39,41,43,45,-1,-1,-1,-1,47,49,51,-1,53,55,-1,-1,57,59,61,63,-1,-1,-1,-1,-1,-1,-1,-1,-1,-1,-1,-1,-1,-1,-1,-1,-1,-1,-1,-1,-1,-1,-1,-1,-1,-1],"loss_changes":[4.23676E1,3.6997156E0,5.5872E0,4.1103974E-1,1.6565609E-1,6.9906807E-1,8.8441944E-1,3.6186486E-2,3.8650244E-2,5.654955E-2,3.819084E-2,1.4004517E-1,7.339001E-2,1.0839176E-1,1.0663605E-1,4.4130906E-3,3.8278103E-3,6.9723353E-3,6.5368414E-3,2.2576153E-3,4.4944286E-3,8.621216E-4,4.233837E-3,0E0,0E0,0E0,0E0,1.2577295E-2,1.2983084E-2,1.587534E-2,0E0,2.651587E-4,4.997868E-4,0E0,0E0,6.1678176E-4,9.754752E-4,6.929338E-4,7.4087083E-4,0E0,0E0,0E0,0E0,0E0,0E0,0E0,0E0,0E0,0E0,0E0,0E0,0E0,0E0,0E0,0E0,0E0,0E0,0E0,0E0,0E0,0E0,0E0,0E0,0E0,0E0],"parents":[2147483647,0,0,1,1,2,2,3,3,4,4,5,5,6,6,7,7,8,8,9,9,10,10,11,11,12,12,13,13,14,14,15,15,16,16,17,17,18,18,19,19,20,20,21,21,22,22,27,27,28,28,29,29,31,31,32,32,35,35,36,36,37,37,38,38],"right_children":[2,4,6,8,10,12,14,16,18,20,22,24,26,28,30,32,34,36,38,40,42,44,46,-1,-1,-1,-1,48,50,52,-1,54,56,-1,-1,58,60,62,64,-1,-1,-1,-1,-1,-1,-1,-1,-1,-1,-1,-1,-1,-1,-1,-1,-1,-1,-1,-1,-1,-1,-1,-1,-1,-1],"split_conditions":[4.72E-1,8.81E-1,5.81E-1,8.25E-1,9.27E-1,2.77E-1,1.61E-1,4.12E-1,8.54E-1,9.05E-1,9.38E-1,2.425E-1,1.354E0,5.56E-1,1.89E-1,8.1E-1,4.38E-1,8.4E-1,8.66E-1,8.9E-1,9.2E-1,9.33E-1,9.45E-1,1.4966081E-2,1.8441059E-2,2.2672724E-2,3.0385971E-2,5.16E-1,1E0,6.52E-1,1.2533468E-2,8.05E-1,8.17E-1,2.6361854E-3,3.4222533E-3,8.32E-1,8.46E-1,8.61E-1,8.72E-1,-2.4449015E-3,-3.1028783E-3,-3.8769536E-3,-4.4941106E-3,-4.8613246E-3,-5.129323E-3,-5.449602E-3,-5.8178585E-3,4.5436695E-3,5.6511383E-3,6.65088E-3,7.888635E-3,1.0549729E-2,9.181288E-3,2.0168405E-3,1.6459394E-3,1.3373493E-3,9.382227E-4,5.586561E-4,1.5487846E-4,-2.176538E-4,-5.996522E-4,-9.962856E-4,-1.3013541E-3,-1.595567E-3,-1.9837967E-3],"split_indices":[6,3,3,3,3,5,5,6,3,3,3,5,6,6,5,3,6,3,3,3,3,3,3,0,0,0,0,6,0,3,0,3,3,0,0,3,3,3,3,0,0,0,0,0,0,0,0,0,0,0,0,0,0,0,0,0,0,0,0,0,0,0,0,0,0],"split_type":[0,0,0,0,0,0,0,0,0,0,0,0,0,0,0,0,0,0,0,0,0,0,0,0,0,0,0,0,0,0,0,0,0,0,0,0,0,0,0,0,0,0,0,0,0,0,0,0,0,0,0,0,0,0,0,0,0,0,0,0,0,0,0,0,0],"sum_hessian":[1E4,7.501E3,2.499E3,1.766E3,5.735E3,7.48E2,1.751E3,6.46E2,1.12E3,1.618E3,4.117E3,5.55E2,1.93E2,9.69E2,7.82E2,3.4E2,3.06E2,4.64E2,6.56E2,3.05E2,1.313E3,1.9E3,2.217E3,2.92E2,2.63E2,1.69E2,2.4E1,4.93E2,4.76E2,5.45E2,2.37E2,1.84E2,1.56E2,1.49E2,1.57E2,1.53E2,3.11E2,3.7E2,2.86E2,1.11E2,1.94E2,1.98E2,1.115E3,1.092E3,8.08E2,1.261E3,9.56E2,2.54E2,2.39E2,2.55E2,2.21E2,2.65E2,2.8E2,1.1E2,7.4E1,7.5E1,8.1E1,7.1E1,8.2E1,1E2,2.11E2,2.29E2,1.41E2,1.69E2,1.17E2],"tree_param":{"num_deleted":"0","num_feature":"7","num_nodes":"65","size_leaf_vector":"1"}},{"base_weights":[8.181966E-5,-3.4389917E-2,9.971596E-2,7.367785E-5,-4.512559E-2,1.5814546E-1,6.793527E-2,1.7242223E-2,-9.844289E-3,-3.917983E-2,-4.862397E-2,1.3262863E-1,1.9353074E-1,5.022817E-2,8.715488E-2,2.4172252E-2,1.1029685E-2,-4.4143987E-3,-1.4662396E-2,-2.930969E-2,-4.111246E-2,-4.6001863E-2,-5.0960038E-2,1.2039289E-2,1.4600708E-2,2.2511798E-1,1.7559348E-2,4.0312886E-2,5.7693426E-2,7.622242E-3,9.543993E-2,1.9960615E-3,2.6870936E-3,1.4278889E-2,6.9014E-3,-4.4927295E-4,-6.498802E-3,-1.2031226E-2,-1.8647691E-2,-2.5633678E-3,-3.226658E-3,-3.9171753E-3,-4.2307246E-3,-4.4741905E-3,-4.7198655E-3,-4.9892613E-3,-5.3150593E-3,2.1396188E-2,2.8865606E-2,3.5141285E-3,4.357544E-3,6.2191132E-3,5.3054895E-3,1.0083832E-2,8.954319E-3,1.561365E-3,1.205374E-3,8.455447E-4,5.035661E-4,1.3957679E-4,-1.9610464E-4,-4.3384847E-4,-7.4873463E-4,-1.0294644E-3,-1.3194998E-3,-1.6637311E-3,-2.0725525E-3],"categories":[],"categories_nodes":[],"categories_segments":[],"categories_sizes":[],"default_left":[0,0,0,0,0,0,0,0,0,0,0,0,0,0,0,0,0,0,0,0,0,0,0,0,0,0,0,0,0,0,0,0,0,0,0,0,0,0,0,0,0,0,0,0,0,0,0,0,0,0,0,0,0,0,0,0,0,0,0,0,0,0,0,0,0,0,0],"id":7,"left_children":[1,3,5,7,9,11,13,15,17,19,21,23,25,27,29,31,33,35,37,39,41,43,45,-1,-1,47,-1,49,51,-1,53,-1,-1,55,57,59,61,63,65,-1,-1,-1,-1,-1,-1,-1,-1,-1,-1,-1,-1,-1,-1,-1,-1,-1,-1,-1,-1,-1,-1,-1,-1,-1,-1,-1,-1],"loss_changes":[3.4352478E1,2.7493982E0,4.763424E0,3.00879E-1,1.1595154E-1,7.914753E-1,5.62942E-1,2.7588725E-2,2.923648E-2,3.8929462E-2,1.9480705E-2,6.901646E-2,1.7407417E-1,6.20718E-2,6.50053E-2,2.9302388E-3,4.5023337E-3,4.360961E-3,5.993843E-3,2.9554963E-3,2.4166107E-3,4.351139E-4,1.7318726E-3,0E0,0E0,3.251362E-2,0E0,4.829645E-3,7.0067644E-3,0E0,5.2957535E-3,0E0,0E0,3.7907436E-4,4.0103588E-4,5.1317614E-4,7.0642214E-4,5.9171394E-4,6.3265115E-4,0E0,0E0,0E0,0E0,0E0,0E0,0E0,0E0,0E0,0E0,0E0,0E0,0E0,0E0,0E0,0E0,0E0,0E0,0E0,0E0,0E0,0E0,0E0,0E0,0E0,0E0,0E0,0E0],"parents":[2147483647,0,0,1,1,2,2,3,3,4,4,5,5,6,6,7,7,8,8,9,9,10,10,11,11,12,12,13,13,14,14,15,15,16,16,17,17,18,18,19,19,20,20,21,21,22,22,25,25,27,27,28,28,30,30,33,33,34,34,35,35,36,36,37,37,38,38],"right_children":[2,4,6,8,10,12,14,16,18,20,22,24,26,28,30,32,34,36,38,40,42,44,46,-1,-1,48,-1,50,52,-1,54,-1,-1,56,58,60,62,64,66,-1,-1,-1,-1,-1,-1,-1,-1,-1,-1,-1,-1,-1,-1,-1,-1,-1,-1,-1,-1,-1,-1,-1,-1,-1,-1,-1,-1],"split_conditions":[4.54E-1,8.87E-1,6.08E-1,8.32E-1,9.3E-1,2.495E-1,1.52E-1,8.02E-1,8.58E-1,9.13E-1,9.4E-1,2.18E-1,4.26E-1,5.26E-1,1.695E-1,4.2E-1,8.17E-1,8.46E-1,8.7E-1,8.99E-1,9.24E-1,9.35E-1,9.47E-1,1.2039289E-2,1.4600708E-2,3.51E-1,1.7559348E-2,4.9E-1,7.18E-1,7.622242E-3,6.41E-1,1.9960615E-3,2.6870936E-3,8.1E-1,8.25E-1,8.4E-1,8.51E-1,8.63E-1,8.78E-1,-2.5633678E-3,-3.226658E-3,-3.9171753E-3,-4.2307246E-3,-4.4741905E-3,-4.7198655E-3,-4.9892613E-3,-5.3150593E-3,2.1396188E-2,2.8865606E-2,3.5141285E-3,4.357544E-3,6.2191132E-3,5.3054895E-3,1.0083832E-2,8.954319E-3,1.561365E-3,1.205374E-3,8.455447E-4,5.035661E-4,1.3957679E-4,-1.9610464E-4,-4.3384847E-4,-7.4873463E-4,-1.0294644E-3,-1.3194998E-3,-1.6637311E-3,-2.0725525E-3],"split_indices":[6,3,3,3,3,5,5,3,3,3,3,5,3,6,5,6,3,3,3,3,3,3,3,0,0,5,0,6,3,0,3,0,0,3,3,3,3,3,3,0,0,0,0,0,0,0,0,0,0,0,0,0,0,0,0,0,0,0,0,0,0,0,0,0,0,0,0],"split_type":[0,0,0,0,0,0,0,0,0,0,0,0,0,0,0,0,0,0,0,0,0,0,0,0,0,0,0,0,0,0,0,0,0,0,0,0,0,0,0,0,0,0,0,0,0,0,0,0,0,0,0,0,0,0,0,0,0,0,0,0,0,0,0,0,0,0,0],"sum_hessian":[1E4,7.43E3,2.57E3,1.765E3,5.665E3,9.04E2,1.666E3,6.46E2,1.119E3,2.103E3,3.562E3,5.28E2,3.76E2,8.69E2,7.97E2,3.04E2,3.42E2,5.27E2,5.92E2,3.47E2,1.756E3,1.688E3,1.874E3,2.81E2,2.47E2,1.32E2,2.44E2,3.76E2,4.93E2,3.48E2,4.49E2,1.22E2,1.82E2,1.9E2,1.52E2,1.82E2,3.45E2,3.59E2,2.33E2,1.59E2,1.88E2,6.82E2,1.074E3,8.41E2,8.47E2,1.276E3,5.98E2,1.16E2,1.6E1,1.5E2,2.26E2,2.44E2,2.49E2,2.26E2,2.23E2,1.15E2,7.5E1,8.1E1,7.1E1,8.2E1,1E2,1.1E2,2.35E2,1.48E2,2.11E2,1.23E2,1.1E2],"tree_param":{"num_deleted":"0","num_feature":"7","num_nodes":"67","size_leaf_vector":"1"}},{"base_weights":[8.449224E-5,9.176962E-2,-3.0290108E-2,6.687919E-2,1.5107702E-1,2.2224567E-3,-4.0362816E-2,8.7393925E-2,5.0339762E-2,1.3612351E-1,1.9543885E-1,1.7922435E-2,-7.7036964E-3,-3.384108E-2,-4.3329485E-2,8.058176E-2,1.0253377E-2,4.1947093E-2,5.936147E-2,1.5133582E-2,1.2307263E-1,1.8609675E-2,2.5233625E-2,1.1495272E-2,2.4447823E-2,-2.4751117E-3,-1.1589803E-2,-2.4012478E-2,-3.6158256E-2,-4.054669E-3,-4.5470446E-2,7.530905E-3,8.613482E-3,3.7478637E-3,4.6628215E-3,5.385974E-3,6.368571E-3,1.1444862E-2,1.2897553E-2,1.4162585E-2,7.73364E-3,2.1553475E-2,2.8812266E-3,1.6072151E-3,-4.4563888E-3,-9.521745E-3,-1.4674414E-2,-2.0605975E-3,-2.6514367E-3,-3.2658668E-3,-3.6851398E-3,-4.3869778E-3,-4.6929475E-3,1.5412066E-3,1.2246694E-3,9.241704E-4,6.034383E-4,2.2839902E-3,1.855015E-3,2.9781403E-4,-1.5023724E-5,-3.0779603E-4,-5.8327586E-4,-8.4557495E-4,-1.1061211E-3,-1.3304258E-3,-1.6082771E-3],"categories":[],"categories_nodes":[],"categories_segments":[],"categories_sizes":[],"default_left":[0,0,0,0,0,0,0,0,0,0,0,0,0,0,0,0,0,0,0,0,0,0,0,0,0,0,0,0,0,0,0,0,0,0,0,0,0,0,0,0,0,0,0,0,0,0,0,0,0,0,0,0,0,0,0,0,0,0,0,0,0,0,0,0,0,0,0],"id":8,"left_children":[1,3,5,7,9,11,13,15,17,19,21,23,25,27,29,31,-1,33,35,-1,37,-1,-1,39,41,43,45,47,49,-1,51,-1,-1,-1,-1,-1,-1,-1,-1,53,55,57,-1,59,61,63,65,-1,-1,-1,-1,-1,-1,-1,-1,-1,-1,-1,-1,-1,-1,-1,-1,-1,-1,-1,-1],"loss_changes":[2.7854555E1,3.6641254E0,2.4605193E0,5.910759E-1,4.6096992E-1,2.7722228E-1,1.0951233E-1,7.23896E-2,7.125759E-2,9.1163635E-2,5.031252E-2,2.861546E-2,2.2118844E-2,4.008031E-2,2.1624565E-2,9.441614E-3,0E0,8.878529E-3,7.680297E-3,0E0,6.637573E-4,0E0,0E0,3.392145E-3,3.6865622E-3,3.7762732E-3,3.8472489E-3,2.4024993E-3,2.321124E-3,0E0,3.121376E-3,0E0,0E0,0E0,0E0,0E0,0E0,0E0,0E0,2.9720739E-4,3.2093283E-4,3.837943E-4,0E0,3.690757E-4,5.7777576E-4,5.2515045E-4,2.6652217E-4,0E0,0E0,0E0,0E0,0E0,0E0,0E0,0E0,0E0,0E0,0E0,0E0,0E0,0E0,0E0,0E0,0E0,0E0,0E0,0E0],"parents":[2147483647,0,0,1,1,2,2,3,3,4,4,5,5,6,6,7,7,8,8,9,9,10,10,11,11,12,12,13,13,14,14,15,15,17,17,18,18,20,20,23,23,24,24,25,25,26,26,27,27,28,28,30,30,39,39,40,40,41,41,43,43,44,44,45,45,46,46],"right_children":[2,4,6,8,10,12,14,16,18,20,22,24,26,28,30,32,-1,34,36,-1,38,-1,-1,40,42,44,46,48,50,-1,52,-1,-1,-1,-1,-1,-1,-1,-1,54,56,58,-1,60,62,64,66,-1,-1,-1,-1,-1,-1,-1,-1,-1,-1,-1,-1,-1,-1,-1,-1,-1,-1,-1,-1],"split_conditions":[7.63E-1,2.11E-1,8.81E-1,6.78E-1,2.795E-1,8.28E-1,9.28E-1,1.91E-1,5.6E-1,5.13E-1,3.395E-1,4.08E-1,8.55E-1,9.08E-1,9.38E-1,1.755E-1,1.0253377E-2,5.2E-1,5.94E-1,1.5133582E-2,2.195E-1,1.8609675E-2,2.5233625E-2,8.14E-1,4.44E-1,8.42E-1,8.67E-1,8.93E-1,9.21E-1,-4.054669E-3,9.44E-1,7.530905E-3,8.613482E-3,3.7478637E-3,4.6628215E-3,5.385974E-3,6.368571E-3,1.1444862E-2,1.2897553E-2,8.07E-1,8.21E-1,7.92E-1,2.8812266E-3,8.36E-1,8.5E-1,8.62E-1,8.72E-1,-2.0605975E-3,-2.6514367E-3,-3.2658668E-3,-3.6851398E-3,-4.3869778E-3,-4.6929475E-3,1.5412066E-3,1.2246694E-3,9.241704E-4,6.034383E-4,2.2839902E-3,1.855015E-3,2.9781403E-4,-1.5023724E-5,-3.0779603E-4,-5.8327586E-4,-8.4557495E-4,-1.1061211E-3,-1.3304258E-3,-1.6082771E-3],"split_indices":[3,5,3,3,5,3,3,5,6,3,5,6,3,3,3,5,0,6,6,0,5,0,0,3,6,3,3,3,3,0,3,0,0,0,0,0,0,0,0,3,3,3,0,3,3,3,3,0,0,0,0,0,0,0,0,0,0,0,0,0,0,0,0,0,0,0,0],"split_type":[0,0,0,0,0,0,0,0,0,0,0,0,0,0,0,0,0,0,0,0,0,0,0,0,0,0,0,0,0,0,0,0,0,0,0,0,0,0,0,0,0,0,0,0,0,0,0,0,0,0,0,0,0,0,0,0,0,0,0,0,0,0,0,0,0,0,0],"sum_hessian":[1E4,2.488E3,7.512E3,1.754E3,7.34E2,1.777E3,5.735E3,7.81E2,9.73E2,5.52E2,1.82E2,6.88E2,1.089E3,1.797E3,3.938E3,5.43E2,2.38E2,5.07E2,4.66E2,2.5E2,3.02E2,1.6E2,2.2E1,3.48E2,3.4E2,4.65E2,6.24E2,3.45E2,1.452E3,1.721E3,2.217E3,2.86E2,2.57E2,2.64E2,2.43E2,2.11E2,2.55E2,1.31E2,1.71E2,2.02E2,1.46E2,2.08E2,1.32E2,1.52E2,3.13E2,3.76E2,2.48E2,1.5E2,1.95E2,2.48E2,1.204E3,1.072E3,1.145E3,1.18E2,8.4E1,7.5E1,7.1E1,1.41E2,6.7E1,8.5E1,6.7E1,1.58E2,1.55E2,2.26E2,1.5E2,1.31E2,1.17E2],"tree_param":{"num_deleted":"0","num_feature":"7","num_nodes":"67","size_leaf_vector":"1"}},{"base_weights":[8.713083E-5,-2.7907744E-2,8.074754E-2,-2.9094961E-5,-3.6562618E-2,5.5888895E-2,1.3014044E-1,1.3867083E-2,-7.982149E-3,-3.2326613E-2,-3.983331E-2,4.1566353E-2,7.2902136E-2,1.13214195E-1,1.6547848E-1,1.879133E-2,8.277312E-3,-3.5720973E-3,-1.18953455E-2,-2.4279507E-2,-3.382548E-2,-3.8239446E-2,-4.2022946E-3,3.3224232E-2,4.8288923E-2,6.6136666E-2,8.208552E-2,1.01934604E-1,1.272572E-2,1.5646565E-1,2.108863E-2,2.1449117E-2,1.5480748E-3,1.0938165E-2,5.6145326E-3,-3.546553E-4,-5.2634836E-3,-9.768361E-3,-1.5116793E-2,-2.128961E-2,-2.722131E-3,-3.2404363E-3,-3.5051543E-3,-3.7095305E-3,-3.910866E-3,3.624074E-3,2.8619845E-3,4.4286936E-3,5.2451864E-3,7.0804055E-3,6.1602667E-3,7.882348E-3,8.9714965E-3,9.626699E-3,1.0763908E-2,1.4484932E-2,1.665719E-2,2.2775007E-3,1.9321287E-3,1.1955685E-3,9.790111E-4,6.8637624E-4,4.1138195E-4,1.1031005E-4,-1.5491016E-4,-3.9103572E-4,-6.291237E-4,-8.390218E-4,-1.0690885E-3,-1.3494763E-3,-1.6792605E-3,-1.8047596E-3,-2.2016668E-3],"categories":[],"categories_nodes":[],"categories_segments":[],"categories_sizes":[],"default_left":[0,0,0,0,0,0,0,0,0,0,0,0,0,0,0,0,0,0,0,0,0,0,0,0,0,0,0,0,0,0,0,0,0,0,0,0,0,0,0,0,0,0,0,0,0,0,0,0,0,0,0,0,0,0,0,0,0,0,0,0,0,0,0,0,0,0,0,0,0,0,0,0,0],"id":9,"left_children":[1,3,5,7,9,11,13,15,17,19,21,23,25,27,29,31,33,35,37,39,41,43,-1,45,47,49,51,53,-1,55,-1,57,-1,59,61,63,65,67,69,71,-1,-1,-1,-1,-1,-1,-1,-1,-1,-1,-1,-1,-1,-1,-1,-1,-1,-1,-1,-1,-1,-1,-1,-1,-1,-1,-1,-1,-1,-1,-1,-1,-1],"loss_changes":[2.258529E1,1.7915487E0,3.1568718E0,1.946207E-1,7.721281E-2,4.1511297E-1,4.968624E-1,1.7488234E-2,1.9285798E-2,2.9018879E-2,9.536266E-3,5.0774932E-2,4.3218613E-2,7.98502E-2,8.0366135E-2,2.6595518E-3,2.0783376E-3,2.8714766E-3,3.9155483E-3,2.8683841E-3,2.4933815E-3,3.9815903E-4,0E0,4.7962368E-3,6.256938E-3,5.2882433E-3,1.0914803E-3,3.0708313E-4,0E0,3.460884E-3,0E0,8.47131E-5,0E0,5.817786E-5,2.5859848E-4,3.203504E-4,4.5657437E-4,3.6799163E-4,4.0945038E-4,7.172674E-5,0E0,0E0,0E0,0E0,0E0,0E0,0E0,0E0,0E0,0E0,0E0,0E0,0E0,0E0,0E0,0E0,0E0,0E0,0E0,0E0,0E0,0E0,0E0,0E0,0E0,0E0,0E0,0E0,0E0,0E0,0E0,0E0,0E0],"parents":[2147483647,0,0,1,1,2,2,3,3,4,4,5,5,6,6,7,7,8,8,9,9,10,10,11,11,12,12,13,13,14,14,15,15,16,16,17,17,18,18,19,19,20,20,21,21,23,23,24,24,25,25,26,26,27,27,29,29,31,31,33,33,34,34,35,35,36,36,37,37,38,38,39,39],"right_children":[2,4,6,8,10,12,14,16,18,20,22,24,26,28,30,32,34,36,38,40,42,44,-1,46,48,50,52,54,-1,56,-1,58,-1,60,62,64,66,68,70,72,-1,-1,-1,-1,-1,-1,-1,-1,-1,-1,-1,-1,-1,-1,-1,-1,-1,-1,-1,-1,-1,-1,-1,-1,-1,-1,-1,-1,-1,-1,-1,-1,-1],"split_conditions":[4.52E-1,8.87E-1,2E0,8.32E-1,9.32E-1,1.545E-1,2.58E-1,8.05E-1,8.58E-1,9.16E-1,9.43E-1,5.32E-1,1.775E-1,2.25E-1,3.045E-1,7.92E-1,8.17E-1,8.46E-1,8.7E-1,9.02E-1,9.26E-1,9.37E-1,-4.2022946E-3,7.55E-1,5.74E-1,6.68E-1,1.93E-1,2.14E-1,1.272572E-2,2.835E-1,2.108863E-2,7.84E-1,1.5480748E-3,8.1E-1,8.25E-1,8.4E-1,8.52E-1,8.63E-1,8.78E-1,8.9E-1,-2.722131E-3,-3.2404363E-3,-3.5051543E-3,-3.7095305E-3,-3.910866E-3,3.624074E-3,2.8619845E-3,4.4286936E-3,5.2451864E-3,7.0804055E-3,6.1602667E-3,7.882348E-3,8.9714965E-3,9.626699E-3,1.0763908E-2,1.4484932E-2,1.665719E-2,2.2775007E-3,1.9321287E-3,1.1955685E-3,9.790111E-4,6.8637624E-4,4.1138195E-4,1.1031005E-4,-1.5491016E-4,-3.9103572E-4,-6.291237E-4,-8.390218E-4,-1.0690885E-3,-1.3494763E-3,-1.6792605E-3,-1.8047596E-3,-2.2016668E-3],"split_indices":[6,3,0,3,3,5,5,3,3,3,3,6,5,5,5,3,3,3,3,3,3,3,0,3,6,3,5,5,0,5,0,3,0,3,3,3,3,3,3,3,0,0,0,0,0,0,0,0,0,0,0,0,0,0,0,0,0,0,0,0,0,0,0,0,0,0,0,0,0,0,0,0,0],"split_type":[0,0,0,0,0,0,0,0,0,0,0,0,0,0,0,0,0,0,0,0,0,0,0,0,0,0,0,0,0,0,0,0,0,0,0,0,0,0,0,0,0,0,0,0,0,0,0,0,0,0,0,0,0,0,0,0,0,0,0,0,0,0,0,0,0,0,0,0,0,0,0,0,0],"sum_hessian":[1E4,7.424E3,2.576E3,1.759E3,5.665E3,1.715E3,8.61E2,6.4E2,1.119E3,2.473E3,3.192E3,9.33E2,7.82E2,5.85E2,2.76E2,3.39E2,3.01E2,5.27E2,5.92E2,3.91E2,2.082E3,1.858E3,1.334E3,4.19E2,5.14E2,4.55E2,3.27E2,3.29E2,2.56E2,2.34E2,4.2E1,1.85E2,1.54E2,1.49E2,1.52E2,1.82E2,3.45E2,3.59E2,2.33E2,1.98E2,1.93E2,9.77E2,1.105E3,8.21E2,1.037E3,2.49E2,1.7E2,2.68E2,2.46E2,2.17E2,2.38E2,2.37E2,9E1,1.74E2,1.55E2,1.16E2,1.18E2,1.08E2,7.7E1,7.4E1,7.5E1,8.1E1,7.1E1,8.2E1,1E2,1.51E2,1.94E2,1.48E2,2.11E2,1.23E2,1.1E2,4.1E1,1.57E2],"tree_param":{"num_deleted":"0","num_feature":"7","num_nodes":"73","size_leaf_vector":"1"}},{"base_weights":[8.935016E-5,-2.4489388E-2,7.459826E-2,1.9039654E-3,-3.270313E-2,5.34502E-2,1.20562725E-1,1.46475015E-2,-6.2466296E-3,-2.6996383E-2,-3.4938812E-2,6.903102E-2,4.0273435E-2,1.0553308E-1,1.50973E-1,9.651551E-3,2.0303471E-2,-1.9994706E-3,-9.403316E-3,-1.8822523E-2,-2.887934E-2,-3.2698575E-2,-3.6843117E-2,7.820056E-2,6.248792E-2,3.332938E-2,4.6655014E-2,9.424503E-3,1.1580691E-2,1.4471985E-1,2.08028E-2,1.18023185E-2,6.279271E-3,1.7959414E-2,2.3569963E-3,8.59649E-4,-3.8848685E-3,-7.874775E-3,-1.2181429E-2,-1.6039814E-3,-2.0324274E-3,-2.6139333E-3,-2.962299E-3,-3.1886285E-3,-3.3755605E-3,-3.5853535E-3,-3.859343E-3,7.243017E-3,8.292777E-3,5.7043396E-3,6.5493197E-3,2.9699646E-3,3.6266427E-3,4.2938315E-3,5.0764265E-3,1.32179335E-2,1.5373552E-2,1.3225739E-3,1.033851E-3,7.521435E-4,4.8808855E-4,1.9244511E-3,1.6157692E-3,2.4347287E-4,-4.900194E-5,-2.9631122E-4,-4.873936E-4,-6.87288E-4,-9.0945273E-4,-1.1081522E-3,-1.3038287E-3],"categories":[],"categories_nodes":[],"categories_segments":[],"categories_sizes":[],"default_left":[0,0,0,0,0,0,0,0,0,0,0,0,0,0,0,0,0,0,0,0,0,0,0,0,0,0,0,0,0,0,0,0,0,0,0,0,0,0,0,0,0,0,0,0,0,0,0,0,0,0,0,0,0,0,0,0,0,0,0,0,0,0,0,0,0,0,0,0,0,0,0],"id":10,"left_children":[1,3,5,7,9,11,13,15,17,19,21,23,25,27,29,31,33,35,37,39,41,43,45,47,49,51,53,-1,-1,55,-1,57,59,61,-1,63,65,67,69,-1,-1,-1,-1,-1,-1,-1,-1,-1,-1,-1,-1,-1,-1,-1,-1,-1,-1,-1,-1,-1,-1,-1,-1,-1,-1,-1,-1,-1,-1,-1,-1],"loss_changes":[1.8317007E1,1.6305265E0,2.4052353E0,1.8559867E-1,7.22394E-2,3.464427E-1,3.410282E-1,1.9499138E-2,1.4594775E-2,2.4374485E-2,1.6363144E-2,4.179144E-2,3.939116E-2,5.0086975E-2,6.1228275E-2,2.6240014E-3,2.072826E-3,2.515349E-3,2.5581121E-3,9.527579E-4,1.9030571E-3,5.559921E-4,2.4578571E-3,2.7223825E-3,3.7744045E-3,3.6775172E-3,5.136013E-3,0E0,0E0,6.1359406E-3,0E0,3.3415854E-4,2.186317E-4,1.3823062E-4,0E0,3.9659836E-4,2.4173968E-4,4.336536E-4,6.285682E-5,0E0,0E0,0E0,0E0,0E0,0E0,0E0,0E0,0E0,0E0,0E0,0E0,0E0,0E0,0E0,0E0,0E0,0E0,0E0,0E0,0E0,0E0,0E0,0E0,0E0,0E0,0E0,0E0,0E0,0E0,0E0,0E0],"parents":[2147483647,0,0,1,1,2,2,3,3,4,4,5,5,6,6,7,7,8,8,9,9,10,10,11,11,12,12,13,13,14,14,15,15,16,16,17,17,18,18,19,19,20,20,21,21,22,22,23,23,24,24,25,25,26,26,29,29,31,31,32,32,33,33,35,35,36,36,37,37,38,38],"right_children":[2,4,6,8,10,12,14,16,18,20,22,24,26,28,30,32,34,36,38,40,42,44,46,48,50,52,54,-1,-1,56,-1,58,60,62,-1,64,66,68,70,-1,-1,-1,-1,-1,-1,-1,-1,-1,-1,-1,-1,-1,-1,-1,-1,-1,-1,-1,-1,-1,-1,-1,-1,-1,-1,-1,-1,-1,-1,-1,-1],"split_conditions":[4.78E-1,8.81E-1,2.07E-1,8.28E-1,9.27E-1,6.82E-1,2.6E-1,4.12E-1,8.55E-1,9.05E-1,9.38E-1,6.39E-1,5.52E-1,9.3E-1,3.395E-1,8.14E-1,4.46E-1,8.44E-1,8.68E-1,8.9E-1,9.21E-1,9.33E-1,9.46E-1,7.74E-1,1.675E-1,5.12E-1,5.92E-1,9.424503E-3,1.1580691E-2,2.85E-1,2.08028E-2,8.05E-1,8.21E-1,7.88E-1,2.3569963E-3,8.36E-1,8.51E-1,8.62E-1,8.72E-1,-1.6039814E-3,-2.0324274E-3,-2.6139333E-3,-2.962299E-3,-3.1886285E-3,-3.3755605E-3,-3.5853535E-3,-3.859343E-3,7.243017E-3,8.292777E-3,5.7043396E-3,6.5493197E-3,2.9699646E-3,3.6266427E-3,4.2938315E-3,5.0764265E-3,1.32179335E-2,1.5373552E-2,1.3225739E-3,1.033851E-3,7.521435E-4,4.8808855E-4,1.9244511E-3,1.6157692E-3,2.4347287E-4,-4.900194E-5,-2.9631122E-4,-4.873936E-4,-6.87288E-4,-9.0945273E-4,-1.1081522E-3,-1.3038287E-3],"split_indices":[6,3,5,3,3,3,5,6,3,3,3,3,6,6,5,3,6,3,3,3,3,3,3,6,5,6,6,0,0,5,0,3,3,3,0,3,3,3,3,0,0,0,0,0,0,0,0,0,0,0,0,0,0,0,0,0,0,0,0,0,0,0,0,0,0,0,0,0,0,0,0],"split_type":[0,0,0,0,0,0,0,0,0,0,0,0,0,0,0,0,0,0,0,0,0,0,0,0,0,0,0,0,0,0,0,0,0,0,0,0,0,0,0,0,0,0,0,0,0,0,0,0,0,0,0,0,0,0,0,0,0,0,0,0,0,0,0,0,0,0,0,0,0,0,0],"sum_hessian":[1E4,7.52E3,2.48E3,1.785E3,5.735E3,1.7E3,7.8E2,6.96E2,1.089E3,1.618E3,4.117E3,7.77E2,9.23E2,5.25E2,2.55E2,3.71E2,3.25E2,4.65E2,6.24E2,3.05E2,1.313E3,1.9E3,2.217E3,3.19E2,4.58E2,4.45E2,4.78E2,2.55E2,2.7E2,2.33E2,2.2E1,2.25E2,1.46E2,1.93E2,1.32E2,1.85E2,2.8E2,4.05E2,2.19E2,1.11E2,1.94E2,2.88E2,1.025E3,1.092E3,8.08E2,1.43E3,7.87E2,1.51E2,1.68E2,1.7E2,2.88E2,2.04E2,2.41E2,2.57E2,2.21E2,1.04E2,1.29E2,1.1E2,1.15E2,7.5E1,7.1E1,1.07E2,8.6E1,8.5E1,1E2,1.47E2,1.33E2,2.26E2,1.79E2,1.02E2,1.17E2],"tree_param":{"num_deleted":"0","num_feature":"7","num_nodes":"71","size_leaf_vector":"1"}},{"base_weights":[8.9995854E-5,6.70411E-2,-2.2090409E-2,1.1143003E-1,4.919284E-2,1.6224075E-3,-2.943687E-2,1.0065785E-1,1.4447235E-1,3.7494816E-2,6.527245E-2,1.3087352E-2,-5.626188E-3,-2.5002774E-2,-3.17785E-2,9.082178E-3,1.1199787E-2,1.3826153E-2,2.0513361E-2,3.13633E-2,4.500805E-2,5.9934177E-2,7.5397785E-3,8.381109E-3,1.7865626E-2,-2.0660248E-3,-8.695959E-3,-1.7903224E-2,-2.6654096E-2,-3.020858E-2,-3.3666067E-2,3.4933414E-3,2.742085E-2,4.0704682E-3,4.7955234E-3,5.637772E-3,6.355288E-3,1.0310437E-2,5.659785E-3,1.5035981E-3,2.0198334E-2,7.7472714E-4,-3.705632E-3,-7.3027345E-3,-1.0974253E-2,-1.5642162E-2,-2.0277735E-3,-2.4568927E-3,-2.726735E-3,-2.923468E-3,-3.1153124E-3,-3.2989667E-3,-3.5608092E-3,2.4767907E-3,2.8676442E-3,1.1204322E-3,8.937699E-4,6.779196E-4,4.3995772E-4,2.1494052E-3,1.82041E-3,2.1940896E-4,-4.4150944E-5,-2.6688047E-4,-4.5662347E-4,-6.4095034E-4,-8.1901316E-4,-1.0240636E-3,-1.2061781E-3,-1.4450158E-3,-1.6996904E-3],"categories":[],"categories_nodes":[],"categories_segments":[],"categories_sizes":[],"default_left":[0,0,0,0,0,0,0,0,0,0,0,0,0,0,0,0,0,0,0,0,0,0,0,0,0,0,0,0,0,0,0,0,0,0,0,0,0,0,0,0,0,0,0,0,0,0,0,0,0,0,0,0,0,0,0,0,0,0,0,0,0,0,0,0,0,0,0,0,0,0,0],"id":11,"left_children":[1,3,5,7,9,11,13,15,17,19,21,23,25,27,29,-1,-1,-1,-1,31,33,35,-1,37,39,41,43,45,47,49,51,-1,53,-1,-1,-1,-1,55,57,-1,59,61,63,65,67,69,-1,-1,-1,-1,-1,-1,-1,-1,-1,-1,-1,-1,-1,-1,-1,-1,-1,-1,-1,-1,-1,-1,-1,-1,-1],"loss_changes":[1.485299E1,1.966466E0,1.308852E0,2.392416E-1,3.318057E-1,1.4783385E-1,5.876255E-2,5.017233E-2,3.681636E-2,4.6084046E-2,3.5857677E-2,1.5344307E-2,1.189452E-2,2.281773E-2,1.0095358E-2,0E0,0E0,0E0,0E0,7.0789456E-3,3.894806E-3,2.7747154E-3,0E0,1.7740075E-3,1.9471645E-3,2.3596755E-3,1.7767474E-3,1.7122626E-3,1.3887882E-3,9.815693E-4,1.0504723E-3,0E0,2.09108E-4,0E0,0E0,0E0,0E0,1.4895387E-4,1.7754594E-4,0E0,8.416921E-5,3.2205688E-4,2.7424097E-4,2.3761392E-4,5.200319E-5,7.413328E-5,0E0,0E0,0E0,0E0,0E0,0E0,0E0,0E0,0E0,0E0,0E0,0E0,0E0,0E0,0E0,0E0,0E0,0E0,0E0,0E0,0E0,0E0,0E0,0E0,0E0],"parents":[2147483647,0,0,1,1,2,2,3,3,4,4,5,5,6,6,7,7,8,8,9,9,10,10,11,11,12,12,13,13,14,14,19,19,20,20,21,21,23,23,24,24,25,25,26,26,27,27,28,28,29,29,30,30,32,32,37,37,38,38,40,40,41,41,42,42,43,43,44,44,45,45],"right_children":[2,4,6,8,10,12,14,16,18,20,22,24,26,28,30,-1,-1,-1,-1,32,34,36,-1,38,40,42,44,46,48,50,52,-1,54,-1,-1,-1,-1,56,58,-1,60,62,64,66,68,70,-1,-1,-1,-1,-1,-1,-1,-1,-1,-1,-1,-1,-1,-1,-1,-1,-1,-1,-1,-1,-1,-1,-1,-1,-1],"split_conditions":[7.63E-1,5.77E-1,8.81E-1,2.81E-1,1.64E-1,8.28E-1,9.29E-1,2.455E-1,1.414E0,5.7E-1,1.915E-1,4.08E-1,8.56E-1,9.1E-1,9.41E-1,9.082178E-3,1.1199787E-2,1.3826153E-2,2.0513361E-2,7.4E-1,1.51E-1,1.77E-1,7.5397785E-3,8.14E-1,4.36E-1,8.44E-1,8.68E-1,8.97E-1,9.22E-1,9.35E-1,9.48E-1,3.4933414E-3,4.94E-1,4.0704682E-3,4.7955234E-3,5.637772E-3,6.355288E-3,8.07E-1,8.21E-1,1.5035981E-3,7.77E-1,8.36E-1,8.51E-1,8.62E-1,8.75E-1,8.9E-1,-2.0277735E-3,-2.4568927E-3,-2.726735E-3,-2.923468E-3,-3.1153124E-3,-3.2989667E-3,-3.5608092E-3,2.4767907E-3,2.8676442E-3,1.1204322E-3,8.937699E-4,6.779196E-4,4.3995772E-4,2.1494052E-3,1.82041E-3,2.1940896E-4,-4.4150944E-5,-2.6688047E-4,-4.5662347E-4,-6.4095034E-4,-8.1901316E-4,-1.0240636E-3,-1.2061781E-3,-1.4450158E-3,-1.6996904E-3],"split_indices":[3,3,3,5,5,3,3,5,6,6,5,6,3,3,3,0,0,0,0,3,5,5,0,3,6,3,3,3,3,3,3,0,6,0,0,0,0,3,3,0,3,3,3,3,3,3,0,0,0,0,0,0,0,0,0,0,0,0,0,0,0,0,0,0,0,0,0,0,0,0,0],"split_type":[0,0,0,0,0,0,0,0,0,0,0,0,0,0,0,0,0,0,0,0,0,0,0,0,0,0,0,0,0,0,0,0,0,0,0,0,0,0,0,0,0,0,0,0,0,0,0,0,0,0,0,0,0,0,0,0,0,0,0,0,0,0,0,0,0,0,0,0,0,0,0],"sum_hessian":[1E4,2.488E3,7.512E3,7.12E2,1.776E3,1.777E3,5.735E3,5.4E2,1.72E2,1.03E3,7.46E2,6.88E2,1.089E3,1.986E3,3.749E3,2.94E2,2.46E2,1.59E2,1.3E1,5.7E2,4.6E2,4.93E2,2.53E2,3.48E2,3.4E2,5.05E2,5.84E2,3.77E2,1.609E3,2.056E3,1.693E3,2.95E2,2.75E2,1.93E2,2.67E2,2.57E2,2.36E2,2.02E2,1.46E2,1.57E2,1.83E2,1.85E2,3.2E2,3.65E2,2.19E2,1.97E2,1.8E2,3.75E2,1.234E3,1.028E3,1.028E3,1.269E3,4.24E2,9.5E1,1.8E2,1.18E2,8.4E1,7.5E1,7.1E1,1.05E2,7.8E1,8.5E1,1E2,1.47E2,1.73E2,1.86E2,1.79E2,1.37E2,8.2E1,1.11E2,8.6E1],"tree_param":{"num_deleted":"0","num_feature":"7","num_nodes":"71","size_leaf_vector":"1"}},{"base_weights":[8.82932E-5,-1.9841341E-2,6.050373E-2,1.5461445E-3,-2.6497236E-2,4.4621754E-2,1.0092871E-1,1.2278459E-2,-4.831436E-3,-2.186003E-2,-2.831393E-2,3.3708118E-2,5.8805406E-2,8.986814E-2,1.2696265E-1,8.549215E-3,1.691113E-2,-1.0707563E-3,-7.4857506E-3,-1.5234609E-2,-2.33863E-2,-2.6629232E-2,-2.9992227E-2,2.7781516E-2,3.9745547E-2,5.395861E-2,6.8515553E-3,8.070725E-3,9.780253E-3,1.215324E-2,1.801853E-2,1.0313081E-2,6.0792775E-3,1.5012819E-3,1.9124756E-3,1.4952734E-3,-2.741248E-3,-5.946411E-3,-9.449546E-3,-1.3018049E-3,-1.6429585E-3,-2.0569328E-3,-2.3867653E-3,-2.5846022E-3,-2.7482545E-3,-2.929737E-3,-3.1632315E-3,2.4931755E-2,3.099503E-3,3.6167041E-3,4.3013818E-3,5.783586E-3,5.083962E-3,1.1510904E-3,9.191569E-4,7.1443216E-4,5.018026E-4,3.0514292E-4,4.90508E-5,-1.7430815E-4,-3.418171E-4,-4.8591636E-4,-6.540638E-4,-8.251832E-4,-1.0297516E-3,2.6188002E-3,2.2847212E-3],"categories":[],"categories_nodes":[],"categories_segments":[],"categories_sizes":[],"default_left":[0,0,0,0,0,0,0,0,0,0,0,0,0,0,0,0,0,0,0,0,0,0,0,0,0,0,0,0,0,0,0,0,0,0,0,0,0,0,0,0,0,0,0,0,0,0,0,0,0,0,0,0,0,0,0,0,0,0,0,0,0,0,0,0,0,0,0],"id":12,"left_children":[1,3,5,7,9,11,13,15,17,19,21,23,25,27,29,31,33,35,37,39,41,43,45,47,49,51,-1,-1,-1,-1,-1,53,55,-1,-1,57,59,61,63,-1,-1,-1,-1,-1,-1,-1,-1,65,-1,-1,-1,-1,-1,-1,-1,-1,-1,-1,-1,-1,-1,-1,-1,-1,-1,-1,-1],"loss_changes":[1.204298E1,1.0706766E0,1.5883684E0,1.2230424E-1,4.7703743E-2,2.740178E-1,1.898675E-1,1.1361472E-2,1.1181833E-2,1.6015291E-2,1.0844946E-2,3.5035014E-2,3.2729626E-2,2.8013468E-2,3.7638187E-2,1.5536193E-3,9.567216E-4,1.997336E-3,1.9298866E-3,5.966276E-4,1.2907386E-3,6.6900253E-4,1.4150143E-3,3.9251745E-3,4.268706E-3,3.360033E-3,0E0,0E0,0E0,0E0,0E0,1.8302165E-4,1.4160387E-4,0E0,0E0,2.862004E-4,1.8458418E-4,2.0791125E-4,2.065096E-4,0E0,0E0,0E0,0E0,0E0,0E0,0E0,0E0,1.270473E-4,0E0,0E0,0E0,0E0,0E0,0E0,0E0,0E0,0E0,0E0,0E0,0E0,0E0,0E0,0E0,0E0,0E0,0E0,0E0],"parents":[2147483647,0,0,1,1,2,2,3,3,4,4,5,5,6,6,7,7,8,8,9,9,10,10,11,11,12,12,13,13,14,14,15,15,16,16,17,17,18,18,19,19,20,20,21,21,22,22,23,23,24,24,25,25,31,31,32,32,35,35,36,36,37,37,38,38,47,47],"right_children":[2,4,6,8,10,12,14,16,18,20,22,24,26,28,30,32,34,36,38,40,42,44,46,48,50,52,-1,-1,-1,-1,-1,54,56,-1,-1,58,60,62,64,-1,-1,-1,-1,-1,-1,-1,-1,66,-1,-1,-1,-1,-1,-1,-1,-1,-1,-1,-1,-1,-1,-1,-1,-1,-1,-1,-1],"split_conditions":[4.78E-1,8.81E-1,2.135E-1,8.25E-1,9.27E-1,1.635E-1,2.75E-1,4.16E-1,8.54E-1,9.05E-1,9.39E-1,5.62E-1,1.93E-1,2.415E-1,3.51E-1,8.1E-1,4.46E-1,8.42E-1,8.66E-1,8.9E-1,9.2E-1,9.33E-1,9.47E-1,5.24E-1,1.51E-1,6.45E-1,6.8515553E-3,8.070725E-3,9.780253E-3,1.215324E-2,1.801853E-2,8.02E-1,8.17E-1,1.5012819E-3,1.9124756E-3,8.32E-1,8.48E-1,8.58E-1,8.7E-1,-1.3018049E-3,-1.6429585E-3,-2.0569328E-3,-2.3867653E-3,-2.5846022E-3,-2.7482545E-3,-2.929737E-3,-3.1632315E-3,7.52E-1,3.099503E-3,3.6167041E-3,4.3013818E-3,5.783586E-3,5.083962E-3,1.1510904E-3,9.191569E-4,7.1443216E-4,5.018026E-4,3.0514292E-4,4.90508E-5,-1.7430815E-4,-3.418171E-4,-4.8591636E-4,-6.540638E-4,-8.251832E-4,-1.0297516E-3,2.6188002E-3,2.2847212E-3],"split_indices":[6,3,5,3,3,5,5,6,3,3,3,6,5,5,5,3,6,3,3,3,3,3,3,6,5,3,0,0,0,0,0,3,3,0,0,3,3,3,3,0,0,0,0,0,0,0,0,3,0,0,0,0,0,0,0,0,0,0,0,0,0,0,0,0,0,0,0],"split_type":[0,0,0,0,0,0,0,0,0,0,0,0,0,0,0,0,0,0,0,0,0,0,0,0,0,0,0,0,0,0,0,0,0,0,0,0,0,0,0,0,0,0,0,0,0,0,0,0,0,0,0,0,0,0,0,0,0,0,0,0,0,0,0,0,0,0,0],"sum_hessian":[1E4,7.52E3,2.48E3,1.785E3,5.735E3,1.782E3,6.98E2,6.65E2,1.12E3,1.618E3,4.117E3,1.009E3,7.73E2,4.93E2,2.05E2,3.7E2,2.95E2,4.64E2,6.56E2,3.05E2,1.313E3,2.063E3,2.054E3,5.12E2,4.97E2,5.2E2,2.53E2,2.34E2,2.59E2,1.89E2,1.6E1,2.14E2,1.56E2,1.63E2,1.32E2,1.83E2,2.81E2,3.7E2,2.86E2,1.11E2,1.94E2,1.98E2,1.115E3,1.092E3,9.71E2,1.456E3,5.98E2,2.76E2,2.36E2,2.43E2,2.54E2,2.24E2,2.96E2,9.9E1,1.15E2,7.5E1,8.1E1,7.1E1,1.12E2,1.15E2,1.66E2,1.34E2,2.36E2,1.23E2,1.63E2,1.65E2,1.11E2],"tree_param":{"num_deleted":"0","num_feature":"7","num_nodes":"67","size_leaf_vector":"1"}},{"base_weights":[8.610236E-5,-1.7811343E-2,5.4633077E-2,1.4871535E-3,-2.3850793E-2,9.197129E-2,4.0691614E-2,1.1166455E-2,-4.3511116E-3,-2.0251604E-2,-2.5751524E-2,8.3127186E-2,1.1837581E-1,3.0698521E-2,5.3703465E-2,7.703152E-3,1.5328935E-2,-9.6402864E-4,-6.7417393E-3,-1.4180083E-2,-2.1518653E-2,-2.4681985E-2,-2.7667819E-2,7.539611E-3,9.1791535E-3,1.1391449E-2,1.83544E-2,3.680412E-2,2.5803028E-2,4.896186E-2,6.220183E-3,9.2914E-3,5.479098E-3,1.7577095E-3,1.3721827E-2,1.3476675E-3,-2.4689508E-3,-5.215073E-3,-8.362722E-3,-1.213536E-3,-1.5683006E-2,-1.9709093E-3,-2.2099044E-3,-2.368362E-3,-2.5404345E-3,-2.7062672E-3,-2.8899868E-3,3.4006794E-3,3.975626E-3,2.8888006E-3,2.296971E-2,4.6204175E-3,5.2281586E-3,1.0371328E-3,8.2803296E-4,6.439286E-4,4.5223488E-4,1.2158684E-3,1.4479843E-3,2.7505212E-4,4.418875E-5,-1.5702704E-4,-3.0784E-4,-4.3768506E-4,-5.736546E-4,-7.337913E-4,-9.2740497E-4,-1.4679601E-3,-1.701278E-3,2.132991E-3,2.4427224E-3],"categories":[],"categories_nodes":[],"categories_segments":[],"categories_sizes":[],"default_left":[0,0,0,0,0,0,0,0,0,0,0,0,0,0,0,0,0,0,0,0,0,0,0,0,0,0,0,0,0,0,0,0,0,0,0,0,0,0,0,0,0,0,0,0,0,0,0,0,0,0,0,0,0,0,0,0,0,0,0,0,0,0,0,0,0,0,0,0,0,0,0],"id":13,"left_children":[1,3,5,7,9,11,13,15,17,19,21,23,25,27,29,31,33,35,37,39,41,43,45,-1,-1,-1,-1,47,49,51,-1,53,55,-1,57,59,61,63,65,-1,67,-1,-1,-1,-1,-1,-1,-1,-1,-1,69,-1,-1,-1,-1,-1,-1,-1,-1,-1,-1,-1,-1,-1,-1,-1,-1,-1,-1,-1,-1],"loss_changes":[9.764463E0,8.777909E-1,1.2825356E0,1.0154114E-1,3.871894E-2,1.468544E-1,2.3253298E-1,9.627089E-3,9.070525E-3,1.4980674E-2,7.0028305E-3,2.6973486E-2,2.7354002E-2,2.9567957E-2,2.8425694E-2,1.2595933E-3,8.6440146E-4,1.6210265E-3,1.582263E-3,8.729622E-4,1.28901E-3,1.1407137E-3,2.1326542E-4,0E0,0E0,0E0,0E0,2.3806691E-3,4.3186843E-3,2.2166967E-3,0E0,1.488775E-4,1.1510914E-4,0E0,4.0777028E-5,2.3258917E-4,1.4961755E-4,1.2394693E-4,2.2800639E-4,0E0,1.1790544E-5,0E0,0E0,0E0,0E0,0E0,0E0,0E0,0E0,0E0,2.0076334E-4,0E0,0E0,0E0,0E0,0E0,0E0,0E0,0E0,0E0,0E0,0E0,0E0,0E0,0E0,0E0,0E0,0E0,0E0,0E0,0E0],"parents":[2147483647,0,0,1,1,2,2,3,3,4,4,5,5,6,6,7,7,8,8,9,9,10,10,11,11,12,12,13,13,14,14,15,15,16,16,17,17,18,18,19,19,20,20,21,21,22,22,27,27,28,28,29,29,31,31,32,32,34,34,35,35,36,36,37,37,38,38,40,40,50,50],"right_children":[2,4,6,8,10,12,14,16,18,20,22,24,26,28,30,32,34,36,38,40,42,44,46,-1,-1,-1,-1,48,50,52,-1,54,56,-1,58,60,62,64,66,-1,68,-1,-1,-1,-1,-1,-1,-1,-1,-1,70,-1,-1,-1,-1,-1,-1,-1,-1,-1,-1,-1,-1,-1,-1,-1,-1,-1,-1,-1,-1],"split_conditions":[4.8E-1,8.81E-1,5.71E-1,8.25E-1,9.29E-1,2.825E-1,1.645E-1,4.16E-1,8.54E-1,9.08E-1,9.43E-1,2.475E-1,3.71E-1,7.15E-1,1.94E-1,8.1E-1,7.77E-1,8.42E-1,8.65E-1,8.93E-1,9.22E-1,9.35E-1,9.48E-1,7.539611E-3,9.1791535E-3,1.1391449E-2,1.83544E-2,1.535E-1,7.36E-1,1.785E-1,6.220183E-3,8.02E-1,8.17E-1,1.7577095E-3,4.28E-1,8.32E-1,8.48E-1,8.58E-1,8.7E-1,-1.213536E-3,9.02E-1,-1.9709093E-3,-2.2099044E-3,-2.368362E-3,-2.5404345E-3,-2.7062672E-3,-2.8899868E-3,3.4006794E-3,3.975626E-3,2.8888006E-3,5.06E-1,4.6204175E-3,5.2281586E-3,1.0371328E-3,8.2803296E-4,6.439286E-4,4.5223488E-4,1.2158684E-3,1.4479843E-3,2.7505212E-4,4.418875E-5,-1.5702704E-4,-3.0784E-4,-4.3768506E-4,-5.736546E-4,-7.337913E-4,-9.2740497E-4,-1.4679601E-3,-1.701278E-3,2.132991E-3,2.4427224E-3],"split_indices":[6,3,3,3,3,5,5,6,3,3,3,5,5,3,5,3,3,3,3,3,3,3,3,0,0,0,0,5,3,5,0,3,3,0,6,3,3,3,3,0,3,0,0,0,0,0,0,0,0,0,6,0,0,0,0,0,0,0,0,0,0,0,0,0,0,0,0,0,0,0,0],"split_type":[0,0,0,0,0,0,0,0,0,0,0,0,0,0,0,0,0,0,0,0,0,0,0,0,0,0,0,0,0,0,0,0,0,0,0,0,0,0,0,0,0,0,0,0,0,0,0,0,0,0,0,0,0,0,0,0,0,0,0,0,0,0,0,0,0,0,0,0,0,0,0],"sum_hessian":[1E4,7.53E3,2.47E3,1.795E3,5.735E3,6.7E2,1.8E3,6.75E2,1.12E3,1.986E3,3.749E3,5.05E2,1.65E2,1.02E3,7.8E2,3.7E2,3.05E2,4.64E2,6.56E2,3.45E2,1.641E3,2.415E3,1.334E3,2.72E2,2.33E2,1.57E2,8E0,4.51E2,5.69E2,5.05E2,2.75E2,2.14E2,1.56E2,1.23E2,1.82E2,1.83E2,2.81E2,3.4E2,3.16E2,1.5E2,1.95E2,4.07E2,1.234E3,1.028E3,1.387E3,9.1E2,4.24E2,2.38E2,2.13E2,2.68E2,3.01E2,2.84E2,2.21E2,9.9E1,1.15E2,7.5E1,8.1E1,6.5E1,1.17E2,7.1E1,1.12E2,1.15E2,1.66E2,1.34E2,2.06E2,1.53E2,1.63E2,1.18E2,7.7E1,1.49E2,1.52E2],"tree_param":{"num_deleted":"0","num_feature":"7","num_nodes":"71","size_leaf_vector":"1"}},{"base_weights":[8.3777806E-5,-1.6214145E-2,4.8653238E-2,7.4891216E-4,-2.1542206E-2,7.928759E-2,3.469071E-2,9.324576E-3,-4.3119267E-3,-1.8595865E-2,-2.3303302E-2,9.849095E-2,6.82875E-2,2.5497925E-2,4.462897E-2,5.965316E-3,1.2655834E-2,-1.6585682E-3,-6.724121E-3,-1.4001335E-2,-1.9724926E-2,-2.2333415E-2,-2.4905229E-2,9.200199E-3,1.2847838E-1,6.134658E-3,7.5066322E-3,2.945091E-2,2.0848664E-2,4.030749E-2,5.1008996E-2,7.3689255E-3,4.139192E-3,1.08188E-2,1.4574509E-3,5.76071E-4,-2.8313282E-3,-5.452198E-3,-8.350963E-3,-1.1891641E-2,-1.5688759E-3,-1.8736391E-3,-2.029418E-3,-2.1561217E-3,-2.2962429E-3,-2.4508247E-3,-2.65301E-3,1.1654753E-2,1.6722895E-2,2.740539E-3,3.210113E-3,2.2944254E-3,1.8849252E-2,3.6990398E-3,4.2918012E-3,4.792768E-3,5.4539847E-3,8.001781E-4,6.51536E-4,4.9878395E-4,3.1859084E-4,9.6871343E-4,1.1470207E-3,1.658593E-4,-3.5138415E-5,-1.9348225E-4,-3.4616754E-4,-4.775306E-4,-6.004787E-4,-7.6705223E-4,-9.814146E-4,-1.0685803E-3,-1.2551694E-3,1.9669712E-3,1.6554863E-3],"categories":[],"categories_nodes":[],"categories_segments":[],"categories_sizes":[],"default_left":[0,0,0,0,0,0,0,0,0,0,0,0,0,0,0,0,0,0,0,0,0,0,0,0,0,0,0,0,0,0,0,0,0,0,0,0,0,0,0,0,0,0,0,0,0,0,0,0,0,0,0,0,0,0,0,0,0,0,0,0,0,0,0,0,0,0,0,0,0,0,0,0,0,0,0],"id":14,"left_children":[1,3,5,7,9,11,13,15,17,19,21,23,25,27,29,31,33,35,37,39,41,43,45,-1,47,-1,-1,49,51,53,55,57,59,61,-1,63,65,67,69,71,-1,-1,-1,-1,-1,-1,-1,-1,-1,-1,-1,-1,73,-1,-1,-1,-1,-1,-1,-1,-1,-1,-1,-1,-1,-1,-1,-1,-1,-1,-1,-1,-1,-1,-1],"loss_changes":[7.9173937E0,6.768732E-1,1.0721421E0,7.77697E-2,2.9137611E-2,1.5930796E-1,1.5673256E-1,7.366229E-3,7.202117E-3,1.08096E-2,4.9796104E-3,4.3442488E-2,1.9061804E-2,1.59266E-2,2.080059E-2,8.230321E-4,1.0160357E-3,1.4115651E-3,1.1753067E-3,1.326412E-3,5.836487E-4,5.875826E-4,2.1088123E-4,0E0,2.7016401E-3,0E0,0E0,1.7440319E-3,1.3147295E-3,2.7334094E-3,9.871125E-4,4.8880465E-5,1.0303245E-4,1.7154962E-5,0E0,1.8732504E-4,1.9278587E-4,9.625591E-5,1.8059276E-4,1.948513E-5,0E0,0E0,0E0,0E0,0E0,0E0,0E0,0E0,0E0,0E0,0E0,0E0,8.663535E-5,0E0,0E0,0E0,0E0,0E0,0E0,0E0,0E0,0E0,0E0,0E0,0E0,0E0,0E0,0E0,0E0,0E0,0E0,0E0,0E0,0E0,0E0],"parents":[2147483647,0,0,1,1,2,2,3,3,4,4,5,5,6,6,7,7,8,8,9,9,10,10,11,11,12,12,13,13,14,14,15,15,16,16,17,17,18,18,19,19,20,20,21,21,22,22,24,24,27,27,28,28,29,29,30,30,31,31,32,32,33,33,35,35,36,36,37,37,38,38,39,39,52,52],"right_children":[2,4,6,8,10,12,14,16,18,20,22,24,26,28,30,32,34,36,38,40,42,44,46,-1,48,-1,-1,50,52,54,56,58,60,62,-1,64,66,68,70,72,-1,-1,-1,-1,-1,-1,-1,-1,-1,-1,-1,-1,74,-1,-1,-1,-1,-1,-1,-1,-1,-1,-1,-1,-1,-1,-1,-1,-1,-1,-1,-1,-1,-1,-1],"split_conditions":[4.68E-1,8.84E-1,5.88E-1,8.28E-1,9.3E-1,4.86E-1,1.565E-1,4.04E-1,8.57E-1,9.16E-1,9.43E-1,1.21E0,2.25E-1,7.3E-1,1.805E-1,8.14E-1,4.36E-1,8.44E-1,8.68E-1,8.99E-1,9.24E-1,9.36E-1,9.49E-1,9.200199E-3,3.71E-1,6.134658E-3,7.5066322E-3,5.84E-1,7.46E-1,1.675E-1,1.95E-1,8.07E-1,8.21E-1,4.16E-1,1.4574509E-3,8.36E-1,8.51E-1,8.62E-1,8.78E-1,8.9E-1,-1.5688759E-3,-1.8736391E-3,-2.029418E-3,-2.1561217E-3,-2.2962429E-3,-2.4508247E-3,-2.65301E-3,1.1654753E-2,1.6722895E-2,2.740539E-3,3.210113E-3,2.2944254E-3,7.58E-1,3.6990398E-3,4.2918012E-3,4.792768E-3,5.4539847E-3,8.001781E-4,6.51536E-4,4.9878395E-4,3.1859084E-4,9.6871343E-4,1.1470207E-3,1.658593E-4,-3.5138415E-5,-1.9348225E-4,-3.4616754E-4,-4.775306E-4,-6.004787E-4,-7.6705223E-4,-9.814146E-4,-1.0685803E-3,-1.2551694E-3,1.9669712E-3,1.6554863E-3],"split_indices":[6,3,3,3,3,3,5,6,3,3,3,6,5,3,5,3,6,3,3,3,3,3,3,0,5,0,0,6,3,5,5,3,3,6,0,3,3,3,3,3,0,0,0,0,0,0,0,0,0,0,0,0,3,0,0,0,0,0,0,0,0,0,0,0,0,0,0,0,0,0,0,0,0,0,0],"split_type":[0,0,0,0,0,0,0,0,0,0,0,0,0,0,0,0,0,0,0,0,0,0,0,0,0,0,0,0,0,0,0,0,0,0,0,0,0,0,0,0,0,0,0,0,0,0,0,0,0,0,0,0,0,0,0,0,0,0,0,0,0,0,0,0,0,0,0,0,0,0,0,0,0,0,0],"sum_hessian":[1E4,7.488E3,2.512E3,1.79E3,5.698E3,7.85E2,1.727E3,6.64E2,1.126E3,2.136E3,3.562E3,2.83E2,5.02E2,8.99E2,8.28E2,3.32E2,3.32E2,5.37E2,5.89E2,4.24E2,1.712E3,2.228E3,1.334E3,2.36E2,4.7E1,2.53E2,2.49E2,4.83E2,4.16E2,4.98E2,3.3E2,1.86E2,1.46E2,1.73E2,1.59E2,1.85E2,3.52E2,3.33E2,2.56E2,1.92E2,2.32E2,6.38E2,1.074E3,1.016E3,1.212E3,1.085E3,2.49E2,3.9E1,8E0,2.79E2,2.04E2,1.98E2,2.18E2,2.26E2,2.72E2,1.84E2,1.46E2,1.02E2,8.4E1,7.5E1,7.1E1,6.9E1,1.04E2,8.5E1,1E2,1.47E2,2.05E2,1.54E2,1.79E2,1.79E2,7.7E1,7.4E1,1.18E2,1.55E2,6.3E1],"tree_param":{"num_deleted":"0","num_feature":"7","num_nodes":"75","size_leaf_vector":"1"}},{"base_weights":[8.205758E-5,-1.4845085E-2,4.3090966E-2,-1.453729E-5,-1.94492E-2,2.9755242E-2,6.9588654E-2,7.4007995E-3,-4.2584804E-3,-1.7178098E-2,-2.1202805E-2,3.8903102E-2,2.2179797E-2,5.976844E-2,8.826083E-2,1.038067E-2,4.7816094E-3,-2.0429664E-3,-6.486215E-3,-1.2880351E-2,-1.7978644E-2,-2.0318352E-2,-2.241853E-2,3.4085072E-3,4.2524036E-2,1.7905146E-2,2.599513E-2,5.3484305E-3,6.645812E-3,8.178057E-3,1.13330506E-1,1.1857047E-3,8.9513196E-4,6.162753E-3,3.026185E-3,-4.7014616E-4,-3.1041573E-3,-5.509478E-3,-8.379212E-3,-1.1296496E-3,-1.4438635E-3,-1.7025511E-3,-1.8585221E-3,-1.9721477E-3,-2.077145E-3,-2.1911243E-3,-2.345317E-3,4.020614E-3,4.5759263E-3,1.5417131E-3,1.9571395E-3,2.3920215E-3,2.8082717E-3,1.0403785E-2,1.5236414E-2,6.7212596E-4,5.2292057E-4,3.670827E-4,2.2499794E-4,6.18307E-5,-1.08570406E-4,-2.4877355E-4,-3.6914414E-4,-4.739484E-4,-6.1441254E-4,-7.3724665E-4,-9.0111664E-4],"categories":[],"categories_nodes":[],"categories_segments":[],"categories_sizes":[],"default_left":[0,0,0,0,0,0,0,0,0,0,0,0,0,0,0,0,0,0,0,0,0,0,0,0,0,0,0,0,0,0,0,0,0,0,0,0,0,0,0,0,0,0,0,0,0,0,0,0,0,0,0,0,0,0,0,0,0,0,0,0,0,0,0,0,0,0,0],"id":15,"left_children":[1,3,5,7,9,11,13,15,17,19,21,23,25,27,29,31,33,35,37,39,41,43,45,-1,47,49,51,-1,-1,-1,53,-1,-1,55,57,59,61,63,65,-1,-1,-1,-1,-1,-1,-1,-1,-1,-1,-1,-1,-1,-1,-1,-1,-1,-1,-1,-1,-1,-1,-1,-1,-1,-1,-1,-1],"loss_changes":[6.4212823E0,5.069903E-1,9.0855265E-1,5.541919E-2,2.22013E-2,1.1805427E-1,1.527853E-1,4.9532726E-3,5.5145957E-3,8.280337E-3,2.977848E-3,1.2088537E-2,1.4881521E-2,2.0323753E-2,3.865671E-2,5.248301E-4,8.129515E-4,9.382225E-4,9.855554E-4,8.0438703E-4,8.878708E-4,9.3102455E-5,1.8680096E-4,0E0,1.4522076E-3,1.5513748E-3,1.4723539E-3,0E0,0E0,0E0,5.186498E-3,0E0,0E0,6.4439606E-5,6.829796E-5,1.5343267E-4,1.1245371E-4,1.5217811E-4,5.3173862E-5,0E0,0E0,0E0,0E0,0E0,0E0,0E0,0E0,0E0,0E0,0E0,0E0,0E0,0E0,0E0,0E0,0E0,0E0,0E0,0E0,0E0,0E0,0E0,0E0,0E0,0E0,0E0,0E0],"parents":[2147483647,0,0,1,1,2,2,3,3,4,4,5,5,6,6,7,7,8,8,9,9,10,10,11,11,12,12,13,13,14,14,15,15,16,16,17,17,18,18,19,19,20,20,21,21,22,22,24,24,25,25,26,26,30,30,33,33,34,34,35,35,36,36,37,37,38,38],"right_children":[2,4,6,8,10,12,14,16,18,20,22,24,26,28,30,32,34,36,38,40,42,44,46,-1,48,50,52,-1,-1,-1,54,-1,-1,56,58,60,62,64,66,-1,-1,-1,-1,-1,-1,-1,-1,-1,-1,-1,-1,-1,-1,-1,-1,-1,-1,-1,-1,-1,-1,-1,-1,-1,-1,-1,-1],"split_conditions":[4.52E-1,8.87E-1,2E0,8.32E-1,9.32E-1,6.91E-1,2.565E-1,8.02E-1,8.59E-1,9.16E-1,9.43E-1,1.725E-1,5.36E-1,2.225E-1,1.204E0,7.88E-1,8.17E-1,8.48E-1,8.72E-1,9.02E-1,9.25E-1,9.37E-1,9.48E-1,3.4085072E-3,1.845E-1,4.94E-1,5.76E-1,5.3484305E-3,6.645812E-3,8.178057E-3,3.71E-1,1.1857047E-3,8.9513196E-4,8.1E-1,8.25E-1,8.4E-1,8.54E-1,8.65E-1,8.78E-1,-1.1296496E-3,-1.4438635E-3,-1.7025511E-3,-1.8585221E-3,-1.9721477E-3,-2.077145E-3,-2.1911243E-3,-2.345317E-3,4.020614E-3,4.5759263E-3,1.5417131E-3,1.9571395E-3,2.3920215E-3,2.8082717E-3,1.0403785E-2,1.5236414E-2,6.7212596E-4,5.2292057E-4,3.670827E-4,2.2499794E-4,6.18307E-5,-1.08570406E-4,-2.4877355E-4,-3.6914414E-4,-4.739484E-4,-6.1441254E-4,-7.3724665E-4,-9.0111664E-4],"split_indices":[6,3,0,3,3,3,5,3,3,3,3,5,6,5,6,3,3,3,3,3,3,3,3,0,5,6,6,0,0,0,5,0,0,3,3,3,3,3,3,0,0,0,0,0,0,0,0,0,0,0,0,0,0,0,0,0,0,0,0,0,0,0,0,0,0,0,0],"split_type":[0,0,0,0,0,0,0,0,0,0,0,0,0,0,0,0,0,0,0,0,0,0,0,0,0,0,0,0,0,0,0,0,0,0,0,0,0,0,0,0,0,0,0,0,0,0,0,0,0,0,0,0,0,0,0,0,0,0,0,0,0,0,0,0,0,0,0],"sum_hessian":[1E4,7.424E3,2.576E3,1.759E3,5.665E3,1.715E3,8.61E2,6.4E2,1.119E3,2.473E3,3.192E3,7.75E2,9.4E2,5.67E2,2.94E2,2.98E2,3.42E2,5.62E2,5.57E2,3.91E2,2.082E3,1.858E3,1.334E3,3.37E2,4.38E2,4.46E2,4.94E2,2.97E2,2.7E2,2.37E2,5.7E1,1.43E2,1.55E2,1.9E2,1.52E2,2.27E2,3.35E2,3.7E2,1.87E2,1.98E2,1.93E2,8.21E2,1.261E3,8.21E2,1.037E3,9.1E2,4.24E2,2.63E2,1.75E2,1.83E2,2.63E2,2.54E2,2.4E2,4.9E1,8E0,1.15E2,7.5E1,8.1E1,7.1E1,8.2E1,1.45E2,1.66E2,1.69E2,1.71E2,1.99E2,7.7E1,1.1E2],"tree_param":{"num_deleted":"0","num_feature":"7","num_nodes":"67","size_leaf_vector":"1"}},{"base_weights":[7.9079306E-5,-1.2990929E-2,3.991322E-2,1.0843936E-3,-1.7395793E-2,2.9785581E-2,6.765771E-2,8.149684E-3,-3.1771772E-3,-1.4325912E-2,-1.8598497E-2,3.9426874E-2,2.249317E-2,6.2088702E-2,9.271122E-2,1.1034639E-2,5.494345E-3,-6.9817516E-4,-4.926886E-3,-9.991685E-3,-1.532435E-2,-1.7569823E-2,-1.9819694E-2,4.543085E-3,3.5966866E-2,2.603848E-2,1.7888615E-2,5.538472E-3,6.832652E-3,8.8095805E-3,1.3882063E-2,9.632009E-3,1.2568547E-3,6.6440627E-3,4.0093865E-3,1.000471E-3,-1.8040359E-3,-4.017672E-3,-6.4005465E-3,-8.8252965E-4,-1.1056641E-3,-1.4214711E-2,-1.5880052E-3,-1.7045767E-3,-1.8193232E-3,-1.9427113E-3,-2.1113371E-3,3.817708E-3,3.3838395E-3,2.3383473E-3,2.842265E-3,1.9491764E-3,1.6039367E-3,8.794285E-4,1.0290241E-3,7.168084E-4,5.689093E-4,4.418979E-4,2.7427595E-4,2.0281116E-4,3.3683733E-5,-1.3048381E-4,-2.4295878E-4,-3.497886E-4,-4.6595233E-4,-5.777525E-4,-7.043244E-4,-1.3233147E-3,-1.4693789E-3],"categories":[],"categories_nodes":[],"categories_segments":[],"categories_sizes":[],"default_left":[0,0,0,0,0,0,0,0,0,0,0,0,0,0,0,0,0,0,0,0,0,0,0,0,0,0,0,0,0,0,0,0,0,0,0,0,0,0,0,0,0,0,0,0,0,0,0,0,0,0,0,0,0,0,0,0,0,0,0,0,0,0,0,0,0,0,0,0,0],"id":16,"left_children":[1,3,5,7,9,11,13,15,17,19,21,23,25,27,29,31,33,35,37,39,41,43,45,-1,47,49,51,-1,-1,-1,-1,53,-1,55,57,59,61,63,65,-1,-1,67,-1,-1,-1,-1,-1,-1,-1,-1,-1,-1,-1,-1,-1,-1,-1,-1,-1,-1,-1,-1,-1,-1,-1,-1,-1,-1,-1],"loss_changes":[5.207365E0,4.669397E-1,6.923013E-1,5.4102078E-2,2.0911932E-2,1.2651193E-1,8.6328745E-2,5.1178895E-3,4.8589325E-3,6.853014E-3,4.8247576E-3,1.45487785E-2,1.6413808E-2,1.8923283E-2,1.288259E-2,5.738735E-4,5.7773944E-4,8.752916E-4,8.545816E-4,2.8252043E-4,5.8454275E-4,4.2295456E-4,5.4210424E-4,0E0,1.0555387E-3,3.019452E-3,1.0303408E-3,0E0,0E0,0E0,0E0,4.9006194E-6,0E0,5.830452E-5,6.933184E-5,1.2480057E-4,8.48911E-5,1.20154116E-4,5.901046E-5,0E0,0E0,1.6227365E-5,0E0,0E0,0E0,0E0,0E0,0E0,0E0,0E0,0E0,0E0,0E0,0E0,0E0,0E0,0E0,0E0,0E0,0E0,0E0,0E0,0E0,0E0,0E0,0E0,0E0,0E0,0E0],"parents":[2147483647,0,0,1,1,2,2,3,3,4,4,5,5,6,6,7,7,8,8,9,9,10,10,11,11,12,12,13,13,14,14,15,15,16,16,17,17,18,18,19,19,20,20,21,21,22,22,24,24,25,25,26,26,31,31,33,33,34,34,35,35,36,36,37,37,38,38,41,41],"right_children":[2,4,6,8,10,12,14,16,18,20,22,24,26,28,30,32,34,36,38,40,42,44,46,-1,48,50,52,-1,-1,-1,-1,54,-1,56,58,60,62,64,66,-1,-1,68,-1,-1,-1,-1,-1,-1,-1,-1,-1,-1,-1,-1,-1,-1,-1,-1,-1,-1,-1,-1,-1,-1,-1,-1,-1,-1,-1],"split_conditions":[4.8E-1,8.81E-1,2.155E-1,8.25E-1,9.27E-1,6.71E-1,2.895E-1,7.94E-1,8.54E-1,9.05E-1,9.4E-1,6.12E-1,7.24E-1,9.92E-1,3.71E-1,4.44E-1,8.1E-1,8.42E-1,8.67E-1,8.93E-1,9.22E-1,9.34E-1,9.48E-1,4.543085E-3,6.45E-1,1.505E-1,7.44E-1,5.538472E-3,6.832652E-3,8.8095805E-3,1.3882063E-2,4.28E-1,1.2568547E-3,8.05E-1,8.21E-1,8.32E-1,8.5E-1,8.61E-1,8.72E-1,-8.8252965E-4,-1.1056641E-3,9.16E-1,-1.5880052E-3,-1.7045767E-3,-1.8193232E-3,-1.9427113E-3,-2.1113371E-3,3.817708E-3,3.3838395E-3,2.3383473E-3,2.842265E-3,1.9491764E-3,1.6039367E-3,8.794285E-4,1.0290241E-3,7.168084E-4,5.689093E-4,4.418979E-4,2.7427595E-4,2.0281116E-4,3.3683733E-5,-1.3048381E-4,-2.4295878E-4,-3.497886E-4,-4.6595233E-4,-5.777525E-4,-7.043244E-4,-1.3233147E-3,-1.4693789E-3],"split_indices":[6,3,5,3,3,3,5,3,3,3,3,3,3,6,5,6,3,3,3,3,3,3,3,0,3,5,3,0,0,0,0,6,0,3,3,3,3,3,3,0,0,3,0,0,0,0,0,0,0,0,0,0,0,0,0,0,0,0,0,0,0,0,0,0,0,0,0,0,0],"split_type":[0,0,0,0,0,0,0,0,0,0,0,0,0,0,0,0,0,0,0,0,0,0,0,0,0,0,0,0,0,0,0,0,0,0,0,0,0,0,0,0,0,0,0,0,0,0,0,0,0,0,0,0,0,0,0,0,0,0,0,0,0,0,0,0,0,0,0,0,0],"sum_hessian":[1E4,7.53E3,2.47E3,1.795E3,5.735E3,1.811E3,6.59E2,6.75E2,1.12E3,1.618E3,4.117E3,7.78E2,1.033E3,5.42E2,1.17E2,3.22E2,3.53E2,4.64E2,6.56E2,3.05E2,1.313E3,2.243E3,1.874E3,2.8E2,4.98E2,5.81E2,4.52E2,2.66E2,2.76E2,1.09E2,8E0,1.72E2,1.5E2,1.97E2,1.56E2,1.83E2,2.81E2,4.08E2,2.48E2,1.5E2,1.55E2,4.47E2,8.66E2,1.234E3,1.009E3,1.45E3,4.24E2,2.36E2,2.62E2,2.8E2,3.01E2,2.37E2,2.15E2,8.2E1,9E1,1.23E2,7.4E1,1.16E2,4E1,7.1E1,1.12E2,1.58E2,1.23E2,2.29E2,1.79E2,1.31E2,1.17E2,1.56E2,2.91E2],"tree_param":{"num_deleted":"0","num_feature":"7","num_nodes":"69","size_leaf_vector":"1"}},{"base_weights":[7.5622185E-5,-1.1693301E-2,3.5944372E-2,9.775893E-4,-1.5658647E-2,2.6882146E-2,6.1133105E-2,7.342361E-3,-2.8614502E-3,-1.2662378E-2,-1.6658174E-2,2.0397443E-2,3.576987E-2,5.5503633E-2,8.136465E-2,5.065741E-3,1.0078582E-2,-6.2864635E-4,-4.43739E-3,-8.999012E-3,-1.3639739E-2,-1.5576281E-2,-1.766573E-2,2.4421511E-2,1.6937671E-2,3.233651E-2,4.0609166E-3,6.066672E-3,4.9808747E-3,7.673196E-3,1.1757797E-2,6.1030085E-3,3.6130135E-3,1.159359E-3,8.996946E-3,1.137099E-3,-1.4981852E-3,-3.4237017E-3,-5.5138264E-3,-7.643539E-4,-9.7313925E-4,-1.1918263E-3,-1.3902144E-3,-1.5128655E-3,-1.6067568E-3,-1.7147443E-3,-1.858452E-3,2.6239972E-3,2.2239124E-3,1.48151815E-2,1.8746115E-2,3.046805E-3,3.3910857E-3,5.581344E-4,7.1038655E-4,4.2770803E-4,2.9534762E-4,8.0443063E-4,9.4535324E-4,1.8281235E-4,5.2395608E-5,-6.486303E-5,-1.8958592E-4,-2.8559926E-4,-3.7774074E-4,-4.816673E-4,-6.1348494E-4,1.3764121E-3,1.5630339E-3,1.9801972E-3,1.7589101E-3],"categories":[],"categories_nodes":[],"categories_segments":[],"categories_sizes":[],"default_left":[0,0,0,0,0,0,0,0,0,0,0,0,0,0,0,0,0,0,0,0,0,0,0,0,0,0,0,0,0,0,0,0,0,0,0,0,0,0,0,0,0,0,0,0,0,0,0,0,0,0,0,0,0,0,0,0,0,0,0,0,0,0,0,0,0,0,0,0,0,0,0],"id":17,"left_children":[1,3,5,7,9,11,13,15,17,19,21,23,25,27,29,31,33,35,37,39,41,43,45,47,49,51,-1,-1,-1,-1,-1,53,55,-1,57,59,61,63,65,-1,-1,-1,-1,-1,-1,-1,-1,-1,-1,67,69,-1,-1,-1,-1,-1,-1,-1,-1,-1,-1,-1,-1,-1,-1,-1,-1,-1,-1,-1,-1],"loss_changes":[4.2222075E0,3.784063E-1,5.62402E-1,4.3905575E-2,1.6967535E-2,1.0410702E-1,6.985593E-2,4.159972E-3,3.9417455E-3,5.0294697E-3,4.4100285E-3,1.4260501E-2,1.1413932E-2,1.2091398E-2,1.4465153E-2,5.369969E-4,3.971327E-4,7.1565725E-4,6.980207E-4,2.293922E-4,3.465712E-4,2.1457672E-4,7.3748827E-4,1.3412237E-3,1.910165E-3,2.9936433E-4,0E0,0E0,0E0,0E0,0E0,7.260591E-5,5.6130113E-5,0E0,3.5520643E-6,6.429144E-5,1.0417821E-4,5.7685655E-5,1.0769535E-4,0E0,0E0,0E0,0E0,0E0,0E0,0E0,0E0,0E0,0E0,1.3619661E-5,2.3074448E-5,0E0,0E0,0E0,0E0,0E0,0E0,0E0,0E0,0E0,0E0,0E0,0E0,0E0,0E0,0E0,0E0,0E0,0E0,0E0,0E0],"parents":[2147483647,0,0,1,1,2,2,3,3,4,4,5,5,6,6,7,7,8,8,9,9,10,10,11,11,12,12,13,13,14,14,15,15,16,16,17,17,18,18,19,19,20,20,21,21,22,22,23,23,24,24,25,25,31,31,32,32,34,34,35,35,36,36,37,37,38,38,49,49,50,50],"right_children":[2,4,6,8,10,12,14,16,18,20,22,24,26,28,30,32,34,36,38,40,42,44,46,48,50,52,-1,-1,-1,-1,-1,54,56,-1,58,60,62,64,66,-1,-1,-1,-1,-1,-1,-1,-1,-1,-1,68,70,-1,-1,-1,-1,-1,-1,-1,-1,-1,-1,-1,-1,-1,-1,-1,-1,-1,-1,-1,-1],"split_conditions":[4.8E-1,8.81E-1,2.16E-1,8.25E-1,9.26E-1,1.66E-1,2.865E-1,4.16E-1,8.54E-1,9.05E-1,9.38E-1,7.15E-1,1.915E-1,5.07E-1,1.414E0,8.1E-1,7.77E-1,8.4E-1,8.65E-1,8.9E-1,9.16E-1,9.32E-1,9.46E-1,6.95E-1,5.24E-1,1.77E-1,4.0609166E-3,6.066672E-3,4.9808747E-3,7.673196E-3,1.1757797E-2,4.04E-1,8.17E-1,1.159359E-3,4.28E-1,8.32E-1,8.46E-1,8.58E-1,8.7E-1,-7.643539E-4,-9.7313925E-4,-1.1918263E-3,-1.3902144E-3,-1.5128655E-3,-1.6067568E-3,-1.7147443E-3,-1.858452E-3,2.6239972E-3,2.2239124E-3,5.02E-1,7.26E-1,3.046805E-3,3.3910857E-3,5.581344E-4,7.1038655E-4,4.2770803E-4,2.9534762E-4,8.0443063E-4,9.4535324E-4,1.8281235E-4,5.2395608E-5,-6.486303E-5,-1.8958592E-4,-2.8559926E-4,-3.7774074E-4,-4.816673E-4,-6.1348494E-4,1.3764121E-3,1.5630339E-3,1.9801972E-3,1.7589101E-3],"split_indices":[6,3,5,3,3,5,5,6,3,3,3,3,5,3,6,3,3,3,3,3,3,3,3,3,6,5,0,0,0,0,0,6,3,0,6,3,3,3,3,0,0,0,0,0,0,0,0,0,0,6,3,0,0,0,0,0,0,0,0,0,0,0,0,0,0,0,0,0,0,0,0],"split_type":[0,0,0,0,0,0,0,0,0,0,0,0,0,0,0,0,0,0,0,0,0,0,0,0,0,0,0,0,0,0,0,0,0,0,0,0,0,0,0,0,0,0,0,0,0,0,0,0,0,0,0,0,0,0,0,0,0,0,0,0,0,0,0,0,0,0,0,0,0,0,0],"sum_hessian":[1E4,7.53E3,2.47E3,1.795E3,5.735E3,1.818E3,6.52E2,6.75E2,1.12E3,1.438E3,4.297E3,1.053E3,7.65E2,5.13E2,1.39E2,3.7E2,3.05E2,4.64E2,6.56E2,3.05E2,1.133E3,2.08E3,2.217E3,4.84E2,5.69E2,4.52E2,3.13E2,2.64E2,2.49E2,1.26E2,1.3E1,2.14E2,1.56E2,1.23E2,1.82E2,1.53E2,3.11E2,3.4E2,3.16E2,1.11E2,1.94E2,1.56E2,9.77E2,1.105E3,9.75E2,1.43E3,7.87E2,2.58E2,2.26E2,2.66E2,3.03E2,2.16E2,2.36E2,1.45E2,6.9E1,7.5E1,8.1E1,6.5E1,1.17E2,7.1E1,8.2E1,1E2,2.11E2,1.34E2,2.06E2,1.53E2,1.63E2,1.24E2,1.42E2,1.5E2,1.53E2],"tree_param":{"num_deleted":"0","num_feature":"7","num_nodes":"71","size_leaf_vector":"1"}},{"base_weights":[7.252004E-5,-1.0644661E-2,3.20108E-2,3.5983065E-4,-1.4185351E-2,2.2882411E-2,5.2528933E-2,6.133446E-3,-2.9503538E-3,-1.2278202E-2,-1.5307568E-2,1.7038755E-2,2.9782502E-2,4.6863593E-2,7.003174E-2,4.022052E-3,8.438629E-3,-1.0828043E-3,-4.558366E-3,-8.97364E-3,-1.2837761E-2,-1.4654151E-2,-1.6387086E-2,1.9927753E-2,1.3975305E-2,2.7096378E-2,3.4049485E-2,4.092489E-3,5.18617E-3,6.446329E-3,9.159767E-2,4.9472107E-3,2.7170912E-3,7.228082E-4,9.581303E-3,3.9911352E-4,-1.8605774E-3,-3.7454567E-3,-5.8937334E-3,-7.961644E-4,-1.0000124E-3,-1.1891949E-3,-1.3242135E-3,-1.406772E-3,-1.499934E-3,-1.6093275E-3,-1.7597858E-3,2.1666333E-3,1.837191E-3,1.5371826E-3,1.2355549E-2,2.4942087E-3,2.877706E-3,3.201697E-3,3.5922758E-3,8.047319E-3,1.1602967E-2,5.550832E-4,4.4466424E-4,3.2768885E-4,2.088457E-4,8.797971E-4,1.0331329E-3,1.13326816E-4,-2.299599E-5,-1.2697878E-4,-2.2759964E-4,-3.1994187E-4,-4.1888314E-4,-5.209768E-4,-6.604706E-4,1.289645E-3,1.084405E-3],"categories":[],"categories_nodes":[],"categories_segments":[],"categories_sizes":[],"default_left":[0,0,0,0,0,0,0,0,0,0,0,0,0,0,0,0,0,0,0,0,0,0,0,0,0,0,0,0,0,0,0,0,0,0,0,0,0,0,0,0,0,0,0,0,0,0,0,0,0,0,0,0,0,0,0,0,0,0,0,0,0,0,0,0,0,0,0,0,0,0,0,0,0],"id":18,"left_children":[1,3,5,7,9,11,13,15,17,19,21,23,25,27,29,31,33,35,37,39,41,43,45,47,49,51,53,-1,-1,-1,55,57,59,-1,61,63,65,67,69,-1,-1,-1,-1,-1,-1,-1,-1,-1,-1,-1,71,-1,-1,-1,-1,-1,-1,-1,-1,-1,-1,-1,-1,-1,-1,-1,-1,-1,-1,-1,-1,-1,-1],"loss_changes":[3.4235666E0,2.9180264E-1,4.694767E-1,3.4877896E-2,1.1938691E-2,6.969267E-2,7.336831E-2,3.202714E-3,3.4785923E-3,3.7752986E-3,2.2730827E-3,8.085042E-3,8.212328E-3,1.5301108E-2,1.6551912E-2,4.0790392E-4,3.6923774E-4,6.2083924E-4,6.542122E-4,2.4033338E-4,5.298257E-4,2.4020672E-4,1.9171834E-4,9.111464E-4,8.551255E-4,1.0708869E-3,7.301569E-6,0E0,0E0,0E0,4.4730306E-4,3.6654994E-5,4.4886838E-5,0E0,3.1078234E-6,8.616231E-5,8.374511E-5,8.101668E-5,7.938128E-5,0E0,0E0,0E0,0E0,0E0,0E0,0E0,0E0,0E0,0E0,0E0,3.9197505E-5,0E0,0E0,0E0,0E0,0E0,0E0,0E0,0E0,0E0,0E0,0E0,0E0,0E0,0E0,0E0,0E0,0E0,0E0,0E0,0E0,0E0,0E0],"parents":[2147483647,0,0,1,1,2,2,3,3,4,4,5,5,6,6,7,7,8,8,9,9,10,10,11,11,12,12,13,13,14,14,15,15,16,16,17,17,18,18,19,19,20,20,21,21,22,22,23,23,24,24,25,25,26,26,30,30,31,31,32,32,34,34,35,35,36,36,37,37,38,38,50,50],"right_children":[2,4,6,8,10,12,14,16,18,20,22,24,26,28,30,32,34,36,38,40,42,44,46,48,50,52,54,-1,-1,-1,56,58,60,-1,62,64,66,68,70,-1,-1,-1,-1,-1,-1,-1,-1,-1,-1,-1,72,-1,-1,-1,-1,-1,-1,-1,-1,-1,-1,-1,-1,-1,-1,-1,-1,-1,-1,-1,-1,-1,-1],"split_conditions":[4.68E-1,8.87E-1,8.3E-1,8.28E-1,9.3E-1,1.59E-1,2.78E-1,4.08E-1,8.57E-1,9.1E-1,9.43E-1,7.26E-1,1.825E-1,2.38E-1,3.15E-1,8.14E-1,4.36E-1,8.44E-1,8.7E-1,8.99E-1,9.23E-1,9.35E-1,9.49E-1,7.06E-1,7.46E-1,1.7E-1,1.955E-1,4.092489E-3,5.18617E-3,6.446329E-3,3.71E-1,8.05E-1,8.21E-1,7.228082E-4,4.5E-1,8.36E-1,8.51E-1,8.63E-1,8.78E-1,-7.961644E-4,-1.0000124E-3,-1.1891949E-3,-1.3242135E-3,-1.406772E-3,-1.499934E-3,-1.6093275E-3,-1.7597858E-3,2.1666333E-3,1.837191E-3,1.5371826E-3,7.58E-1,2.4942087E-3,2.877706E-3,3.201697E-3,3.5922758E-3,8.047319E-3,1.1602967E-2,5.550832E-4,4.4466424E-4,3.2768885E-4,2.088457E-4,8.797971E-4,1.0331329E-3,1.13326816E-4,-2.299599E-5,-1.2697878E-4,-2.2759964E-4,-3.1994187E-4,-4.1888314E-4,-5.209768E-4,-6.604706E-4,1.289645E-3,1.084405E-3],"split_indices":[6,3,6,3,3,5,5,6,3,3,3,3,5,5,5,3,6,3,3,3,3,3,3,3,3,5,5,0,0,0,5,3,3,0,6,3,3,3,3,0,0,0,0,0,0,0,0,0,0,0,3,0,0,0,0,0,0,0,0,0,0,0,0,0,0,0,0,0,0,0,0,0,0],"split_type":[0,0,0,0,0,0,0,0,0,0,0,0,0,0,0,0,0,0,0,0,0,0,0,0,0,0,0,0,0,0,0,0,0,0,0,0,0,0,0,0,0,0,0,0,0,0,0,0,0,0,0,0,0,0,0,0,0,0,0,0,0,0,0,0,0,0,0,0,0,0,0,0,0],"sum_hessian":[1E4,7.488E3,2.512E3,1.823E3,5.665E3,1.74E3,7.72E2,6.64E2,1.159E3,2.103E3,3.562E3,9.44E2,7.96E2,5.86E2,1.86E2,3.48E2,3.16E2,5.37E2,6.22E2,3.07E2,1.796E3,2.228E3,1.334E3,4.83E2,4.61E2,4.93E2,3.03E2,2.72E2,3.14E2,1.51E2,3.5E1,2.02E2,1.46E2,1.57E2,1.59E2,1.85E2,3.52E2,3.89E2,2.33E2,1.59E2,1.48E2,5.47E2,1.249E3,8.41E2,1.387E3,1.085E3,2.49E2,2.22E2,2.61E2,2.43E2,2.18E2,2.23E2,2.7E2,1.54E2,1.49E2,2.7E1,8E0,8.7E1,1.15E2,7.5E1,7.1E1,8.4E1,7.5E1,8.5E1,1E2,1.47E2,2.05E2,1.78E2,2.11E2,1.23E2,1.1E2,1.55E2,6.3E1],"tree_param":{"num_deleted":"0","num_feature":"7","num_nodes":"73","size_leaf_vector":"1"}},{"base_weights":[6.995353E-5,-9.473679E-3,2.9156568E-2,7.950309E-4,-1.2687264E-2,2.1870807E-2,4.9922667E-2,5.7757385E-3,-2.4363042E-3,-1.0597103E-2,-1.363812E-2,1.6332481E-2,2.8816257E-2,4.577571E-2,6.9100924E-2,3.7568877E-3,7.993706E-3,-8.8018645E-4,-3.778115E-3,-7.2916383E-3,-1.1267482E-2,-1.3002549E-2,-1.4654082E-2,1.3357215E-2,1.9184556E-2,2.5685964E-2,3.2570846E-2,4.116984E-3,5.054461E-3,6.526788E-3,1.0571595E-2,4.590948E-3,2.4490335E-3,6.971776E-3,9.199567E-4,3.5968752E-4,-1.5958761E-3,-3.0907837E-3,-4.6931854E-3,-6.407406E-4,-8.100788E-4,-1.032531E-3,-1.1660241E-3,-1.2552897E-3,-1.3442611E-3,-1.440594E-3,-1.5845115E-3,1.4564409E-3,1.1685783E-3,2.0808864E-3,1.740798E-3,2.3463664E-3,2.665414E-3,2.977588E-3,3.375334E-3,5.1610835E-4,4.0058102E-4,2.9535088E-4,1.8825177E-4,7.4941607E-4,6.2911987E-4,1.0212625E-4,-2.0719504E-5,-1.0643276E-4,-1.9294437E-4,-2.7685802E-4,-3.4693352E-4,-4.3216112E-4,-5.384267E-4],"categories":[],"categories_nodes":[],"categories_segments":[],"categories_sizes":[],"default_left":[0,0,0,0,0,0,0,0,0,0,0,0,0,0,0,0,0,0,0,0,0,0,0,0,0,0,0,0,0,0,0,0,0,0,0,0,0,0,0,0,0,0,0,0,0,0,0,0,0,0,0,0,0,0,0,0,0,0,0,0,0,0,0,0,0,0,0,0,0],"id":19,"left_children":[1,3,5,7,9,11,13,15,17,19,21,23,25,27,29,31,33,35,37,39,41,43,45,47,49,51,53,-1,-1,-1,-1,55,57,59,-1,61,63,65,67,-1,-1,-1,-1,-1,-1,-1,-1,-1,-1,-1,-1,-1,-1,-1,-1,-1,-1,-1,-1,-1,-1,-1,-1,-1,-1,-1,-1,-1,-1],"loss_changes":[2.7764733E0,2.4852842E-1,3.7276244E-1,2.89195E-2,1.1255443E-2,6.996089E-2,4.7816634E-2,3.1357314E-3,2.2726115E-3,3.9020628E-3,2.352953E-3,8.407652E-3,8.695006E-3,9.560466E-3,8.818984E-3,3.9454503E-4,3.4991838E-4,4.4958066E-4,3.5343412E-4,1.670327E-4,4.3205917E-4,3.1247735E-4,2.1740794E-4,8.447319E-4,1.1354387E-3,3.36349E-4,2.0134449E-4,0E0,0E0,0E0,0E0,5.4721255E-5,3.6451558E-5,1.8979423E-5,0E0,6.996817E-5,5.4862176E-5,3.149896E-5,4.0671322E-5,0E0,0E0,0E0,0E0,0E0,0E0,0E0,0E0,0E0,0E0,0E0,0E0,0E0,0E0,0E0,0E0,0E0,0E0,0E0,0E0,0E0,0E0,0E0,0E0,0E0,0E0,0E0,0E0,0E0,0E0],"parents":[2147483647,0,0,1,1,2,2,3,3,4,4,5,5,6,6,7,7,8,8,9,9,10,10,11,11,12,12,13,13,14,14,15,15,16,16,17,17,18,18,19,19,20,20,21,21,22,22,23,23,24,24,25,25,26,26,31,31,32,32,33,33,35,35,36,36,37,37,38,38],"right_children":[2,4,6,8,10,12,14,16,18,20,22,24,26,28,30,32,34,36,38,40,42,44,46,48,50,52,54,-1,-1,-1,-1,56,58,60,-1,62,64,66,68,-1,-1,-1,-1,-1,-1,-1,-1,-1,-1,-1,-1,-1,-1,-1,-1,-1,-1,-1,-1,-1,-1,-1,-1,-1,-1,-1,-1,-1,-1],"split_conditions":[4.8E-1,8.81E-1,2.165E-1,8.28E-1,9.28E-1,1.645E-1,2.91E-1,4.12E-1,8.56E-1,9.05E-1,9.42E-1,5.62E-1,7.46E-1,1E0,3.71E-1,8.14E-1,4.44E-1,8.44E-1,8.67E-1,8.93E-1,9.22E-1,9.35E-1,9.49E-1,7.44E-1,6.98E-1,1.72E-1,1.98E-1,4.116984E-3,5.054461E-3,6.526788E-3,1.0571595E-2,8.05E-1,8.21E-1,7.88E-1,9.199567E-4,8.36E-1,8.5E-1,8.62E-1,8.75E-1,-6.407406E-4,-8.100788E-4,-1.032531E-3,-1.1660241E-3,-1.2552897E-3,-1.3442611E-3,-1.440594E-3,-1.5845115E-3,1.4564409E-3,1.1685783E-3,2.0808864E-3,1.740798E-3,2.3463664E-3,2.665414E-3,2.977588E-3,3.375334E-3,5.1610835E-4,4.0058102E-4,2.9535088E-4,1.8825177E-4,7.4941607E-4,6.2911987E-4,1.0212625E-4,-2.0719504E-5,-1.0643276E-4,-1.9294437E-4,-2.7685802E-4,-3.4693352E-4,-4.3216112E-4,-5.384267E-4],"split_indices":[6,3,5,3,3,5,5,6,3,3,3,6,6,4,5,3,6,3,3,3,3,3,3,3,3,5,5,0,0,0,0,3,3,3,0,3,3,3,3,0,0,0,0,0,0,0,0,0,0,0,0,0,0,0,0,0,0,0,0,0,0,0,0,0,0,0,0,0,0],"split_type":[0,0,0,0,0,0,0,0,0,0,0,0,0,0,0,0,0,0,0,0,0,0,0,0,0,0,0,0,0,0,0,0,0,0,0,0,0,0,0,0,0,0,0,0,0,0,0,0,0,0,0,0,0,0,0,0,0,0,0,0,0,0,0,0,0,0,0,0,0],"sum_hessian":[1E4,7.53E3,2.47E3,1.795E3,5.735E3,1.83E3,6.4E2,7.06E2,1.089E3,1.797E3,3.938E3,1.02E3,8.1E2,5.29E2,1.11E2,3.71E2,3.35E2,5.05E2,5.84E2,3.05E2,1.492E3,2.431E3,1.507E3,5.02E2,5.18E2,4.46E2,3.64E2,2.74E2,2.55E2,1.03E2,8E0,2.25E2,1.46E2,1.85E2,1.5E2,1.85E2,3.2E2,3.36E2,2.48E2,1.5E2,1.55E2,4.47E2,1.045E3,1.217E3,1.214E3,1.258E3,2.49E2,2.87E2,2.15E2,2.65E2,2.53E2,1.43E2,3.03E2,1.16E2,2.48E2,1.1E2,1.15E2,7.5E1,7.1E1,9.9E1,8.6E1,8.5E1,1E2,1.25E2,1.95E2,1.86E2,1.5E2,1.66E2,8.2E1],"tree_param":{"num_deleted":"0","num_feature":"7","num_nodes":"69","size_leaf_vector":"1"}},{"base_weights":[6.6628236E-5,-8.797883E-3,2.5461303E-2,-5.9134283E-5,-1.14938365E-2,1.8335529E-2,4.3131176E-2,4.31692E-3,-2.520612E-3,-1.0041197E-2,-1.2466157E-2,1.3220112E-2,2.4159601E-2,3.8993333E-2,5.936532E-2,5.857858E-3,2.6239213E-3,-1.2037794E-3,-3.844727E-3,-7.6018153E-3,-1.0542891E-2,-1.1987833E-2,-1.339231E-2,1.5718767E-2,1.0684428E-2,2.1767572E-2,2.787584E-2,3.3549543E-3,4.281401E-2,5.5900436E-2,8.878381E-3,4.9217506E-3,6.747399E-4,3.2508972E-3,1.5312757E-3,-2.6644446E-4,-1.8362453E-3,-3.2676999E-3,-4.962984E-3,-6.45011E-4,-8.36006E-4,-1.0028533E-3,-1.092999E-3,-1.1579552E-3,-1.2317132E-3,-1.3133615E-3,-1.4266939E-3,1.7298273E-3,1.4700313E-3,1.1836947E-3,9.1936765E-3,1.98644E-3,2.3143184E-3,2.6020561E-3,2.9318575E-3,4.0130992E-3,4.582453E-3,5.1115197E-3,6.145447E-3,4.3696078E-4,5.2962935E-4,3.608676E-4,2.6620392E-4,1.6968859E-4,1.20309975E-4,3.748644E-5,-6.291992E-5,-1.3056233E-4,-2.0751164E-4,-2.8099143E-4,-3.6450571E-4,-4.3456294E-4,-5.352089E-4,8.595E-4,9.987218E-4],"categories":[],"categories_nodes":[],"categories_segments":[],"categories_sizes":[],"default_left":[0,0,0,0,0,0,0,0,0,0,0,0,0,0,0,0,0,0,0,0,0,0,0,0,0,0,0,0,0,0,0,0,0,0,0,0,0,0,0,0,0,0,0,0,0,0,0,0,0,0,0,0,0,0,0,0,0,0,0,0,0,0,0,0,0,0,0,0,0,0,0,0,0,0,0],"id":20,"left_children":[1,3,5,7,9,11,13,15,17,19,21,23,25,27,29,31,33,35,37,39,41,43,45,47,49,51,53,-1,55,57,-1,59,-1,61,63,65,67,69,71,-1,-1,-1,-1,-1,-1,-1,-1,-1,-1,-1,73,-1,-1,-1,-1,-1,-1,-1,-1,-1,-1,-1,-1,-1,-1,-1,-1,-1,-1,-1,-1,-1,-1,-1,-1],"loss_changes":[2.2515628E0,1.7466772E-1,3.2506824E-1,1.885034E-2,7.877588E-3,5.4677665E-2,4.759574E-2,1.6281763E-3,1.9482463E-3,2.7065128E-3,1.3412237E-3,6.0728192E-3,7.0558786E-3,1.0938942E-2,1.022476E-2,2.4075154E-4,2.0191097E-4,3.332753E-4,3.4384057E-4,2.8839707E-4,2.6589632E-4,1.5923381E-4,7.1913004E-5,5.4038316E-4,7.364899E-4,9.251833E-4,1.3113022E-4,0E0,9.557605E-4,4.7326088E-4,0E0,1.0772143E-5,0E0,3.063376E-5,4.045578E-6,5.3277286E-5,3.9878767E-5,5.384721E-5,2.1902844E-5,0E0,0E0,0E0,0E0,0E0,0E0,0E0,0E0,0E0,0E0,0E0,1.8199906E-5,0E0,0E0,0E0,0E0,0E0,0E0,0E0,0E0,0E0,0E0,0E0,0E0,0E0,0E0,0E0,0E0,0E0,0E0,0E0,0E0,0E0,0E0,0E0,0E0],"parents":[2147483647,0,0,1,1,2,2,3,3,4,4,5,5,6,6,7,7,8,8,9,9,10,10,11,11,12,12,13,13,14,14,15,15,16,16,17,17,18,18,19,19,20,20,21,21,22,22,23,23,24,24,25,25,26,26,28,28,29,29,31,31,33,33,34,34,35,35,36,36,37,37,38,38,50,50],"right_children":[2,4,6,8,10,12,14,16,18,20,22,24,26,28,30,32,34,36,38,40,42,44,46,48,50,52,54,-1,56,58,-1,60,-1,62,64,66,68,70,72,-1,-1,-1,-1,-1,-1,-1,-1,-1,-1,-1,74,-1,-1,-1,-1,-1,-1,-1,-1,-1,-1,-1,-1,-1,-1,-1,-1,-1,-1,-1,-1,-1,-1,-1,-1],"split_conditions":[4.5E-1,8.87E-1,2.105E-1,8.32E-1,9.31E-1,1.57E-1,1.142E0,8.05E-1,8.59E-1,9.16E-1,9.44E-1,7.3E-1,1.825E-1,9.54E-1,1.414E0,4.2E-1,8.21E-1,8.48E-1,8.72E-1,8.99E-1,9.25E-1,9.37E-1,9.49E-1,7.06E-1,7.52E-1,1.68E-1,1.955E-1,3.3549543E-3,2.56E-1,2.99E-1,8.878381E-3,4.04E-1,6.747399E-4,8.14E-1,8.28E-1,8.4E-1,8.52E-1,8.65E-1,8.78E-1,-6.45011E-4,-8.36006E-4,-1.0028533E-3,-1.092999E-3,-1.1579552E-3,-1.2317132E-3,-1.3133615E-3,-1.4266939E-3,1.7298273E-3,1.4700313E-3,1.1836947E-3,4.84E-1,1.98644E-3,2.3143184E-3,2.6020561E-3,2.9318575E-3,4.0130992E-3,4.582453E-3,5.1115197E-3,6.145447E-3,4.3696078E-4,5.2962935E-4,3.608676E-4,2.6620392E-4,1.6968859E-4,1.20309975E-4,3.748644E-5,-6.291992E-5,-1.3056233E-4,-2.0751164E-4,-2.8099143E-4,-3.6450571E-4,-4.3456294E-4,-5.352089E-4,8.595E-4,9.987218E-4],"split_indices":[6,3,5,3,3,5,6,3,3,3,3,3,5,6,6,6,3,3,3,3,3,3,3,3,3,5,5,0,5,5,0,6,0,3,3,3,3,3,3,0,0,0,0,0,0,0,0,0,0,0,6,0,0,0,0,0,0,0,0,0,0,0,0,0,0,0,0,0,0,0,0,0,0,0,0],"split_type":[0,0,0,0,0,0,0,0,0,0,0,0,0,0,0,0,0,0,0,0,0,0,0,0,0,0,0,0,0,0,0,0,0,0,0,0,0,0,0,0,0,0,0,0,0,0,0,0,0,0,0,0,0,0,0,0,0,0,0,0,0,0,0,0,0,0,0,0,0,0,0,0,0,0,0],"sum_hessian":[1E4,7.413E3,2.587E3,1.748E3,5.665E3,1.845E3,7.42E2,6.29E2,1.119E3,2.276E3,3.389E3,9.84E2,8.61E2,5.94E2,1.48E2,3.28E2,3.01E2,5.62E2,5.57E2,3.91E2,1.885E3,2.244E3,1.145E3,4.93E2,4.91E2,5.28E2,3.33E2,2.49E2,3.45E2,1.35E2,1.3E1,1.63E2,1.65E2,1.9E2,1.11E2,2.27E2,3.35E2,3.7E2,1.87E2,1.59E2,2.32E2,8.21E2,1.064E3,1.018E3,1.226E3,8.96E2,2.49E2,1.87E2,3.06E2,2.73E2,2.18E2,2.28E2,3E2,1.54E2,1.79E2,1.9E2,1.55E2,7.8E1,5.7E1,7.1E1,9.2E1,1.15E2,7.5E1,7.1E1,4E1,8.2E1,1.45E2,1.06E2,2.29E2,1.71E2,1.99E2,7.7E1,1.1E2,1.31E2,8.7E1],"tree_param":{"num_deleted":"0","num_feature":"7","num_nodes":"75","size_leaf_vector":"1"}},{"base_weights":[6.39684E-5,-7.883869E-3,2.3035698E-2,-9.823901E-5,-1.03835575E-2,4.064781E-2,1.7238002E-2,3.9846925E-3,-2.373483E-3,-9.196184E-3,-1.128506E-2,3.7533984E-2,5.82027E-2,1.22751305E-2,2.2831615E-2,2.674762E-3,5.746945E-3,-1.264102E-3,-3.7870968E-3,-7.038582E-3,-9.55534E-3,-1.0848451E-2,-1.2055472E-2,4.149925E-3,3.3604868E-3,5.436291E-3,8.842706E-3,9.973652E-3,1.4752448E-2,2.0144088E-2,2.6171E-2,3.3977823E-3,1.612917E-3,4.997593E-4,6.42365E-4,-3.6226312E-4,-1.9005788E-3,-3.18931E-3,-4.744372E-3,-6.194181E-4,-7.690009E-4,-9.026897E-4,-9.891968E-4,-1.0480036E-3,-1.1086421E-3,-1.1821721E-3,-1.2845949E-3,1.1268989E-3,8.721805E-3,1.3562044E-3,1.5991312E-3,1.8621002E-3,2.139713E-3,2.4021517E-3,2.732888E-3,3.858161E-4,2.9707505E-4,2.193672E-4,1.380733E-4,2.1226915E-5,-7.6830016E-5,-1.5557668E-4,-2.2518227E-4,-2.8610704E-4,-3.594338E-4,-4.007921E-4,-4.921497E-4,9.372732E-4,7.8179827E-4],"categories":[],"categories_nodes":[],"categories_segments":[],"categories_sizes":[],"default_left":[0,0,0,0,0,0,0,0,0,0,0,0,0,0,0,0,0,0,0,0,0,0,0,0,0,0,0,0,0,0,0,0,0,0,0,0,0,0,0,0,0,0,0,0,0,0,0,0,0,0,0,0,0,0,0,0,0,0,0,0,0,0,0,0,0,0,0,0,0],"id":21,"left_children":[1,3,5,7,9,11,13,15,17,19,21,23,25,27,29,31,33,35,37,39,41,43,45,-1,-1,-1,-1,47,49,51,53,55,57,-1,-1,59,61,63,65,-1,-1,-1,-1,-1,-1,-1,-1,-1,67,-1,-1,-1,-1,-1,-1,-1,-1,-1,-1,-1,-1,-1,-1,-1,-1,-1,-1,-1,-1],"loss_changes":[1.82612E0,1.4461854E-1,2.618233E-1,1.6795883E-2,5.9173107E-3,3.258097E-2,5.3463817E-2,1.4781812E-3,1.8159356E-3,1.8181205E-3,9.432733E-4,7.065296E-3,6.1020553E-3,5.7139993E-3,7.630855E-3,2.8088503E-4,1.07347034E-4,3.735592E-4,2.7671456E-4,1.4543906E-4,2.8125942E-4,6.335974E-5,5.9887767E-5,0E0,0E0,0E0,0E0,7.708706E-4,5.101785E-4,5.710721E-4,3.440082E-4,3.198604E-5,1.7601938E-5,0E0,0E0,6.338234E-5,4.276191E-5,3.1860312E-5,5.581416E-6,0E0,0E0,0E0,0E0,0E0,0E0,0E0,0E0,0E0,8.969009E-5,0E0,0E0,0E0,0E0,0E0,0E0,0E0,0E0,0E0,0E0,0E0,0E0,0E0,0E0,0E0,0E0,0E0,0E0,0E0,0E0],"parents":[2147483647,0,0,1,1,2,2,3,3,4,4,5,5,6,6,7,7,8,8,9,9,10,10,11,11,12,12,13,13,14,14,15,15,16,16,17,17,18,18,19,19,20,20,21,21,22,22,27,27,28,28,29,29,30,30,31,31,32,32,35,35,36,36,37,37,38,38,48,48],"right_children":[2,4,6,8,10,12,14,16,18,20,22,24,26,28,30,32,34,36,38,40,42,44,46,-1,-1,-1,-1,48,50,52,54,56,58,-1,-1,60,62,64,66,-1,-1,-1,-1,-1,-1,-1,-1,-1,68,-1,-1,-1,-1,-1,-1,-1,-1,-1,-1,-1,-1,-1,-1,-1,-1,-1,-1,-1,-1],"split_conditions":[4.54E-1,8.9E-1,5.67E-1,8.32E-1,9.32E-1,2.945E-1,1.605E-1,4.04E-1,8.62E-1,9.16E-1,9.44E-1,4.99E-1,3.71E-1,5.52E-1,1.845E-1,8.17E-1,4.28E-1,8.5E-1,8.75E-1,9.02E-1,9.25E-1,9.37E-1,9.49E-1,4.149925E-3,3.3604868E-3,5.436291E-3,8.842706E-3,7.46E-1,5.92E-1,1.72E-1,1.98E-1,8.07E-1,8.21E-1,4.997593E-4,6.42365E-4,8.42E-1,8.56E-1,8.68E-1,8.78E-1,-6.194181E-4,-7.690009E-4,-9.026897E-4,-9.891968E-4,-1.0480036E-3,-1.1086421E-3,-1.1821721E-3,-1.2845949E-3,1.1268989E-3,7.58E-1,1.3562044E-3,1.5991312E-3,1.8621002E-3,2.139713E-3,2.4021517E-3,2.732888E-3,3.858161E-4,2.9707505E-4,2.193672E-4,1.380733E-4,2.1226915E-5,-7.6830016E-5,-1.5557668E-4,-2.2518227E-4,-2.8610704E-4,-3.594338E-4,-4.007921E-4,-4.921497E-4,9.372732E-4,7.8179827E-4],"split_indices":[6,3,3,3,3,5,5,6,3,3,3,3,5,6,5,3,6,3,3,3,3,3,3,0,0,0,0,3,6,5,5,3,3,0,0,3,3,3,3,0,0,0,0,0,0,0,0,0,3,0,0,0,0,0,0,0,0,0,0,0,0,0,0,0,0,0,0,0,0],"split_type":[0,0,0,0,0,0,0,0,0,0,0,0,0,0,0,0,0,0,0,0,0,0,0,0,0,0,0,0,0,0,0,0,0,0,0,0,0,0,0,0,0,0,0,0,0,0,0,0,0,0,0,0,0,0,0,0,0,0,0,0,0,0,0,0,0,0,0,0,0],"sum_hessian":[1E4,7.43E3,2.57E3,1.806E3,5.624E3,6.35E2,1.935E3,6.46E2,1.16E3,2.432E3,3.192E3,5.42E2,9.3E1,1.027E3,9.08E2,3.72E2,2.74E2,6.51E2,5.09E2,3.5E2,2.082E3,2.047E3,1.145E3,2.65E2,2.77E2,8.5E1,8E0,5.35E2,4.92E2,5.07E2,4.01E2,2.2E2,1.52E2,1.34E2,1.4E2,2.7E2,3.81E2,3.16E2,1.93E2,1.57E2,1.93E2,8.21E2,1.261E3,8.21E2,1.226E3,8.96E2,2.49E2,2.59E2,2.76E2,2.57E2,2.35E2,2.36E2,2.71E2,1.48E2,2.53E2,1.02E2,1.18E2,4.1E1,1.11E2,1.12E2,1.58E2,1.95E2,1.86E2,1.79E2,1.37E2,4.2E1,1.51E2,1.55E2,1.21E2],"tree_param":{"num_deleted":"0","num_feature":"7","num_nodes":"69","size_leaf_vector":"1"}},{"base_weights":[6.0474074E-5,-7.1285604E-3,2.0655314E-2,-1.5445854E-4,-9.346607E-3,1.49649E-2,3.5285097E-2,3.5008672E-3,-2.1378356E-3,-8.119603E-3,-1.0054428E-2,1.0715554E-2,1.9698884E-2,4.735133E-2,3.1496994E-2,4.750098E-3,2.1283578E-3,-1.1383591E-3,-3.4114057E-3,-6.3386774E-3,-8.4797805E-3,-9.619779E-3,-1.0772614E-2,1.2465644E-2,8.32172E-3,1.7690258E-2,2.2783019E-2,4.328131E-3,6.43359E-2,2.720442E-3,3.430678E-2,5.4374785E-4,3.943377E-3,2.8020516E-3,1.4539629E-3,-3.2624477E-4,-1.7115126E-3,-2.8724193E-3,-4.274536E-3,-5.578682E-4,-6.924969E-4,-7.8760565E-4,-8.6970994E-4,-9.244666E-4,-9.840404E-4,-1.0579942E-3,-1.1566491E-3,1.1340197E-3,1.3627744E-3,7.1997225E-4,9.0366957E-4,1.6185004E-3,1.8884467E-3,2.1174175E-3,2.3848887E-3,5.5187433E-3,8.056687E-3,3.2846108E-3,3.7352468E-3,3.558253E-4,4.2265395E-4,3.0572453E-4,2.5133468E-4,1.7635968E-4,1.0811304E-4,8.22683E-6,-7.970119E-5,-1.4009776E-4,-2.0278407E-4,-2.5765575E-4,-3.2375116E-4,-3.6164455E-4,-4.4325847E-4],"categories":[],"categories_nodes":[],"categories_segments":[],"categories_sizes":[],"default_left":[0,0,0,0,0,0,0,0,0,0,0,0,0,0,0,0,0,0,0,0,0,0,0,0,0,0,0,0,0,0,0,0,0,0,0,0,0,0,0,0,0,0,0,0,0,0,0,0,0,0,0,0,0,0,0,0,0,0,0,0,0,0,0,0,0,0,0,0,0,0,0,0,0],"id":22,"left_children":[1,3,5,7,9,11,13,15,17,19,21,23,25,27,29,31,33,35,37,39,41,43,45,47,49,51,53,-1,55,-1,57,-1,59,61,63,65,67,69,71,-1,-1,-1,-1,-1,-1,-1,-1,-1,-1,-1,-1,-1,-1,-1,-1,-1,-1,-1,-1,-1,-1,-1,-1,-1,-1,-1,-1,-1,-1,-1,-1,-1,-1],"loss_changes":[1.4808654E0,1.1468488E-1,2.1492171E-1,1.2984784E-2,4.8036873E-3,3.730586E-2,3.160125E-2,1.0700761E-3,1.4739572E-3,1.269564E-3,1.0086E-3,4.022844E-3,5.0546527E-3,9.036213E-3,5.7486296E-3,1.609968E-4,1.3313536E-4,3.0292565E-4,2.2498192E-4,1.1776667E-4,1.5623868E-4,9.350479E-5,8.1822276E-5,5.870238E-4,2.7105957E-4,6.6144764E-4,8.492172E-5,0E0,1.5686452E-4,0E0,2.4563074E-4,0E0,1.8640421E-6,3.3674296E-6,1.5755882E-5,5.2182808E-5,3.468315E-5,2.5899848E-5,4.147878E-6,0E0,0E0,0E0,0E0,0E0,0E0,0E0,0E0,0E0,0E0,0E0,0E0,0E0,0E0,0E0,0E0,0E0,0E0,0E0,0E0,0E0,0E0,0E0,0E0,0E0,0E0,0E0,0E0,0E0,0E0,0E0,0E0,0E0,0E0],"parents":[2147483647,0,0,1,1,2,2,3,3,4,4,5,5,6,6,7,7,8,8,9,9,10,10,11,11,12,12,13,13,14,14,15,15,16,16,17,17,18,18,19,19,20,20,21,21,22,22,23,23,24,24,25,25,26,26,28,28,30,30,32,32,33,33,34,34,35,35,36,36,37,37,38,38],"right_children":[2,4,6,8,10,12,14,16,18,20,22,24,26,28,30,32,34,36,38,40,42,44,46,48,50,52,54,-1,56,-1,58,-1,60,62,64,66,68,70,72,-1,-1,-1,-1,-1,-1,-1,-1,-1,-1,-1,-1,-1,-1,-1,-1,-1,-1,-1,-1,-1,-1,-1,-1,-1,-1,-1,-1,-1,-1,-1,-1,-1,-1],"split_conditions":[4.5E-1,8.9E-1,2.115E-1,8.32E-1,9.3E-1,1.57E-1,4.38E-1,8.05E-1,8.62E-1,9.16E-1,9.43E-1,7.36E-1,1.83E-1,3.24E-1,2.38E-1,7.92E-1,8.17E-1,8.5E-1,8.75E-1,9.02E-1,9.23E-1,9.35E-1,9.49E-1,5.76E-1,4.9E-1,1.69E-1,1.955E-1,4.328131E-3,3.71E-1,2.720442E-3,2.59E-1,5.4374785E-4,4.04E-1,8.1E-1,8.25E-1,8.44E-1,8.56E-1,8.68E-1,8.78E-1,-5.578682E-4,-6.924969E-4,-7.8760565E-4,-8.6970994E-4,-9.244666E-4,-9.840404E-4,-1.0579942E-3,-1.1566491E-3,1.1340197E-3,1.3627744E-3,7.1997225E-4,9.0366957E-4,1.6185004E-3,1.8884467E-3,2.1174175E-3,2.3848887E-3,5.5187433E-3,8.056687E-3,3.2846108E-3,3.7352468E-3,3.558253E-4,4.2265395E-4,3.0572453E-4,2.5133468E-4,1.7635968E-4,1.0811304E-4,8.22683E-6,-7.970119E-5,-1.4009776E-4,-2.0278407E-4,-2.5765575E-4,-3.2375116E-4,-3.6164455E-4,-4.4325847E-4],"split_indices":[6,3,5,3,3,5,3,3,3,3,3,3,5,5,5,3,3,3,3,3,3,3,3,6,6,5,5,0,5,0,5,0,6,3,3,3,3,3,3,0,0,0,0,0,0,0,0,0,0,0,0,0,0,0,0,0,0,0,0,0,0,0,0,0,0,0,0,0,0,0,0,0,0],"split_type":[0,0,0,0,0,0,0,0,0,0,0,0,0,0,0,0,0,0,0,0,0,0,0,0,0,0,0,0,0,0,0,0,0,0,0,0,0,0,0,0,0,0,0,0,0,0,0,0,0,0,0,0,0,0,0,0,0,0,0,0,0,0,0,0,0,0,0,0,0,0,0,0,0],"sum_hessian":[1E4,7.413E3,2.587E3,1.789E3,5.624E3,1.864E3,7.23E2,6.29E2,1.16E3,2.062E3,3.562E3,9.84E2,8.8E2,1.7E2,5.53E2,3.28E2,3.01E2,6.51E2,5.09E2,3.5E2,1.712E3,2.228E3,1.334E3,5.66E2,4.18E2,5.37E2,3.43E2,1.4E2,3E1,2.23E2,3.3E2,1.74E2,1.54E2,1.49E2,1.52E2,2.7E2,3.81E2,3.16E2,1.93E2,1.57E2,1.93E2,4.63E2,1.249E3,8.41E2,1.387E3,1.085E3,2.49E2,2.93E2,2.73E2,1.67E2,2.51E2,2.44E2,2.93E2,1.45E2,1.98E2,2.2E1,8E0,2.31E2,9.9E1,7.1E1,8.3E1,7.4E1,7.5E1,8.1E1,7.1E1,1.45E2,1.25E2,1.95E2,1.86E2,1.79E2,1.37E2,4.2E1,1.51E2],"tree_param":{"num_deleted":"0","num_feature":"7","num_nodes":"73","size_leaf_vector":"1"}},{"base_weights":[5.773764E-5,-6.2903883E-3,1.8975787E-2,2.930023E-4,-8.358218E-3,3.3020444E-2,1.4209345E-2,3.6337795E-3,-1.6785237E-3,-7.0086513E-3,-8.959444E-3,3.0682331E-2,4.959607E-2,1.03461435E-2,1.87119E-2,2.386901E-3,4.9950625E-3,-6.361256E-4,-2.6262044E-3,-5.1733195E-3,-7.444147E-3,-8.492473E-3,-9.573291E-3,2.7805436E-2,3.4749538E-3,4.577173E-3,7.3405355E-3,1.2217807E-2,8.362833E-3,1.6597223E-2,2.1274319E-2,2.9341413E-3,1.6149507E-3,4.2431947E-4,5.706313E-4,2.4454735E-4,-1.0983609E-3,-2.1232276E-3,-3.26966E-3,-4.476886E-4,-5.764218E-4,-6.8537495E-4,-7.6492573E-4,-8.2529814E-4,-8.7677E-4,-9.353238E-4,-1.0208337E-3,2.5083954E-3,2.903539E-3,1.108468E-3,1.321386E-3,7.346439E-3,9.260603E-4,1.5411697E-3,1.754473E-3,1.9443867E-3,2.2070375E-3,3.1994237E-4,2.528227E-4,1.9405146E-4,1.2488702E-4,7.1482275E-5,-1.5830641E-5,-8.1598955E-5,-1.4151479E-4,-1.9027034E-4,-2.3626543E-4,-3.01522E-4,-3.8149106E-4,6.379091E-4,7.610486E-4],"categories":[],"categories_nodes":[],"categories_segments":[],"categories_sizes":[],"default_left":[0,0,0,0,0,0,0,0,0,0,0,0,0,0,0,0,0,0,0,0,0,0,0,0,0,0,0,0,0,0,0,0,0,0,0,0,0,0,0,0,0,0,0,0,0,0,0,0,0,0,0,0,0,0,0,0,0,0,0,0,0,0,0,0,0,0,0,0,0,0,0],"id":23,"left_children":[1,3,5,7,9,11,13,15,17,19,21,23,25,27,29,31,33,35,37,39,41,43,45,47,-1,-1,-1,49,51,53,55,57,59,-1,-1,61,63,65,67,-1,-1,-1,-1,-1,-1,-1,-1,-1,-1,-1,-1,69,-1,-1,-1,-1,-1,-1,-1,-1,-1,-1,-1,-1,-1,-1,-1,-1,-1,-1,-1],"loss_changes":[1.2011809E0,1.019527E-1,1.677587E-1,1.1802394E-2,4.561335E-3,2.312696E-2,3.247288E-2,1.1168178E-3,1.1116483E-3,1.3690144E-3,1.0478199E-3,5.586326E-3,3.6513358E-3,3.658168E-3,4.3394864E-3,1.4269399E-4,1.4530867E-4,2.1927663E-4,1.8400745E-4,1.14522874E-4,1.19656324E-4,7.56979E-5,1.412481E-4,3.863275E-4,0E0,0E0,0E0,4.3930113E-4,3.836453E-4,2.6765466E-4,1.3622642E-4,1.3770536E-5,1.509639E-5,0E0,0E0,3.5351273E-5,3.0421623E-5,1.31395645E-5,2.4151523E-5,0E0,0E0,0E0,0E0,0E0,0E0,0E0,0E0,0E0,0E0,0E0,0E0,1.1987984E-5,0E0,0E0,0E0,0E0,0E0,0E0,0E0,0E0,0E0,0E0,0E0,0E0,0E0,0E0,0E0,0E0,0E0,0E0,0E0],"parents":[2147483647,0,0,1,1,2,2,3,3,4,4,5,5,6,6,7,7,8,8,9,9,10,10,11,11,12,12,13,13,14,14,15,15,16,16,17,17,18,18,19,19,20,20,21,21,22,22,23,23,27,27,28,28,29,29,30,30,31,31,32,32,35,35,36,36,37,37,38,38,51,51],"right_children":[2,4,6,8,10,12,14,16,18,20,22,24,26,28,30,32,34,36,38,40,42,44,46,48,-1,-1,-1,50,52,54,56,58,60,-1,-1,62,64,66,68,-1,-1,-1,-1,-1,-1,-1,-1,-1,-1,-1,-1,70,-1,-1,-1,-1,-1,-1,-1,-1,-1,-1,-1,-1,-1,-1,-1,-1,-1,-1,-1],"split_conditions":[4.68E-1,8.84E-1,5.67E-1,8.28E-1,9.28E-1,2.98E-1,1.62E-1,4.08E-1,8.57E-1,9.1E-1,9.41E-1,2.56E-1,3.71E-1,7.24E-1,1.85E-1,8.14E-1,4.36E-1,8.44E-1,8.68E-1,8.97E-1,9.22E-1,9.35E-1,9.48E-1,9.3E-1,3.4749538E-3,4.577173E-3,7.3405355E-3,5.94E-1,5.12E-1,1.735E-1,1.97E-1,8.07E-1,8.21E-1,4.2431947E-4,5.706313E-4,8.36E-1,8.52E-1,8.63E-1,8.78E-1,-4.476886E-4,-5.764218E-4,-6.8537495E-4,-7.6492573E-4,-8.2529814E-4,-8.7677E-4,-9.353238E-4,-1.0208337E-3,2.5083954E-3,2.903539E-3,1.108468E-3,1.321386E-3,4.84E-1,9.260603E-4,1.5411697E-3,1.754473E-3,1.9443867E-3,2.2070375E-3,3.1994237E-4,2.528227E-4,1.9405146E-4,1.2488702E-4,7.1482275E-5,-1.5830641E-5,-8.1598955E-5,-1.4151479E-4,-1.9027034E-4,-2.3626543E-4,-3.01522E-4,-3.8149106E-4,6.379091E-4,7.610486E-4],"split_indices":[6,3,3,3,3,5,5,6,3,3,3,5,5,3,5,3,6,3,3,3,3,3,3,6,0,0,0,6,6,5,5,3,3,0,0,3,3,3,3,0,0,0,0,0,0,0,0,0,0,0,0,6,0,0,0,0,0,0,0,0,0,0,0,0,0,0,0,0,0,0,0],"split_type":[0,0,0,0,0,0,0,0,0,0,0,0,0,0,0,0,0,0,0,0,0,0,0,0,0,0,0,0,0,0,0,0,0,0,0,0,0,0,0,0,0,0,0,0,0,0,0,0,0,0,0,0,0,0,0,0,0,0,0,0,0,0,0,0,0,0,0,0,0,0,0],"sum_hessian":[1E4,7.488E3,2.512E3,1.79E3,5.698E3,6.35E2,1.877E3,6.64E2,1.126E3,1.76E3,3.938E3,5.59E2,7.6E1,1.012E3,8.65E2,3.48E2,3.16E2,5.37E2,5.89E2,3.4E2,1.42E3,2.245E3,1.693E3,3.32E2,2.27E2,6.8E1,8E0,5.18E2,4.94E2,4.78E2,3.87E2,2.02E2,1.46E2,1.57E2,1.59E2,1.85E2,3.52E2,3.33E2,2.56E2,1.6E2,1.8E2,3.75E2,1.045E3,1.217E3,1.028E3,1.269E3,4.24E2,1.1E2,2.22E2,2.48E2,2.7E2,2.36E2,2.58E2,2.2E2,2.58E2,1.25E2,2.62E2,1.18E2,8.4E1,7.5E1,7.1E1,8.5E1,1E2,1.88E2,1.64E2,1.78E2,1.55E2,1.79E2,7.7E1,5.6E1,1.8E2],"tree_param":{"num_deleted":"0","num_feature":"7","num_nodes":"71","size_leaf_vector":"1"}},{"base_weights":[5.471309E-5,-5.776172E-3,1.675878E-2,-1.2536603E-4,-7.5733573E-3,1.1763561E-2,2.7788213E-2,2.6828507E-3,-1.8237719E-3,-6.500434E-3,-8.108086E-3,8.586124E-3,1.54428305E-2,2.433374E-2,3.72308E-2,3.7441307E-3,1.4653072E-3,-1.1383116E-3,-2.9229734E-3,-5.139061E-3,-6.809308E-3,-7.7581923E-3,-8.735227E-3,6.7881243E-3,1.0034804E-2,1.3930421E-2,1.7580738E-3,2.1148738E-3,2.6859922E-2,3.40711E-3,5.1907346E-2,4.4047176E-3,3.1024811E-3,2.0411657E-3,8.6911203E-4,-5.3040794E-4,-1.573588E-3,-2.464093E-3,-3.4637668E-4,-4.5216392E-4,-5.6154194E-4,-6.37676E-4,-6.9917104E-4,-7.5384945E-4,-8.042589E-4,-8.640184E-4,-9.968763E-4,7.5272465E-4,6.038256E-4,9.18901E-4,1.0868076E-3,1.2886643E-3,1.4864639E-3,2.4868613E-3,2.8047748E-3,4.73804E-3,8.591033E-3,4.6847333E-4,3.996433E-4,2.8219572E-4,3.4095228E-4,2.2783734E-4,1.7490101E-4,1.1257181E-4,6.4417305E-5,-2.2285669E-5,-8.061426E-5,-1.3136459E-4,-1.8108592E-4,-2.2239695E-4,-2.61676E-4],"categories":[],"categories_nodes":[],"categories_segments":[],"categories_sizes":[],"default_left":[0,0,0,0,0,0,0,0,0,0,0,0,0,0,0,0,0,0,0,0,0,0,0,0,0,0,0,0,0,0,0,0,0,0,0,0,0,0,0,0,0,0,0,0,0,0,0,0,0,0,0,0,0,0,0,0,0,0,0,0,0,0,0,0,0,0,0,0,0,0,0],"id":24,"left_children":[1,3,5,7,9,11,13,15,17,19,21,23,25,27,29,31,33,35,37,39,41,43,45,47,49,51,-1,-1,53,-1,55,57,59,61,63,65,67,69,-1,-1,-1,-1,-1,-1,-1,-1,-1,-1,-1,-1,-1,-1,-1,-1,-1,-1,-1,-1,-1,-1,-1,-1,-1,-1,-1,-1,-1,-1,-1,-1,-1],"loss_changes":[9.741893E-1,7.529226E-2,1.4225751E-1,8.5422825E-3,3.1744838E-3,2.0711824E-2,2.5385141E-2,8.667181E-4,8.3753304E-4,7.538572E-4,7.5511634E-4,2.4298131E-3,2.4226606E-3,4.2031705E-3,8.155376E-3,1.3892585E-4,1.06716354E-4,1.8147909E-4,9.767711E-5,7.7842735E-5,7.580966E-5,9.031594E-5,7.0378184E-5,1.9343011E-4,2.7295947E-4,2.8429925E-4,0E0,0E0,7.596612E-5,0E0,1.4710054E-3,1.2849923E-6,6.399234E-6,7.103372E-6,8.337003E-6,2.4328285E-5,2.2353488E-5,2.7951319E-6,